{"performance":0.5564,"shape":[784,30,10],"biases":[{"v":1,"dim":[1,30],"data":[0.8526185128716895,0.37296793189017674,0.04523477750496065,0.6141703918768301,0.8567727907460141,0.303111954833096,0.29657180972665026,0.669201572254434,0.28255794079960284,0.034847430704451024,0.6830201498849258,0.30952829256822384,0.24799465309646926,0.7749098422624638,0.8872628629011463,0.3628783176806447,0.3856002243738499,0.8390551115387286,0.9961914096805229,0.9574050892126611,0.9715252712814928,0.7714942250116102,0.9838735172821627,0.13524768077491875,0.9355350079642738,0.5351945461570701,0.21176038461937827,0.05894406644018917,0.781495160195644,0.31872016216379107]},{"v":1,"dim":[1,10],"data":[0.26985012355128296,0.4926691143628253,0.32417875916337996,-0.07957570253689525,0.6379944719623416,0.3964910265175342,0.20368439411290734,0.00017107953537004808,-0.12521274766167184,0.16735476774706537]}],"weights":[{"v":1,"dim":[784,30],"data":[0.02852030220937096,-0.012675708639630332,0.018032539431971167,-0.006210054068110385,0.01274320158944664,0.03183392809208556,0.005991697433988814,0.02283499832570937,0.0159910274201336,-0.020498362880237337,-0.003055462252737895,0.007867849276885296,0.0021487760932317676,-0.011210763525273676,-0.03250792858825635,0.017898592081925915,-0.02834484756360841,0.02395789481979844,0.025438752774247328,0.03295867205141691,-0.021096574537356104,-0.02261689517165128,0.012476836517150272,-0.02419561440785248,-0.01010766353917206,-0.016716968103147822,0.012504372737892462,-0.015893734055581966,0.010932249746967763,0.008628775828547375,-0.02517672284744161,0.007270162323623,-0.02217996312045264,-0.016359268557234415,0.01904831425372982,-0.030560297332820584,0.027319936361540703,0.007739443528951541,0.01592117640617144,0.021442545953018782,-0.003292890277809178,-0.010957659112045775,0.027633171730117756,-0.01530948370408848,0.029708498636150937,-0.020613127166564285,-0.017277534771338768,-0.018196923879484555,-0.03475152110805307,-0.01687618949100898,-0.010673118717171089,0.014253468392893064,0.008244625496654168,0.02260780236863634,0.001933668426704345,-0.031461321418936504,-0.024991352970052755,0.012541194636540576,-0.01474942882158782,0.01768417831303954,-0.008332678174816817,0.02047875643543295,0.007515211205862848,0.033456771059864526,0.02079577613319407,-0.02409438168498885,0.024160896320574218,0.007339189115590603,0.031601948696649396,-0.018642393229423185,0.015234668271743385,0.029866334035266826,0.009600495933723474,0.008517463760371324,0.01388677128896379,0.008878607712224769,-0.015108541666223264,0.02813231074026268,-0.03450667997937584,-0.031306319604834876,-0.012263812147146669,0.017987130744611987,-0.007655753331991658,0.03343384980360066,-0.02681455029631406,-0.0030912454937574857,0.01233124766273888,0.02071577896935322,0.03058323807702809,0.03226056156324672,-0.023706885145010657,-0.03339282903713408,0.008317061309255726,-0.02860866224210363,0.009445944901071803,-0.006620134683407004,-0.03531215941198026,-0.00648756638586399,-0.02293780886534172,0.021626543691894567,0.014929700854516802,0.02801063753568049,-0.026904145485457057,-0.011958750521497023,0.007594823015504057,0.01075091684184927,0.006485360323776432,-0.002419965727750495,0.013304694867232387,0.023010818805181396,0.01723606825779435,-0.029521888876570385,0.008415152337514678,0.0006202995186719157,0.014436194236429722,0.0029071745988589193,0.007321182870026734,0.016105819701633446,0.009330780074138026,-0.01581458415151739,0.014089648935353742,0.024622751955989647,-0.013974137031913967,0.016557554511272103,-0.014076144441866348,0.01407496514119174,-0.01142370061076197,0.022498377947509293,0.014502049028860877,0.01804906817891843,-0.02380551667402434,0.002184848112762302,-0.024651920681582187,-0.03178537933685077,0.034070846904094815,-0.02881141193195886,-0.002873221382232609,0.005126605503169519,0.009747156141225038,-0.016637378428656025,0.031064139388051304,0.023843293534757844,0.030915131388828343,0.02338146258116696,0.017638623266947824,-0.02264644548940875,-0.02471474869612184,-0.022092665170102343,-0.02653933758130262,-0.007255212732741243,-0.0107719750319525,-0.019449901658522464,-0.03026558185260051,-0.009880386320849532,0.03198869983648531,0.010434141158324826,-0.02178398080346636,-0.03381214590272498,0.019266618871053423,0.0029769678305623243,0.009412967803353794,-0.014009745012168465,0.016668827458156787,0.021633824579557565,-0.03295544800447888,0.0046321975941286606,0.027559061577888608,0.02969942921864331,0.011546246971045414,-0.006447412019675469,-0.01567593608401891,0.00397663330105142,0.02437665693679452,-0.01527115304170894,-0.01017874361412217,0.02604751719203529,-0.03078561743644527,0.022807808831554702,-0.03456161660081572,0.01606064859370329,0.02860438871905235,0.012043186535064546,-0.02844706069294654,-0.009887781444685256,-0.01335611913564451,0.033613091442015824,-0.031485311796345665,0.00002257321144135543,-0.005309878528170473,-0.010776452642932952,0.011914042265683836,-0.01918787908308831,-0.018076958514183717,0.008475862541279744,0.005409524522783808,0.0004568058921187168,-0.003677233547138239,-0.0010944608266701614,0.012542310183553215,0.019698539870488627,-0.0042475540577923895,-0.015113963257831698,-0.029158811421388365,0.027150670795877213,0.01833811079728382,-0.03269843517499447,0.02608441872878343,0.007154166423851992,-0.020369384121434613,-0.025473620107193513,-0.027363646327020513,0.021889177187057914,-0.0022801738754909193,-0.0355209826625419,-0.02294678623571473,-0.00727728867708545,-0.009539639997829584,0.02280200973781564,-0.0299577466503756,-0.002990371324094298,0.017816083918355444,-0.01564213874864809,0.015656900451651815,-0.03138034834191177,0.02884167262131329,0.008617045198572822,-0.028563073665373646,-0.026618248088509225,-0.0021293560436381753,-0.0022018824643274607,-0.003650254495736208,0.03568105265539301,0.03401886969253386,-0.0011610968905131358,-0.013567544098457476,-0.029560805752973356,-0.003717352729950628,0.033961514454014755,0.019768669081086702,0.03458877975893353,0.007111859454393632,-0.02770806999342912,-0.03134409089537344,0.029368959637158822,0.02697037949691319,-0.004762275857928527,0.029632797472126465,-0.020863521422799916,0.024409688498806675,0.015600118563373302,-0.018285834696473536,0.02963974159439535,0.02622657938815016,0.02326108160371966,0.023218452431581858,0.02119608320628647,-0.02494910627211276,-0.027202040946514967,0.02626039020696887,-0.017947897716234378,0.01828232997140325,0.013356943845699644,-0.03211196542661592,0.013093775157221016,0.03269656764447347,-0.02089570151710312,-0.01910024246639576,0.014393825034512524,0.015568765836392108,-0.03565461368558698,0.03226405229999124,-0.011732491524308697,-0.0039300945898166975,0.028944654073580583,-0.01932757150466042,0.017221288266988447,0.029984480033667688,-0.010000285208576098,0.015802059121846193,-0.02772738103865302,0.026452612446378337,-0.012650956045427746,0.0010952625265414975,0.025697206949404423,0.0123882212950419,0.033586310360511906,-0.016382337824601443,-0.008894074907128124,-0.025010336788471164,-0.019010086859263434,0.016386485824918626,-0.014104779595219892,0.007013283132134375,0.01795137967234628,0.013792082120968434,-0.011239161236656563,0.02379877593589888,-0.0299257420867594,0.03325969908551338,-0.0260896630494361,-0.03281835037970698,0.012285441856845353,-0.03145901522044533,0.02876444930837886,0.012654666901587328,0.024597213227993957,0.02997056162443283,0.008852311982325244,0.02797854355558299,0.027049300760460873,-0.011627336862044755,-0.016051480900568245,-0.01959278041949083,-0.006490799484467815,0.0024709210397635406,-0.023218533576100785,-0.014754253434038307,0.02523395521200516,0.006391117265130912,0.009972495541342018,-0.021584141811240243,0.00888075468839803,-0.000727598786889834,-0.029229035361788367,-0.00472719110785131,0.000337508520247054,-0.02191405139175425,-0.013692144311181547,0.026999298352504128,-0.021094943015375383,-0.02467494698065921,0.015616130469300722,-0.00621797323277359,0.03348960954729191,0.022197741080447128,-0.023730487897681507,0.012986559490585074,0.020743805827080797,0.006838843702937268,0.012287031368544032,0.013463220653949365,0.006548982644927426,0.02653269545055359,0.007800457813282202,0.02422053171759911,-0.029424904241705057,-0.013273253374028607,0.035592724738687576,-0.029524156635692123,0.008390036989154144,0.022865987347741305,-0.008332435809050218,-0.008511237775062366,-0.013044026718194206,0.01756197283751932,0.005873751595743645,-0.027048611094535695,-0.020363063585288117,-0.015465583035887964,0.012047727314653927,-0.00593033980181482,-0.005951442535204726,0.024265171102193114,0.033172113949031995,0.006047143011280084,-0.02950986058868847,0.02998718238375413,0.030292682407572654,-0.027560354911076838,0.02728604712706951,0.019125995806542406,0.000520150900490826,-0.022528615334793247,0.0035602847216421314,0.014057927835658481,-0.0014140891425809445,-0.025023146550095732,0.03399223332492751,-0.012650596845396444,0.006268461432746371,0.007257957821937895,-0.023011941567913,-0.013361037453917868,-0.010397108467395454,0.020293471604357776,0.015234348845188544,-0.022543870110390697,0.013448642084795336,-0.030930650946930066,-0.002910147094830708,0.008451260996443529,0.03345120272158028,-0.028068281899636047,0.0017924041363430127,-0.0066842534842017935,0.02617131188146447,-0.0023929350553183936,0.013348352784210257,0.033186592459358115,-0.025822033741933544,-0.025618410952800888,-0.026943609443553604,-0.006378046755603856,-0.034169835485121085,0.00510381295827084,-0.025723430556732832,-0.02336222184150102,-0.018889605997928542,0.0014692706567502611,-0.00991789206248909,-0.03166650115460656,0.014992194600963434,-0.027848930090941467,-0.024720506285949274,-0.007453909588323598,-0.02451928525118753,-0.016290991937156003,-0.032131126748186856,0.012337888264002225,-0.02001286965713007,0.02148883822918385,0.00951599637674671,-0.0023008501664065896,-0.032506951061313495,-0.025253579780977725,-0.009427118204316893,0.004128652137578821,-0.005981370213232497,-0.007060942176421683,0.027351128280082543,-0.02414162442128182,0.016981057671771983,-0.02121146782993022,0.018000480051363923,0.02706171447079562,0.0143182735052045,0.014182070063308001,0.012690317061150121,0.02717574142998071,-0.0011414066527480578,0.035586619004736114,-0.0019579050514162808,0.027328652881255282,0.03010807744872292,-0.025566860861984647,0.009219828882479256,0.024550436472491503,0.02468407643254336,-0.006793123754373625,0.03479337857182428,0.03408994458965735,0.01474244711407371,-0.03257644602203771,-0.01738933776678031,-0.02578204823794287,0.0009637201059816157,-0.006510386912584754,-0.014260270682535287,-0.020347830361401077,-0.004497642762526644,0.01525286537081037,-0.001063897489695441,0.010490864482837852,0.005845451119394288,0.0032508303860373485,-0.0042324543283061644,0.010493725000599096,-0.02948063136959108,0.007958952667832891,-0.019354615957029024,-0.005126915631724803,-0.010998475602679034,-0.008121490836090484,-0.003542541514952696,0.0002954705813222646,0.016862384688530213,0.006996913478924544,-0.018936321438122804,-0.03139381785328622,0.010191172343400612,0.014432894907297364,0.027038671388642396,0.00839205810291991,-0.018783415625913916,0.0012218879426503235,0.01788042526446914,0.011356592542686617,0.0017697580827050127,-0.007020813512035713,0.015817800951914034,0.025594493697063965,0.003364227994081329,0.017439648663762193,0.016932873240235638,-0.0027875078212288643,0.0052059962620725556,-0.026906909247338864,-0.011267434600293192,-0.013495129967094944,-0.007569526465867869,-0.01202403277138916,0.029836194684444303,-0.005367584354673119,0.035081951093628036,0.020137711787591855,0.028602539409920677,0.006144619305918746,-0.023926465007519285,0.017364634159933737,0.027946022376480112,-0.006756989287553354,0.024516482599674316,0.031887095472050514,0.025130497806298346,-0.021104379836245628,0.033002812089055075,-0.0116260331948183,0.03313510701270507,0.03141351006780439,0.021424734490938513,-0.013381741844658093,0.017275738082847276,0.024553838502128177,0.0005996097951951815,-0.007738134134934675,-0.02570521510049744,0.03169851815556496,-0.024245744336415923,0.0069693787595729445,0.018211051864654847,-0.03103543001324882,0.034161058702098526,-0.019609636526107744,-0.023911513741274665,0.00458070588827332,0.031755316173485384,-0.032970765278168494,-0.025551126457284648,0.0005743046797144977,-0.007499683280165974,0.00825805894951026,0.004035967265160013,0.02675852023240534,0.02860958302362286,-0.011535339786032398,-0.026254901432309824,0.011095149605815466,0.020684021971273156,-0.028542439592241467,0.021983179372379924,0.016701513023082093,0.021045674532383585,0.004493697913250924,-0.03025330250258272,-0.01114150975524935,-0.002450157157806325,0.023517806317128104,-0.008561995405057594,0.004709191205436149,0.02392749167666592,0.017783099393204944,-0.02082552433374881,0.006345214429758626,0.033957095294651046,-0.03288604494233165,-0.023659658190146163,-0.008105920407894325,0.03036739203049882,0.02714254529420024,0.034684897628397784,0.03458545462949347,0.01504118672384694,-0.000556197095891546,0.010203017865805464,0.013707669282914904,-0.023892255507392456,0.01857148460961867,0.011068809629330718,0.005938455009312622,-0.01964400563520055,0.018513475676316657,-0.009013835306089093,0.03320999869462052,-0.03323313676043385,0.03382203637799357,-0.021891296870633625,-0.03404663230999619,0.0005317599952481267,-0.031875503029805304,0.01524362175458152,-0.022764317971453507,0.031255770544344974,-0.02243685369964045,-0.007009936117139515,-0.01550207797670487,0.026745378034573837,-0.015903456800114242,-0.028392835423095703,0.005919976237454251,-0.027011378452560814,0.022019163077165768,-0.011863510916329392,-0.03397108822011393,0.03498442760009687,-0.024239273126989543,-0.02892563871996031,-0.012344523137661245,0.0250538421385463,0.004436536734601711,0.022876069506599483,-0.031464952611968515,-0.03269761358027309,-0.02388795954044292,-0.009811112398421027,0.032433489704713436,0.03526716767567237,-0.02666493475044735,-0.03101853975835784,0.022110122280378623,-0.0054128754491040085,0.024691416797750408,-0.03563704139282036,-0.032694542081958954,0.01581134107422571,0.01642118149309487,-0.008686257967708801,-0.011702045245693595,-0.0307118638090638,-0.018400554554079008,0.03269068710689753,0.0027471570922719263,0.0354385751215546,0.024396926599449725,0.03380244419108047,0.0004798795035068845,-0.002158783269449835,-0.008931059775120147,-0.016645556632186,0.001071251994063646,0.00010568696183110848,-0.010489850944268351,-0.018783066590555984,0.03006663441154843,0.002884544500927108,0.019520843051085306,0.0342676867590961,0.029891172946635833,-0.031115259169681164,0.02170649884300145,-0.029506600169587567,-0.01801222220234514,0.00812494675227561,0.018539799090999107,-0.01390988916564655,0.025129882927691548,-0.010024645563470573,-0.017706670343465736,0.005469025001109969,-0.016574508200322007,0.01327213065495779,-0.02506558164960415,-0.025393090538955776,0.01399004028944853,0.011441511573033462,-0.02204325873772349,-0.025860266371220325,-0.022710682580268423,0.007437722913186194,-0.018335173165664843,0.02217608282720914,0.007125255496269758,-0.019130779337351727,0.003757271345760302,-0.00951707200992134,-0.009981806880677069,0.024450020320304883,0.004966638232070428,0.012101617168675846,0.033047216487402956,0.002479163363717639,-0.018432688772924793,-0.0015272834775185914,-0.022926019626951937,-0.00019765452549490303,-0.025715463261647656,0.001366688825459192,0.014684027958825311,0.029434744508828214,0.019923087309001417,0.004085437191431521,-0.03495597294191624,0.0319171804438374,0.033940432181338034,0.035295510304820005,-0.03205114393676741,0.008292874391265852,-0.0008427655342304746,0.009440246003181413,0.032952357353433756,0.011392711862335196,-0.0011048649607292918,0.003427203348096146,-0.034364801550086366,-0.009333280980053274,0.029805619822661708,-0.0002413083073523961,-0.012443895658032118,0.02105244371777229,0.005598241012934477,0.006206446287645072,0.02907598889659918,0.02530031836363858,-0.029975336984055585,-0.031791511743298737,0.009953450810681675,-0.035145760641086904,-0.007540134110601251,-0.0293946021213507,0.003607529919676798,-0.002076942759701481,-0.003745054723295782,-0.020082749088663983,-0.03260076029189412,-0.013591247748490487,-0.03456789426127005,-0.023441579574205212,0.025051817985339953,0.007182329657873736,0.014613538551989894,-0.028888047650767894,0.032244750798890526,-0.02275553726649783,-0.029559827127573844,0.004037194815891744,-0.02226744957343612,-0.01779406595708247,-0.0016791237598465306,0.027235955315977264,0.03490884818380484,-0.009580038706104022,0.010886791230331552,0.030880692025362685,0.004913592854452288,0.02594054365334571,0.005668006255236592,0.005679863293328591,-0.003862850256865946,-0.015846152714160202,0.021554970761338263,-0.03005630090474314,0.006944492627544721,0.0041307963506248685,-0.0074420854327945166,0.03229617832079784,-0.033704811948453366,-0.03074821717906928,0.018983007371790626,0.003495269581042612,-0.030832466910051908,0.03440005959454984,-0.01863911355649076,-0.02489503831888381,0.02595546516462857,0.02048891219272589,-0.011622438544761606,-0.0107126945733684,0.026198079017247272,-0.018656869499764302,-0.027044729455906615,0.014532416535635084,-0.01448255513686574,0.005410503913586426,-0.019485250159339947,0.022362078374460755,-0.02972195883875396,-0.0289392692506798,0.003612065887060263,-0.02644897692404616,0.01587874078451569,-0.025198647512002577,-0.014342369640004808,0.004252712804369278,-0.032849421004759564,-0.02613287339697312,-0.023736667003951367,0.01093510381141987,-0.0008661197111105648,-0.0038564523181776472,0.024821235519073177,0.004935799901870638,0.004204457897111623,-0.023734645650860507,0.013591826507268708,-0.010750356091365524,-0.03451692858952412,0.01802771530343524,-0.013843811561073012,-0.004358563913650762,0.03388385162872655,0.02598607700304692,0.023283361995961063,-0.008516824819321873,0.012690925494320986,0.005201363625469524,-0.03496945840712687,-0.004011957318090738,-0.03273911733750239,0.0042706152274658085,-0.03464076436954533,0.034672862916345956,0.008754846553051795,0.019095882576333864,0.021339749735033706,-0.0023922548029400165,-0.02944210251627601,0.006496584432776675,-0.006824380812285216,0.035367320865892046,0.024920725911295412,0.0007912863187705191,-0.03187637712105908,-0.0009212462753200382,0.002021227227869425,-0.02667184554014298,-0.007331060286489204,-0.006018200291858955,-0.03239129383293434,-0.01916959640865076,-0.0064348736146630885,0.002549902114840928,-0.02205270750893879,0.0010659209231222364,0.009981629123468144,0.014183668747573009,-0.015288974603030532,-0.009104798038169642,-0.00895258669634905,0.017457756544679577,-0.010330884001844357,0.00999179647364859,0.02160445168034881,0.011009979159431547,-0.012430520530784053,0.02073127372490697,0.0006559322255789146,0.026273225036675774,-0.014610293504620842,0.02373562737675908,0.020256455474498974,-0.033605405866259846,-0.012269732844271766,-0.004549223757171213,-0.030317230139296197,0.0011780643131115778,-0.010242564056757148,-0.028095040783234247,-0.013878314254403348,-0.009998423584108044,-0.03380129749387252,0.0014365570426611155,-0.016096639589988953,-0.033466180271810454,-0.02272561840332202,0.01338589610008889,-0.030163910095084852,0.015505003805968911,0.028840302250522615,-0.02754206140845404,0.011654203466632549,0.01905790148719149,0.0257072931683444,-0.02510814078983292,0.023436209642147397,-0.03448224714609078,-0.02320193958706323,0.011086799959422204,-0.025598432926405117,-0.006299495815113323,-0.022061435766552503,0.02584449552488556,-0.031166509488683426,0.016239827456236977,0.03119549558982164,-0.03432175726208353,0.02369852005995486,0.012390249136514542,0.03412616387981775,-0.01186028287908612,-0.02128897453430835,-0.018227426898241684,-0.025860027439815636,0.012051441411986871,-0.02001866443890172,0.02794407121461709,-0.024418476076487172,0.01490423090462624,0.027533823585220385,-0.01484038271307042,-0.003701411123984033,0.0005245757147461783,0.0005504225772637872,-0.00267154949313074,0.03513419339064422,-0.035496359900033414,0.018223604766502408,0.02264914002570728,0.024870083088293304,0.015392484626402414,0.004219244559394424,-0.02607974777831828,0.005475743626790167,-0.02320647837519601,-0.020601159416578647,-0.033781377333819314,0.022591461565170015,-0.02482991543914037,-0.031171940209217396,0.009850745747297128,-0.029519964983119117,0.010145733976252652,0.0002108871502966153,-0.014154586837750456,-0.033483114036717936,0.016757206404865187,-0.02332038418879664,0.03371942217145356,0.025445557364206173,0.027561728679125905,0.010754460410612912,0.02346441346229368,-0.01836183223353852,0.034790223593447675,0.0030917858674819956,-0.03391141144043216,0.02388476250310123,-0.017607582270240965,-0.02729983125036769,-0.01609588199357719,0.030170674585892204,0.011870061624963945,-0.010545430639264164,0.03176032657962016,0.02889817763903603,0.018386624301712624,-0.03376576510332701,0.005589487531373893,0.007361490967936889,-0.013644736573521356,-0.026252367364458223,0.03271904999994696,-0.0070142325323588085,0.03371633763996121,0.03468247956204107,-0.015629733042428175,-0.009204608338844636,-0.028157952079430375,0.025256883943647335,-0.00440095160132227,0.008360585144171581,0.03084060018069315,0.01127528601372827,-0.012090715123089596,-0.003457372681668137,0.020798194242887594,0.011482028848413454,0.03198202089906094,0.006307890798105042,0.022414587750059268,0.013724858760692706,-0.005564268157669255,0.012117087218312282,0.01873979254526532,-0.015865386140416767,0.03394380608361419,-0.03505366693978032,-0.015635884189393753,0.016139571307040558,-0.009730346515258495,0.02313030526147536,-0.006533041205450437,-0.0236422748117527,-0.03307946119019195,-0.011530350133248764,0.01291925834693517,0.008713210722065108,0.03068970938965021,0.008161436119683623,-0.002796321843290291,0.014635735949558826,0.010657553540021913,0.004517326929338231,-0.026315029807524266,0.0047151192051736335,0.019591847064604054,0.0068698828728991435,0.013865914114627122,-0.031032050450691143,-0.01887576280246632,0.007525637037618711,-0.018509734146815244,-0.033693263316335674,-0.009165206210161068,-0.03508523508901951,0.032575840222447715,0.026307351887271187,-0.02546017160401162,0.033239520072365296,-0.026035212983247964,0.016019415692017487,-0.03489570173669818,-0.029364073096982066,-0.013506369669021771,-0.030220076259724803,-0.023678229871814494,-0.012426103173543512,-0.03334100157010051,0.013369905372877732,0.021369103837961704,0.023288922028414073,-0.012835550596219103,-0.010399569830095929,0.031793016307323695,-0.034964198357300295,-0.03453863224638366,0.027341085558428495,-0.022427671890089436,0.0025208732317504442,-0.0016087083097313314,0.00006566790314474807,-0.014290367519215546,-0.00011982327844543016,-0.03557232179798628,0.0014877243430643117,0.034458270546468224,-0.011813018435363554,0.022724447437450217,-0.020744597032319647,-0.005341892954854339,-0.02667080907999487,-0.004358877996419602,0.02822071219366335,-0.027759175519301463,-0.020662134114154896,0.010922769109338244,-0.02028485484200261,-0.034079675897622556,-0.016312365265495257,-0.023401333092296823,0.00430640684564349,0.027190367229492942,0.002919641240316754,-0.02771275520851842,-0.01801591721141161,-0.02852529714569611,-0.017619536375907525,-0.018168768326631356,-0.005598429085327085,0.016069529986070093,-0.0018219093153910672,0.03218601807366867,-0.007900802654537107,0.003129505766173154,0.03229392513615817,0.029544698656814992,-0.00855525300082402,-0.013938359747523516,-0.03459508866023757,-0.008884403301615553,-0.021739097902588468,0.006165122100884699,-0.025613870785623907,0.02850927340278063,-0.020720645854564047,-0.011454935059451693,0.03460733499523288,-0.012817570436433187,-0.025111723668012394,-0.0032943834585746155,-0.019682600217529787,0.01892373697412692,0.03396967083124612,-0.027080450056779146,0.008775754357925354,0.020284835875595833,-0.034262413260845455,-0.015171529799640222,-0.016999661287931102,-0.026067377010563317,0.0037517590475018045,0.027682409255605077,-0.019037198189638393,0.003886002322620839,-0.01960703742922881,0.010838797770164917,0.022086712583868708,0.019887712838288343,-0.026601019325492165,0.011457843257522799,0.02247517773028772,-0.02477262372846819,0.00957282492337291,-0.009122319161970033,-0.02867216524727333,0.01393222993173356,0.01476495066419434,0.003730639414323323,-0.006452769480441132,0.013434915313768728,0.035559208744101574,0.017379861514013748,-0.012596821334464697,0.008017565750668199,-0.03493659146901566,0.02540350836111505,0.031163148974498407,0.001640198118963949,-0.006867397641127774,0.0339741527925427,-0.019543698470309925,0.016667632348810937,0.015754535729374363,-0.027877676934479845,0.027946929560750167,-0.032847122809929075,-0.021176876750424452,-0.034570519116378054,-0.014117741982310746,0.02009688649560749,0.01099397364558887,0.018192164506983695,0.005082182992834838,-0.00549425957920567,0.027620864559014822,-0.0061177850252958944,-0.028037178182411946,0.03480584402912866,-0.015651455691699043,-0.0161510743905083,0.03099092298542908,-0.014372838715997484,-0.03096999272978761,0.02003220026063945,0.02479673906350525,-0.017494650178373015,0.015168105155073606,-0.0034087851238692175,-0.026823214122713386,0.024464634439536247,0.020605142810072925,0.02279163332695753,-0.028087795593109224,0.000985954093186524,0.03315296213813169,-0.01133094994870294,0.03259547777000689,-0.007892012133902629,0.02851715830160479,0.006004578450239347,-0.013189227033950833,0.02171471270739455,-0.025781935635516867,0.0010067673925188447,0.021788067195612413,0.035498743824134336,-0.024733662580242694,0.016666674961119544,0.025486484316790247,0.011223078534946657,-0.016929003062843156,0.02852577545762663,0.014699171295398756,0.003073463445526045,0.021425874444494408,-0.022505072880101284,-0.01766157629133626,-0.021841025749746654,-0.007530047791938073,-0.031257924372171356,-0.010383315124085739,-0.017803263630979588,-0.022615930200425197,0.005747792875281892,0.03496251555673833,0.027950591924510288,0.025161341483186588,-0.03249458184986092,0.03542983613022324,-0.0036164021463833945,-0.010519093344826728,-0.026822497424022103,0.011261619618213127,0.014747521596566903,0.025079479095407392,-0.014793026952993758,0.007882536094510546,0.02821999634139316,0.027272678458515165,0.01987950590205736,0.030796022821099417,0.0018113244120256664,0.024905409444690017,-0.03469593597493765,0.020456562908550885,-0.030546300671932265,0.03169833706857378,-0.002855263354294406,0.031219895210405347,-0.03537044832087058,0.004308113933959771,-0.027880202773264605,-0.010586264176975618,-0.0033466931319781285,0.020873421378735026,-0.029680429347016635,0.024815296979115994,0.02952076808817843,-0.00779718331610397,-0.03168330231110372,0.02727642888812105,-0.01629778072188888,-0.03271843831729545,-0.0039778822038598685,0.03143896464114486,-0.008748156122970785,-0.035434112145197476,0.009820764604056145,-0.032289482457467676,0.009216428010216339,-0.020967578582973545,-0.010777885457191872,0.01999111665552281,-0.021446018593955757,-0.01934025991548715,0.027511517513273655,-0.017656443791544834,-0.032311235858087796,0.016520110000677275,-0.013112019369823126,0.022024122781363387,-0.02160864217130783,0.029353638682545438,-0.022342871215556528,-0.0013537886484813575,0.02478282116551609,-0.0018317320317229751,-0.002961708818841186,-0.025042992463934217,-0.016132984275254635,-0.019099252694113635,-0.005607848822226273,-0.005168919575463738,-0.01114110691645984,0.010334809493465057,0.008003909181657342,-0.019513688269985716,0.013653179128486168,-0.02163219110799456,0.0048712017253658806,-0.002011709983449352,-0.027653534232526554,-0.031157532123110343,-0.017791807959061923,-0.006458076155203588,0.011468238179754653,-0.013577221941958536,-0.003668697317303454,-0.0008971823009517457,0.034309190133365024,-0.028602645342532533,0.03022436366549811,-0.024405507593235096,0.029907166317224145,-0.0005400025747248323,-0.021652044895780893,-0.013208339647129263,0.0032686835130423947,-0.025546690739129102,-0.01674951563409117,-0.013043269146167056,0.029410702274341338,-0.024982355123107817,0.03560675409787441,0.0308165142733572,-0.001374640819013609,0.0351636328937293,0.016247284512669973,0.028135319140015692,-0.00003300021111545149,-0.005374796749848346,0.02186471441867838,0.013455457831817848,-0.03502256445880698,-0.021728235141531986,-0.002449664703207242,0.013883728744361865,-0.018111610303057312,-0.02914948974467048,-0.020696706412759343,-0.029754868661172374,0.03484381742900535,0.013711456610262346,-0.005288368084750811,-0.0027959454043888364,0.02923820081378251,-0.009214295728554938,0.008217079454436048,-0.027748046165493017,0.0348586209776318,-0.00797421565169914,-0.02280707527315962,-0.005563238591275094,-0.029172441776194453,-0.014307203163021833,0.01943497132976733,0.010111329551564933,-0.02832238614552457,0.020966801421344078,0.02955823472922946,-0.0004597788267429222,-0.024903655456869886,0.027235919218001396,0.028851863624771306,0.005871899979828819,0.009200907587443173,0.0063769307150801065,-0.02854250016092214,0.025596987759972926,-0.0029511743999647245,0.03285546543739274,-0.00009381769522764942,0.028702452451660296,-0.022111184457509217,0.0008230125935535272,-0.0031287713033206445,0.024510426511776272,0.013514327331557755,-0.009732006697716048,-0.009316370021078216,0.028087570421554155,0.00812063775402438,0.014541709990131421,-0.02573722812520358,0.022889884848359122,-0.029392061758410404,-0.01575004985102238,-0.017127542351838474,-0.004447007915795256,0.033092491079928066,-0.021963986308523774,0.031639763656804015,-0.011947559174456794,0.009263208874104555,0.019128865950661773,0.024638088555861415,0.019715818247947676,0.03036789188468208,-0.01930364029267547,-0.010539051360698302,0.0012055333155946847,0.0017639456021975167,0.02819953097957691,-0.029381307380281135,0.022206563230309357,-0.02222703712601223,-0.024658678891066307,0.01817646525431638,0.0337561064342863,-0.018697746883370614,0.0053617115162078845,0.014245975591190639,-0.004123637443918292,-0.004637747631976772,0.01143199392973866,-0.0053056742355701665,-0.030451615626227273,-0.019497769752778806,-0.02146763057349973,-0.009381364705083044,-0.0015084548154007448,0.011966195659699443,-0.012963534732891595,-0.03363897471490502,-0.0005812457619661243,-0.008315118290620309,-0.009502673094757766,0.01137721356412438,0.02724437021601519,0.02419155693974615,-0.030432613302767694,0.004407652325321776,0.03552537940983198,-0.0319536675557189,-0.02454165102140496,0.00529243575135474,-0.015188720787359259,0.01673132705313661,-0.025977054014300942,-0.012990250135889926,0.014551793249068667,0.025730093602113726,-0.0082282841403987,-0.035222949486100455,0.02634959026599955,-0.03532223863359971,0.01955974914032026,0.027161864723513295,-0.01927922974483105,0.027402807072660247,-0.011181683219031461,-0.021556124133182544,-0.0018750071232207814,0.031186487402061,0.005874328395620895,0.008057008016916455,0.007399071282334432,0.026102084690630835,0.017347788384903567,0.02812208177454413,0.016498380077623963,-0.027332779756554244,0.034554446915634696,0.029613526776216162,-0.01352564709967739,-0.02363876343745247,0.033951824729609045,0.012681782342018688,0.025821659383466453,-0.01215957334883419,0.026424187635477204,-0.0011974685522385044,0.01832370098438717,-0.023407319573570087,0.023434080306098753,0.02324279389369343,-0.009720004254899568,-0.008111465117138662,-0.018843335574136758,-0.0188640354999129,-0.02747094116768965,0.001621755987215915,-0.015239742501252023,-0.010052164128557205,-0.03534597150306223,-0.01772415695481971,0.024833855847836806,-0.0065646382799311445,-0.033942284369578184,-0.02384026855832714,-0.021837301203561976,-0.017800533851298185,0.002395997814154129,0.03292679755988549,-0.001901878537419527,-0.011551651530597193,0.02182162922455223,-0.01761592130939852,0.02829419901647248,0.02784786616295659,0.0276122050868249,-0.0157344222166742,0.03148195798964085,-0.013681186756402711,-0.018727397594910412,0.010041200965263335,-0.016955625264095726,0.03144519965067079,0.016092829078866985,0.00834357076581574,0.024665830155834095,0.031143521419584777,0.009680510760940906,0.016685548572380235,-0.0025925921932230763,-0.03498281876934547,-0.009562543513354315,-0.000140623091572941,0.03457458941223912,0.006695204767734574,-0.00219565694428912,0.027059561937380995,0.022673742796515142,-0.031159331027113348,0.005983799886159643,0.006750088990527283,0.021682464872597954,-0.023941122012291736,0.01139380909237948,-0.01897107921626151,0.01856601062270012,-0.021870924075657317,-0.035621742185453505,0.030900593505446432,-0.022326405667524696,0.00186139147430431,-0.0030208880859827897,0.022914997550585448,-0.027479547181326305,0.017729822925406476,0.028022936197948465,0.021576458082435464,-0.02849519327863842,0.008363147146701092,-0.03316046181136272,-0.02594462615589886,-0.018947299984746896,0.007497851611298952,-0.002122574650814669,0.015820064763318976,-0.021576198850240525,0.015778645785717766,-0.023339284467553716,0.02377968873103552,0.0017227080789925808,-0.006119960596373999,-0.014498365526573605,-0.028235684864614093,-0.024173011070060837,0.020675797408591517,-0.004364333269790582,-0.0021720161861073883,0.003739675919312543,0.022822034691943775,0.013077022887967218,-0.0007655716902244429,-0.018882254976426417,-0.026235229580055242,0.01368067397196813,0.006666733136848214,0.014162722719059734,0.03118909215475303,0.025425511866093316,-0.009927252184740889,-0.026271054270065132,-0.022018937893084782,-0.011196116003463352,0.026719303278771683,-0.007443623668181962,-0.009139356801223906,0.009657425994709553,-0.0191792365535993,0.010440449866420514,-0.020356370655229945,-0.019380944722939712,0.02428676409303573,0.006740956366300312,0.03382252531577082,-0.027714187995458946,-0.005709255981395881,0.016433695391926323,0.022265645564492002,-0.005343937807321204,0.0354141648258146,-0.021579992221623594,0.017525507768990926,-0.019315751725106443,0.008348806841250183,0.0047668596796601615,-0.02870844468706978,-0.032610187483584095,-0.02929173136025657,0.016329240067262996,0.0029355037330213163,0.012630213591827475,-0.011832237346534696,0.008665761935936524,-0.01980839609412553,-0.01657767290756291,0.00001952988528589744,0.01812705975951312,0.007900194602010711,-0.018948405553918225,0.00014532182729685983,0.017209795038330263,-0.014145968602909318,0.017396319874170674,-0.005218694442929661,-0.025726692451119425,-0.03143550038287936,0.0251358712122408,-0.006264110318269345,-0.022575352907687384,-0.0186410536222482,-0.027843197028553472,0.007531772562162482,-0.015955254183458237,-0.0227760934964525,0.007263934799826712,0.025253209659110185,-0.030825821608027857,0.03149347105517905,-0.016704302289110063,-0.0275662919916529,0.03276865395678072,0.01075381391807094,0.016018807634903424,0.012836177682124717,0.02239344282105027,-0.0023648766533411747,0.0031750091958325025,-0.018711938623601623,-0.02883349129525116,-0.029351686901339633,0.023502580363517073,0.004270356371844253,-0.01798376116385823,-0.02301245342558043,0.01618702378281514,0.030825618895421736,-0.005932130248254057,0.016901644970486927,-0.02447229165778207,-0.03398606378420568,0.008521187162885399,-0.0030643821266772425,0.03569371282017379,0.018967619500090724,0.00801193645109699,0.035129143679437244,0.012522380160412565,-0.01171556637785371,0.020658368374584395,-0.007487541399986562,-0.028002571394624937,-0.012624563208220283,-0.0008519718672738291,0.016281546407753762,-0.0045920085893636255,-0.01136257161821484,0.02747778455788767,0.02739693015578068,0.015005888516772092,0.026546550922231252,-0.007529037122371803,0.0065012079134236025,-0.031123639124598906,0.003622243494742064,0.017410787231221164,0.019578894660684312,0.02233382417780086,-0.017557783871772266,0.02679371544408853,0.0003673289411309094,-0.033959868356435066,0.032700507315090485,-0.0030246588150602757,-0.0168469571207349,0.001903800686691777,0.031212181362715835,0.008332049951720953,-0.029338707956247392,-0.026514949090433025,-0.01030743105445429,0.0005203721891761451,0.02075745933136255,0.004341173784402096,-0.018290131211442247,0.02274433246890742,-0.0014455477003962117,0.012413718809985716,-0.02797829415814016,-0.006581383083033639,0.023598759838690003,-0.02889189572300169,0.0008242505012476947,-0.00819186371300245,0.0014415423037351036,0.027850925199048304,0.007244450007939766,0.0248934275248111,0.01420344071844791,0.03474457765649894,0.02009875405003181,-0.011491511067101792,0.028601806400267823,0.025684030919970957,-0.033794891681696186,0.014200907580641011,-0.012484043306736754,0.0017889392040578223,0.007641558364393335,0.004628072197325049,0.005030740462557248,-0.03182464889051571,0.006373317607264929,0.031022949345297604,0.024613252154447145,0.03207927011587476,-0.004816563877937767,0.0012129088541039806,0.025857732562617697,0.012658866221661631,0.031216939096711457,-0.004744456222779334,-0.002240350089230833,-0.011393147973168405,-0.00874674675088814,0.010279111024639395,0.03443470509331935,0.025892260651493415,0.016257040431585254,0.002861696326212755,0.010517807836200072,-0.01463656533115346,-0.0056566844535025675,0.026427726885052065,0.02968736572404268,-0.016470804843023355,-0.03143802749909503,0.00033530628040807225,0.015711820681961974,0.019776158231629037,-0.012079484556907168,0.006276940241683238,-0.026751755065922693,-0.0013080387152420853,-0.015503834045196237,0.01178844709782697,-0.03361765682807403,0.0028767845810597145,0.0235877535877225,0.021837704702293244,-0.00015737931007785144,0.00165337267277315,0.026698007396895505,-0.018904144982085036,0.032113786680355846,0.034051682229400276,0.012543177415309366,0.002371094407572216,0.006667118967491913,0.029742173922240184,-0.015040571505098311,-0.028064231144478136,0.026528718990637978,0.03542918866786897,0.015036611562064437,0.006876393667979097,0.03157109327680424,0.01903913920784623,0.016327122093694593,-0.014848940576275923,0.019414597692637838,0.003991897286272744,-0.017043872221085218,0.013460589804127131,0.02037966866831056,0.00007350150520937569,-0.008030278129905463,-0.03209384300525348,0.02737106448306492,-0.03355633340909277,0.023095343286323136,-0.0002772103596560453,-0.007227133885977809,-0.011341750196997359,-0.0337222693004436,0.02527974822642243,0.0212839248277233,-0.01655583282948812,0.02771212788253693,-0.013788653485860995,0.028554474257342182,-0.00956377905772299,-0.02845014504426266,-0.017454095503005272,-0.005901761436200431,0.021470656845870482,-0.019235771744317932,0.025870371348009125,0.009433697896244509,-0.014230060521317566,0.02845225314282295,-0.013739140063892576,0.01915238861175708,0.027842772964411185,-0.007660676627699074,-0.016244997121107708,0.03224236573322741,0.01298050820253346,-0.01945918360897007,-0.024096522293748947,0.0010282098426639505,0.007524281135988219,-0.029366373491019254,0.026970311083887248,-0.010429188865257491,0.03010925529455508,0.026148372415816093,-0.03023177165289194,0.0072370855556471905,0.019916894191875475,-0.0026978747013732514,-0.033763620496927625,0.007170109641660953,-0.009979667938304966,0.01029080462222023,0.003753428149817646,-0.009014429336017607,-0.020062765566628844,-0.009445454977844204,0.02522096598147727,-0.027983998564287457,-0.024617394562797358,-0.03249321174368895,-0.004180866475747807,0.005918743914639559,0.007864931781697488,0.01621554045366832,-0.0054965160209859395,0.006073830136915749,0.033184256196693435,-0.019636244406962152,0.03295351179153315,-0.0008920378985851013,-0.03379785819626562,0.023433046767548343,0.027094788199748403,0.022125026427052323,-0.023504440767377493,0.031228099981431983,-0.03402539593766014,-0.03318570915241419,-0.02306038243511469,-0.009078935560970695,0.016781804913532372,-0.010368655919985233,0.008805802224349258,0.0233943776920037,0.017969823052874687,0.007614285726913286,-0.020290457545670267,-0.003978666820118124,-0.01580041772898635,-0.007861866918305085,0.012836064772060314,0.03257589839849045,-0.017043835598723325,0.03534278096899318,-0.02513602116642974,0.022248770280625465,-0.023074402567072164,0.014069894632275941,0.02107143646256557,0.02009616952029003,0.013830384313728893,0.03313906228656978,0.03409529113085934,-0.0013233670695570578,-0.028377631465043577,-0.001469905160695372,-0.00990211524398562,0.02119980438877358,0.0013880519599766832,-0.023074036938792234,0.004195669919149287,0.02504558764553255,0.005666539771216152,0.007865938352093461,-0.001519041050113588,0.003335805103330702,-0.021225565085540046,-0.01272133071423235,0.003595282974226247,0.03140724072178227,0.0347884291016313,0.010341422953134958,0.02519602202059108,-0.02589313807652892,0.011484849885690115,-0.0055968613338112745,0.026852602553270044,0.005143243903076431,-0.0076075327914444536,-0.0020780270457713018,-0.030231552304497183,0.026275785767773414,-0.02554886014845482,0.026935197255581207,0.03148079010410986,-0.022018762665623397,-0.02162815953515615,0.025135876358425294,0.033293606420406414,0.014607686875673634,-0.004298372758933833,0.025997370370119628,-0.024800511873047288,-0.03220053950295146,-0.000995081883982244,-0.008415745921216439,-0.03471630395436617,-0.002814637190407537,-0.012710778440979087,-0.026917412086487676,0.02234850564082807,0.004352880245777113,-0.026687049688607696,0.020234342871016654,0.032512684716203576,-0.008378079775791813,-0.008941538608436897,-0.034512565775448145,-0.00445377492214317,-0.0007255715918900203,0.02691147766058489,-0.01462209396784407,-0.026510591766361318,-0.014111117827863718,-0.01584508890623844,0.008543543664638597,-0.013476704520892608,-0.00736748791881629,-0.03184547192618822,0.014891256437882914,-0.019351329837950917,-0.00745918486014694,0.03463580442989736,-0.0013836217011949964,-0.02619606337162846,-0.00784418747931333,-0.003917508682353955,0.024781910169300012,0.003689540050535736,-0.006671540359755119,-0.01697993328585368,0.022024116587941393,0.026343084350716646,0.020940654049470386,-0.03098708971525267,0.02215040832533264,-0.016078903835131452,-0.009906511826363004,0.01857025560203059,-0.01634473436153051,0.02910426845651605,-0.0007831257495569319,-0.010620007985426843,-0.002635497205211867,-0.023654402571422657,-0.025003210508671613,0.002071652981729216,0.03491339490337531,-0.025453432539048127,0.02649057017761091,-0.0003202900527335625,0.029896009505520786,0.005608400189537585,0.0045094166908017696,-0.028406274227848843,0.009608866308448627,-0.026243388310842577,3.3512114122171044e-6,0.010318657031466859,0.021283310381849795,0.02955038069691668,-0.016167639579141437,-0.013151945723328163,-0.0005273639440271356,-0.02780984964273227,-0.017754660886837116,0.00014800034590601918,-0.029713662497885093,0.02146048151241471,0.0003509600996774324,-0.020742399411563774,-0.01971714152457531,-0.017127234062827318,0.01938743372527463,-0.025017440836827904,0.004297680812369694,0.01917963661083977,0.031863511364430455,-0.005436178281688487,-0.030210343424172875,-0.02624574493605742,-0.03131087639876413,-0.030065395528194795,0.017615572477376676,-0.03395845239860319,0.03601368543270482,0.012888200749779147,-0.017741968055303294,-0.02021387010123272,-0.009542550689216034,0.00551172071683551,-0.0025632493132651184,-0.008039862508184802,0.014440682880198242,0.014476726596689405,-0.0010884029969866749,-0.01783840908250028,-0.008720285014530982,0.020622045024334405,-0.03188681652204635,0.004793603989649868,0.03311642476296639,0.012588635749557923,0.0009866171203692712,-0.0333471927804383,-0.012483471834239172,0.007609470822816321,0.016755168392939872,-0.017141097159765546,-0.02296472720104474,-0.005239647032047681,0.02708528739483521,-0.027441398633164606,0.025807020527620524,0.0006987174001303916,-0.02562764010937473,0.027548288092149358,-0.014152627055409312,0.015091131939794581,-0.015594851693341245,-0.002517294840760206,0.027389506474549248,0.022142226688318438,0.01044322955410696,-0.011927539051275356,0.01095665682477591,0.015037585938340432,-0.029161205949832347,0.033912568723117355,-0.013626217813520195,0.002208860041514607,-0.024917982005572218,0.02760469224355154,-0.0011575114024913648,-0.02566897541977906,0.0104372417160178,-0.014517732304468895,-0.008824321726939203,0.02170948128348053,-0.008199211771700084,-0.009085244001744042,0.01193361616059014,0.03319851350026234,-0.00926275582329897,0.020862684635162103,0.036194524799575724,-0.010449836615358005,-0.0006669655634310641,-0.009660754532054333,0.0033158436020235627,-0.0026009656362635924,0.009999874339896226,0.0320277408080764,-0.0022073833043717186,0.021916555646431142,-0.012989559877776174,0.007841898167749635,0.0017968072923823701,0.0197322603488477,0.01726171989530668,-0.03729372810699189,-0.017481720554382674,0.01221118709398622,0.03377915163966112,0.02308788923483168,-0.03260354671218547,-0.023835787185141122,-0.0032803248562694714,0.01385361451449152,0.020991725783653135,-0.0006259813075099644,-0.03191967111141991,-0.024356772686554083,0.036849693960141344,0.02296200300197593,-0.004119425272965617,0.011781933601350979,-0.0035902972182233635,0.0033673187958424117,-0.0012125623727576636,-0.031859070789473004,-0.006183158705233639,0.030082995431606082,0.009244912317276597,0.023754417897103634,-0.014270980633413996,-0.026952113950742894,0.00930537008096591,-0.014301644025715264,-0.00267621658881108,-0.016928128117059016,0.024939647586323874,-0.0005659224384588885,-0.02277932563308442,-0.02056451730109651,-0.004603773148384448,-0.024467807308222032,0.016517974400618245,0.00187213063619354,0.01008747547974587,0.02070839637466673,0.02281555490180773,0.011358545214187797,0.006980862570882966,0.014252543820445988,-0.01651437720213698,-0.012014129235483867,-0.006770829622299528,0.025204807505223605,-0.012864300547544522,-0.03123930134159503,0.0014145271851266098,0.01742923825708651,0.00012745269064072182,-0.0007622138465199523,0.01878685316421847,0.025556933820438547,-0.010745629372820113,-0.02867784727017867,-0.018508352140604638,0.01921762453002958,-0.03164318050560094,0.01649340387372364,0.011814250203556668,-0.013339338086596986,-0.021011051317750166,-0.03630183068787903,-0.016035916324598873,0.029944373425904548,-0.02195292560132198,-0.015194470905874566,0.006064067367183042,0.03331042856133579,-0.017801793163554184,-0.007560287979600772,0.004183536466250804,-0.006658606059503479,-0.031902489416163846,0.014602864693915833,0.002534416389569062,-0.024227824986134027,-0.03198052043909658,0.03296832274076515,-0.012957630056537588,0.0086286020229509,-0.025187706082829508,-0.032275662716451395,-0.027899027268911917,-0.016950189390931524,0.014539482102249882,0.005704934597780457,-0.007965256439056198,-0.01367515482539904,-0.025651783433469168,0.024470100586713187,0.03323285532815444,0.013172835126385079,-0.0008396531144750437,-0.01856696926688011,0.01696111036707896,-0.018268581177520272,-0.015665935839080516,-0.019325058069822817,-0.02785991671944503,-0.023056356564247846,-0.02065029653816224,-0.021436473575828726,-0.029998943283899432,0.014109228090936014,-0.007522570235554891,0.014697591321326494,0.02663155982933521,-0.014062156642979995,-0.01612573172448348,-0.03855824001395057,-0.03182626714460516,0.0021393297671734443,-0.018218093476108962,-0.009462897464431876,-0.007175983343999085,0.020526546705452852,-0.005058228456661687,-0.00949927951516405,-0.003832329604785684,0.027642651206274276,0.004149198861085969,-0.031263775819261604,-0.0107258237074607,-0.02056928636966472,-0.003060779371596907,0.016376512802871283,0.005096120984358048,0.02829960221563453,-0.01223103944299577,0.021177615325254577,0.005528853713454316,0.004661441004266115,0.015958977213902676,0.009230882406115384,0.03730078992750096,-0.028206859520903356,0.009804600879627349,0.01128173028861161,-0.01819169908926885,0.011482458959608933,0.005212612545807092,0.03311556006291157,-0.013203371945129626,0.009916483349840336,0.006223184958656777,-0.02476606789037345,-0.009569867715143945,0.030964405863072475,-0.018915653838401925,0.019841761294727433,0.0017424898223336557,-0.023875097601243466,-0.021332046527558157,0.011441904343747413,-0.026374627507495176,0.031730273533185395,-0.01284211102242419,0.032590160967373716,-0.0028424569600378055,0.03171435160479388,-0.011064209069036443,0.017663919420834517,-0.00241593272845062,-0.02819551675372066,-0.015053433847850208,-0.03285228185797802,-0.033087487244261936,0.0026749326787052934,0.02891005441160101,-0.03342930832537727,0.0303241443045845,-0.018350481658878214,0.013597982861382838,0.015174973384643898,0.03219362395604269,-0.02996611667644099,-0.017627998774487987,-0.03248619078641032,-0.01644045542858822,-0.012357292941954097,-0.031444842363634005,-0.025166187574674814,-0.006074317758225521,-0.014842648311601571,-0.019509814110128077,-0.0064927958232641305,0.0314488361078978,0.023866335004447445,0.023532121630169087,-0.025691429689111315,0.012686811940028915,-0.005744390132187962,0.004929041737916524,0.0006093374433366345,-0.02628934612063858,-0.013334793619480518,0.006608069559897725,-0.008599810715641743,-0.01112573010192296,0.012274449741440945,0.010659186895728765,-0.002032546183641061,0.028728291185846706,-0.013335218641819784,0.0045430530071964145,0.007861511136638612,-0.01620819227849516,0.03336089007406834,0.006519361153216226,-0.0011639360868960587,-0.008891011800938589,-0.0005614501688909288,0.02745565423579082,0.02327530462940569,-0.02637606711129934,0.016839586970888252,-0.032748722744172634,-0.0021102189557696905,0.03207378434398087,-0.017484580653025193,-0.011210347106863455,-0.0183770694059519,0.020854687826223788,-0.027758454750604553,0.0330721727927075,-0.008255937237500788,-0.002751273596300134,-0.01084504960833381,-0.009894479428541563,0.008084881426679878,0.029423019807351312,-0.013757457323654682,-0.005318982347708945,-0.03221404075994064,0.010841408615320186,0.0017986565483112046,-0.017573079619667763,-0.007687601996510222,0.014306567759329092,-0.016178830131631013,0.013170923994487098,-0.018299611659455,-0.012248720882472714,-0.005055225922157522,0.03169584014560337,-0.0037999713188924377,-0.006690799823745489,-0.01182003186444444,0.03483151012774511,0.022053057362555296,0.017885357774792103,0.0002935592335514101,0.00829430251237905,-0.013869908505938496,0.030326387960406546,-0.030101840676458717,0.018655882324196012,0.014853714576604499,-0.02304440295731693,-0.00808507283182849,-0.0036528432492032815,0.004545142971085912,-0.02005681399169886,0.010159269022037084,0.01848702122387612,0.00039844718711178414,-0.026313165786261628,0.0011212990562049052,-0.03149178654266808,0.003494027619863673,-0.03397179258305687,0.005451197932159398,-0.02557109669727989,-0.012625684482052715,-0.03174185034636063,0.02143196130208564,-0.02824671176846858,0.02817818705039627,0.01601158519978907,0.003604690283845267,0.01760125735064053,-0.025863457435281356,-0.011501348878177739,0.027980788854508058,-0.004057681354515308,0.0130111221859268,-0.026380514999643476,-0.02495520938206334,-0.027281765762045353,-0.022794345282581233,-0.01944474795909366,-0.02489352303489897,0.0276727817943395,-0.0022850768737865657,0.02608905455834733,0.005008255195942341,0.005759026880785135,-0.02399444766433345,0.03250163435111191,0.0029782706259080705,-0.0013705600555108965,-0.006328146953604478,0.03385330859680902,0.0002393272513930912,0.009173191898832618,-0.030597898740017327,-0.014146727459271837,0.0015035174045247852,0.019770185719773587,0.03494470567310612,0.03230244640760563,-0.020851579883301437,0.0341516697687662,-0.026562080816390797,-0.011670359583090891,-0.020195770122149286,0.02112861198938719,-0.03355491428764974,-0.013387341069344317,-0.018426699001034146,0.024777122154071754,-0.020527284750171328,-0.03481752909679493,0.024385159601146667,-0.02093593496895025,-0.010435406564701781,-0.016670125650889215,-0.0077976209006865955,-0.01586193401717999,-0.026145304715781772,-0.007360830008321686,0.01664766117375345,0.02773113013679174,0.023295437174263498,-0.00792930535005779,-0.004315520625230353,0.026318439830578244,-0.011277023862558836,-0.010594437944980283,0.032298648834011574,-0.03312583024996409,0.03089811526735523,-0.005662326259747912,-0.01961880666376144,-0.026930523400020702,-0.02605452440933438,0.031810711860988515,-0.01579032918705669,0.024159718435240944,0.022264273686273595,0.005767805561818066,-0.005480775509324191,0.01862979855575003,-0.03297316867327601,0.017779639895498762,-0.015919645066215182,-0.028649810665582875,-0.005274859542806507,0.010024231578891,0.009741821096614667,-0.030092035591631334,0.035670761490187726,0.023076066912730932,0.0025938123728933013,-0.024406817329876773,0.005735155326550062,0.01704016200347533,-0.015360440178940438,-0.016721958344425043,0.013707679487964336,0.0268724720189696,0.022254722895710743,0.008383941531694234,0.008207241839448303,-0.03209972844613264,0.03436378727260361,0.02323519773639902,0.008143876971187049,-0.022176260958489232,0.033838647736895565,0.026328280844924844,0.03240450382402281,0.03113025637776798,0.014398746013224762,0.007887709679715608,0.02635100873816951,0.008106956315087318,0.028438340439261033,0.0023757664291587607,0.02965258178997443,-0.024011260466972606,-0.01322616090280399,0.03359599838804195,0.0017639081348052722,-0.003153201851388001,-0.0030804128774937056,0.031169407038933766,-0.019761586808338748,-0.02273070123632453,0.0018180481422886176,-0.015784468836760504,0.0166853977841651,0.01614761148737271,0.010190107672105694,0.028462896762118148,0.03495171626458542,-0.02892633799699197,0.002403892784129412,-0.006792897446044006,0.0015518058839424365,0.010716778942518608,0.010726004769754905,0.004170513979241987,-0.008937227301341926,-0.029829870872439077,-0.00891508412090217,0.016807991827778555,-0.028080964006923153,-0.032971285494205436,0.031881082240766495,0.002176816049150418,0.002119067905431149,0.014048239628828224,-0.02414917732306982,-0.003580733194721554,-0.015912978750905915,0.017470863675410224,0.003355572968646955,-0.013408422162499711,0.03171507770417603,0.00117406929009483,0.0169710735301363,0.012047014765481276,-0.019369134012671152,0.0028449740456348224,-0.01775351244209955,0.023830842207690765,0.01477589885917896,-0.03399100466326994,0.016477331607869142,-0.001489823852709779,-0.0035093774251831536,0.026206598741303423,0.024249560199887936,0.026313756737198143,0.018531931880947955,0.009356726290892669,-0.022901319680731978,0.006436827302775838,0.01792627868990631,-0.006736191329554355,-0.022348064994784905,-0.02466712425933816,0.03212929720074803,-0.015936324017171155,0.024544860545922496,0.030191138477524956,0.02261385492624647,0.02184826101503244,0.020953978160081942,0.011967563801628764,-0.0028746397168399745,-0.019339064328658825,-0.0018541070674337329,-0.030146401492624184,0.00841457711530591,0.015543822810149543,0.02878404225296742,0.014950994369266134,-0.02415009266762199,-0.004978865059514122,-0.008109087313347568,0.028459212950310703,-0.0179074868034228,0.00822014903310797,0.018533334410409275,-0.008638119465886645,0.002039527990638633,-0.009470905055504455,0.02191282189975098,-0.014597247630784325,-0.02120777678715984,-0.03456099855953823,-0.030695065304414237,-0.018728293944868205,0.003985402373080725,0.021767503388089575,-0.03162249180402242,-0.006323787474728185,0.016120192851162,-0.002930271503714117,0.0006639864448723248,0.02308208896946668,-0.03428262294574083,0.018608155774122767,-0.028540679237462965,0.02971543551868147,-0.014326682984273958,-0.024169934842429637,-0.02574137091517354,-0.0281980489383437,-0.02440930849938973,-0.024772993732511087,0.026025394068864012,-0.0038443702440844746,0.018654325888787376,0.02740965825338332,-0.013716689798353356,0.001145172991863834,-0.0010672254890282812,-0.013152580980612432,-0.024900385155964298,0.009710778910333229,-0.0291843835425016,-0.031224964891778065,0.0053095844103281525,0.03342382228259916,-0.031186959302579927,0.016869179065536706,0.024856303546449902,-0.021353255351465768,0.034023741884679805,-0.019332210869529184,0.02479495060159689,0.02303727391194522,0.0006597341456640281,-0.014405627882658914,-0.02681818128377653,0.03537548257148229,0.009989784332138566,0.03184169158392364,0.02518508518920952,-0.03464932970575719,-0.011385419184474251,-0.005375015498893312,0.035080740575317064,0.009348325658821759,0.006368710174613069,0.008134197246799799,0.027258487358693944,0.019929831233106085,-0.027205637682933118,-0.019325564258413353,-0.025960488428058565,0.023327776488274516,0.02095746546391265,-0.021891476372719564,0.0005699742931381806,-0.01943539134838131,0.028688628499735518,0.0006763314921879761,0.0033600551258359157,-0.015059377610494057,0.00926975658856053,-0.0016280848900968388,-0.025909693947077136,-0.02093380387548186,-0.022129118160799238,-0.014833956994241757,0.033923445432689575,0.028802299138321653,-0.007270163552939594,0.033388966160554055,0.030377455505349874,-0.023665027069211825,-0.0003815900961758988,0.02323119687833913,-0.02948365684258443,-0.011015130134594287,0.03471445646374432,0.00901367936461456,0.01602810786186498,-0.03353983760352068,0.019207464351127346,-0.01551280744298001,-0.014716680282298153,0.015010574661331905,0.01926486692319518,0.02417322922355757,-0.03166059382975947,-0.0067951654269935045,0.006977747041889428,0.007246396155607732,0.013801818057255546,0.009017484299409746,0.0000506144036083157,-0.008272565140931281,0.03227730710656511,0.01728377151246842,0.03367254209663921,-0.020577725685002025,-0.03233932673288295,-0.0056252045587555045,-0.031122176978140736,-0.005013537304071584,0.03461982913657353,-0.027994079332146093,0.024223272751694124,0.03054130209298516,-0.008167836937825919,0.02626311394517413,-0.0027381588855270654,0.01921981800395676,-0.029912475966902923,-0.009627347363210125,0.015511479718280116,0.008203460336984308,-0.015170220344614203,0.017365540894763696,-0.007078958934000342,-0.02400415400087405,-0.024508000089538084,-0.016425958169181392,0.004188267817525124,0.0017015924363107456,-0.014872171474043683,-0.008954895248462562,0.016671221237824125,-0.012837712735672462,-0.0030942863467338768,-0.02430212037197196,0.009850072754852848,0.00619946815305737,-0.023473347557517916,0.017859985920651664,0.00300490330093456,-0.028253096350484598,-0.00957172222480843,0.00942254085595003,-0.010698855714391825,0.01448506153440797,0.029990916246889914,-0.0015915036862729198,-0.0054190444351727325,0.025424149695995785,0.027100430020171304,-0.028105537137493832,-0.032128123295399366,0.0021140297758615338,0.017859984769816307,-0.028130019677980074,-0.008892307387861755,-0.0007040756836089034,0.009244022837254793,-0.013515614027994158,0.023516275485498696,0.009748955652038488,0.017285874065431008,0.021722412090840457,-0.020055019136329753,0.03279994965173477,0.029004869461620907,0.015822739172789972,-0.022591078165216615,0.0030668021660104944,0.01997811221450514,-0.0026435401782991135,0.032712738794470876,-0.033802676491927745,0.018399209306883303,-0.0048264582096495656,0.020968971200545476,-0.028229675142276117,-0.01675109638240292,-0.034464912345898824,0.025444284426434306,-0.015329222659492915,0.012373819621181148,-0.0247840486115969,0.005081276913388983,0.005827368498869599,0.011475178437022157,0.02122134236320502,0.03579859526261677,0.009825396976315206,0.03139027899906843,0.03317829711544987,-0.003323178811554502,-0.007580132627358937,0.02873186741695156,0.028170507824671395,0.01402196992262105,-0.02188420328171163,-0.004126501081693397,-0.011020563103593176,-0.03411074803458305,-0.004507083966949297,-0.0030643482173182785,0.002847822354855829,0.023843990114437667,0.016096716876788174,-0.0019289268723625737,-0.014442704757814291,-0.01894552091695883,0.02846780954253199,0.02206517735517849,-0.00671572261708076,-0.023403020410436067,-0.016391641334087947,0.0349692617236827,-0.03288314785269401,-0.009367087406315446,-0.01472565168441722,-0.03323067820787508,0.034579498683671724,-0.026946639179299643,0.005672507247096087,-0.005899129832597848,0.018360526382254397,0.0098626596227884,-0.026784859793805387,-0.028260852804526254,0.00035705335516897265,0.02585430949982548,-0.005765737224825746,0.0030533148388648197,0.030659916416687884,-0.025658674921498526,0.009522537686553922,-0.004178830955281071,0.00412591869594617,-0.012811409559401656,0.025166195078569042,0.024374487963087468,-0.005226106748219134,-0.026740958804869323,-0.010927175797188939,-0.015487998975815504,0.036615732361927465,-0.0035091521659645544,0.004242963596856491,0.02344174926750082,-0.018290754412433954,0.0054832210256841925,-0.03097839402399337,0.018316470676979505,0.03401099962831019,0.013703560989628357,-0.032659900561134506,0.018637855667784857,0.012077577303631837,0.031998946472289805,-0.0037413674592079,0.010888896493675415,0.03629394695111704,0.027562821082473408,0.0206589990140114,0.012277078529977701,0.0050303470771687715,0.025274031604679534,-0.006902074547215225,0.01603809325122609,-0.005418306627936893,-0.015035235633456597,0.0032737157408944907,0.024757927545866084,0.007145215224472362,-0.002750427378700903,-0.021559865986288916,0.028970143945036626,0.02861120039153502,0.025513366898277733,-0.028653864821430303,0.002863697856769505,0.014170032271153798,-0.01406198038078123,0.03732847851891646,0.004301449242689115,0.007266058282711119,4.651310988010963e-6,0.012053486099917776,-0.013886527798027098,0.008600557713551341,0.008785227854023256,-0.014907485206724204,-0.018328972957566962,0.02884756920608283,0.011622586952801902,0.010782127816257703,0.013189097629089009,0.032586753825515694,-0.03486268312248367,-0.00149057509217291,0.008561338440926979,-0.028537482414800842,0.009473911536274625,0.006456494559968937,0.027301198923543386,0.03586381533467299,0.009393344454362131,0.010018178284540193,-0.01180154076821881,0.0038134674668657957,0.0280446476949992,0.011053198411280905,-0.005955261993524611,0.01739712710010835,0.01756817096580676,-0.004714849956472342,0.03085804856048668,-0.018914925338866462,0.023365156715717643,0.02793841071308307,0.01796361666950758,-0.030336695458214703,0.02430885959852443,-0.02947666346025121,0.025272513092557528,0.0003686884007988943,-0.0074578122730434545,0.030388172650483658,-0.02719168407912691,0.007380992543850401,-0.0307669309712294,-0.003482804475923421,-0.008255324105477257,0.011854380504705473,0.010926157860217566,0.028030293718872612,-0.023103358655612763,-0.004348161428835374,0.02947626304831231,-0.0018816859320052253,0.04730572280560896,0.014676329806787009,-0.03567844740114155,-0.02802518840220829,0.02616127352453465,0.01133246721214505,0.009818587596605118,0.006240568854525073,-0.03411358913475588,0.01688294423848573,-0.03241133939319814,0.006751569624900379,-0.03397410704104765,-0.015443320872702136,0.01235097651088673,0.007341855129373786,-0.037853152770897895,0.003111282951738312,0.024456448287635393,-0.025048314549344322,-0.018560723272386483,0.02173203511808715,-0.013122049907528755,-0.00655885763932365,0.0025299536985879186,0.03331864163326827,-0.0011815678416615862,0.007262849500212863,0.014656660350208415,0.01861498245505307,0.00775257766644045,-0.028578150165917842,-0.03722470098078335,0.023570907123339452,-0.009317624544414496,-0.02607849859772228,0.00837944827624662,-0.031553459731275726,-0.0065016976320286315,-0.008201667247235036,0.0339147865229302,0.034948756999163985,0.01812032268936958,0.03967778682686456,-0.016997299419699286,0.0410966331035453,-0.049231826743544614,-0.02313324562100573,-0.03668556836708042,0.021343249801016803,0.027551296754980744,-0.005491567456118844,-0.024567073724282476,0.02272887390080483,-0.0017926592071201206,0.0220471576266247,-0.016931094527541737,-0.009023547031364782,-0.02287341610038896,-0.025799135293147788,0.02625145147287108,0.005254583435517455,-0.00256016041713424,0.0010454112100594462,0.044271988521177384,-0.04148789510227748,0.01310182319464499,0.009634013227024233,0.0192053553989403,-0.029572318370645577,0.006899605373221085,0.011589311389821754,-0.01801029504973891,0.03707276813781922,0.02642904423408709,-0.003748813676110588,-0.0343155326636726,-0.006568104787506236,0.02226999074284644,0.03766730318456659,0.031812246409097925,-0.023822003973143213,0.03660286217608688,-0.03523947068860313,0.035389619638781344,0.034559604174382974,-0.007534528253912728,0.03640011727456185,0.023907344231322906,0.03215433659832312,0.029110246513444474,0.009673389214622559,-0.040553745732377126,0.021138203204042128,0.03536511000950809,0.012031019533377086,-0.03633180107845931,-0.020057706832084438,-0.020395889111915904,-0.02696438436058417,0.019168290544295398,-0.0006360749198507634,-0.029740887500206717,-0.017659405509828696,0.009417889174006112,0.007569128957352656,-0.026160322185686452,-0.03457662724100308,-0.004633101909947769,-0.005184008554013461,0.0037736660630726835,0.008606278083616867,0.007828426458646929,-0.026109407213257187,0.009107421102627184,0.00965190648338002,0.013952919152182348,0.041452459769070894,0.025734183751957896,0.013986941671686428,-0.016431552112110403,-0.004026475307404946,0.011279702898795353,0.024555910708942523,-0.014364473350514509,-0.04287475708844804,0.014442381464214227,-0.03678631077124248,0.03356159959986056,0.02308031503511203,-0.018271560372860172,0.01297258735199204,-0.011522843424607845,-0.007149880247687878,0.015748535777258064,-0.023923034220814557,-0.021397414295093786,0.02370675638252184,0.009716572102478012,0.025256989640863845,0.002634689425304348,0.024838335641494378,0.006024866767432691,0.010122858354530178,0.03666353449207332,-0.004445804273155253,-0.010040001829778517,0.008972312258769474,-0.011668916991119355,-0.024995756102312947,-0.012898192145236865,0.027511697566598256,-0.029178259058207066,0.014572919890451928,0.013933799095691373,-0.05108119888330885,-0.02278211625456476,0.02751530185465111,-0.032524105191951265,0.018871950764423887,0.0026697170189406015,0.036835343582652086,0.0047655836736267805,0.018313443766586054,-0.02108479713671781,-0.023926821973493363,-0.048031835280674263,-0.0229037942529181,-0.0376006491554826,0.035427668771959256,-0.016786224772220037,-0.02163416308774075,0.03285075832485638,-0.027901979400451075,-0.015345776216949155,0.04787211985074578,-0.023585550326757958,-0.019876514625557687,0.03947653722003722,-0.03131998472390217,-0.01789240306512968,0.012419368274203679,-0.01686001412457357,0.00032852648165404276,0.021293009716414717,-0.00862644030575428,0.0001256273531166338,-0.03612242096286371,-0.007579353219210242,0.01583078066273825,0.008364103847916209,0.012062338144317005,-0.020838036742088974,-0.0005811115015882249,-0.006293945777431717,0.02616131200675662,0.022836334300424553,0.005673696042228563,0.015984926131173086,-0.018437211629573336,0.03553149241943141,-0.009799723731895442,0.01074847740300025,0.010037760561965326,-0.024745145114142993,0.031184336364132953,-0.003063170419337656,-0.0006495706288933036,-0.004361444832303306,-0.00078909052519844,0.018299262691359824,0.023872878958558844,-0.038298018029627096,-0.015352713173318443,-0.020299679186389332,0.023430266235403813,-0.01585468858782638,-0.02738425028798503,-0.014140539112101896,-0.023549470240330297,0.025191955023232748,-0.022182664317544093,0.026338222751499118,-0.02142097331205093,0.024925845404956168,-0.028650429885259916,0.018456995104062183,-0.011777247752868692,0.008489223331706413,-0.018800218526634677,-0.016210861596918442,0.01183539906512207,0.03820009614413451,-0.033033798206428315,-0.016432541086101607,0.010104728357478379,0.0289304551609663,0.014130687289205043,-0.014062681525132428,-0.015461499460481344,-0.02686892587195678,-0.005996816276129139,-0.0012900882563633667,-0.028762467245959496,-0.0064932552884064765,-0.03859177850281656,0.010129605739501989,0.021796723779817985,0.03094096841099317,0.01721366383123306,0.03627431802125205,0.00977357428864663,-0.013812172080747642,0.03378675636055013,0.03583255461121571,-0.032165461367542156,-0.012893802627985366,-0.015384572751918403,-0.01725545411243268,0.005932544880078615,-0.014452790166207156,-0.008153437297451544,-0.00464193300183154,-0.025895849433099888,-0.034870339942950954,0.02356315026713586,0.03464974916253318,-0.005787733641343893,-0.004756671516529491,-0.010653433396516108,0.016716570756300612,-0.024171487051969563,-0.0019094850837522665,0.003474913603789792,-0.019901482162995886,0.02183609693817641,-0.03344667830560052,0.015744818184422946,-0.0316470938886137,0.032998724787035943,-0.027176700505918874,0.007502575788227161,0.014233970580268807,-0.026885997527685723,-0.002774058164687661,-0.014857850377688631,0.03329032938679831,0.014414878171205339,0.005262726874557965,0.013274320184778478,0.001632623320960395,0.00024134019440678157,0.0022433478252512824,-0.03398733468245825,-0.03294303953369892,-0.014051064651928843,0.03214870518741752,0.011261232732584765,-0.02863922476007759,0.0008619742360773794,-0.0052223589783164095,-0.02285404050873873,-0.028513418208240104,-0.00807452619307903,-0.019608835810564718,0.03250816892753278,0.007398291243659948,-0.025638892858735957,0.031373132715509476,0.01022048233734516,-0.024295144645873228,0.0178996387495414,0.007763160761650572,0.010091220888009867,-0.022799030874672534,0.03337990697591088,0.03471510381270975,-0.016162166143783647,0.03132666198082709,-0.0032032608125068677,0.0043253320048827005,0.024691369352862747,0.013533556793067421,0.009193748866325574,-0.013057786708004601,-0.011575831991233911,-0.01800580173221677,0.0210682319505466,0.034143578461479154,0.017488356282152572,0.02092879371723836,0.025386606651595416,-0.027775401091421528,0.0246407977852856,-0.007624730653753122,0.022735505471648418,0.0029034969424580536,0.01479231148670458,0.03290755982605888,0.020419487297410298,-0.022109027018946834,-0.002067075312646782,-0.025326798963201058,0.026962256915214994,0.014372457054395554,0.006102861549251504,0.004233702197340961,-0.02367215725992792,0.0013818484709248338,-0.01991439790327177,-0.016750891457823967,-0.010218139585820941,-0.010930596859567746,-0.006566541284612194,0.015391718936987155,0.03150634149009655,0.018534532167972326,0.012013231335860993,0.011959352647031232,0.0006488425740668765,-0.0315313131019526,-0.023435093672195956,0.001633737045445023,-0.00204562760603621,-0.018936975916440366,-0.016585693099483517,0.00046923412018229225,0.002204579983651405,0.029304790371031272,-0.005403673739732164,-0.026912688863723683,-0.011408499280425085,-0.026718224793506905,-0.02190109380138217,-0.013441018851343389,-0.0025397215289782523,0.00855066924210946,-0.03146111155914933,0.031769398667445305,0.003261736172971194,-0.012003776443209343,-0.02611422028488238,-0.0314703145517148,-0.01924944594465318,0.0345947480776731,0.034283076434924065,-0.03534784260448622,-0.013069755178668182,-0.00949494528569253,0.026950279955189532,0.00014774792742102875,0.009035039632476463,-0.019074158604484113,-0.019333789054335367,0.001497129197419107,0.010709023246811092,-0.0045242668919321825,0.011606753743151173,-0.004716464474865364,-0.015645544550348996,0.03365706271644966,-0.03364438210873768,-0.0025103303417469843,-0.02870700214785235,-0.03006693982686685,-0.012694007142270812,-0.02954030273917558,-0.01915069167905911,0.024366452493951557,0.004406120125501103,0.014470323928239806,0.013341946817812016,0.02254708992521873,0.005654562396220349,-0.029867385463001384,-0.004609914032124241,-0.03213254535214076,0.014134858486606897,0.004060017139553512,-0.011096398063830245,-0.025301361628984567,-0.025829561179794968,-0.015719007612043097,0.019810970936189238,-0.03363301562491866,-0.031124322887379825,0.016811125689038833,0.006506151207090034,-0.026591215896820616,-0.018694700864170168,0.007276825364913897,0.005792652569843853,0.02397380479329163,-0.00021713362430440976,-0.03091662239687522,-0.010956025840098405,-0.017382375645023623,-0.002004902698078164,0.023565100975176917,-0.029489086299662255,0.03091693095735427,-0.025435970894803237,-0.011903708351174897,0.013246656613993532,0.031375322402353405,-0.03400825804403139,0.0035962132826913087,-0.02017660735074643,-0.02803512973629707,-0.02836789513625304,-0.02411133166294626,0.030764144069331464,0.009382006731797614,0.011528887531345004,0.03136491537948018,-0.03562147750578246,-0.0235356961667112,0.012390182629741677,0.03339497534276474,-0.030774167460682587,-0.007777756201642831,0.010643614237620997,0.029169392557713617,0.008205008326662613,-0.00683417081266478,0.03217218845742051,0.02460508781273934,-0.015175300250799427,0.0282122652056606,0.02425074839148088,-0.0041706180133253,-0.021813794378127565,0.020716630693789227,0.016031634313181935,-0.00267614108944901,0.023297642846795252,0.024489492874819052,-0.03318304154287123,-0.02137644830453059,-0.016309274514918416,0.026529274420790547,-0.024101649592054707,-0.034183746346168366,-0.007646278484870459,0.02129575753685759,0.03499830309244106,-0.00273829320041246,-0.01633287163424208,-0.009064015870235089,-0.029086136222958317,-0.02332140555322223,0.013655363478882064,0.022044077007671303,-0.0264898350597572,0.008355806495096325,0.030739096021609125,0.006020377084268294,0.020030359212582907,-0.008204096240400909,-0.0016386481757848514,0.03509531802535536,0.032791950409672976,0.024388591426484627,-0.020732528877479416,-0.03009295975098647,0.014032262114871422,0.026111827512648893,-0.023942265839682127,0.0037141881071416855,-0.030259800724893086,-0.018399072822542946,0.024852524343658224,-0.008187829050550908,-0.01420050272252463,0.01000492787942186,0.030486349334589633,-0.032310513514981105,-0.027224446691270332,0.03244732559531278,-0.02291476757747898,0.014533538430762457,-0.003231381528463657,0.021142467964436983,0.01610497040798353,0.001327439024228331,-0.026684690503962435,-0.020436425943310663,0.018170125076555962,-0.02211052081690485,-0.0135011642336041,0.034006203556193326,-0.01568234031466617,-0.02176554594735246,0.011980429189827725,-0.01928269684637473,0.004474349200039877,0.02386118430914013,0.010570937017081308,0.022260013075799168,0.028704259249017282,-0.03290728843468324,0.022217270561404406,-0.008870815380335486,-0.024648053079327797,-0.0069705482758048954,0.008858708129502789,-0.018227117881359244,0.01334359911193903,-0.028332518884557876,-0.00833638563895462,0.00301881325533482,0.014745972015718662,0.02369594895999956,-0.01361320483819238,-0.03065336098631234,0.027800202520502533,0.03237952528921964,0.019806436102781707,0.02385589169952282,0.024681224747940628,-0.00832993552523112,-0.03297965134799044,-0.026512477732968304,-0.004739410526576658,0.003369226702836862,0.03325021191386447,-0.00008879498840652797,-0.028063993302946247,-0.022414053071788783,0.03475024655331248,0.034274274557757826,0.01703428911900377,0.023421589510560947,0.005139923533570079,0.008106786643177984,-0.0192079854158605,-0.01667210292391051,-0.031856031930597085,-0.028789481535058736,0.0024910868258638977,0.0018613403425369564,-0.034482091138342934,0.0019899004865448168,0.008291992113989953,-0.0313516317675515,-0.028444904906268453,-0.007680322093558649,0.02823439530227178,-0.028922897644353414,0.004639017062041474,0.0251592025027534,-0.01855920330822717,0.006566604732173055,-0.02305569720760603,0.032212943770984194,0.023492601018359146,-0.02963205260853437,0.017044019903041586,0.02899022064434254,-0.016485695511284485,-0.026888433929223,-0.0026741761825464193,-0.03202707522271109,0.02514419890969804,0.032268748852460664,0.03526976517631433,-0.034833481757989504,-0.005126778951265642,-0.02744064622465641,-0.02497974444921514,0.025978273463958885,0.021147415097065667,0.03055829470361574,-0.02260199897187177,0.009930031294271745,-0.0029542051940588195,-0.032362615941993196,-0.015193868893198233,-0.03475550202571163,0.004481877884978499,-0.034296165411434786,0.009695725423531733,0.0271139716979771,0.013267724839862998,-0.01449641740459538,0.013368324729578268,-0.03361130499705865,-0.022871893139622117,0.0321352665981573,0.02155320070038191,0.02911865886709183,0.0030763418096518506,0.015116725504872412,-0.008356549807813907,0.0346039438598714,0.0072092792533036175,-0.0071476908661364,0.008845574177927992,0.012284638060847754,-0.021564724653773574,0.009607391000112219,-0.018882192339846688,-0.03436467441158036,0.005351674417327712,0.02499911242322896,-0.0007659390602993263,-0.005908975220115453,0.02377483215694623,-0.016264362889468337,-0.014736618934489486,0.03389200968299776,0.004600924840257625,0.011324603643297538,-0.010699448056696146,-0.030050823629637475,-0.030692606328889826,0.034493949471718195,-0.0009844782108938033,-0.007841106254322579,0.03071349131921039,0.011986612203532122,-0.029301455418131627,0.019918721411431063,0.023177347801434933,0.008914430464619006,-0.03389213117252103,-0.026851328508332925,0.01873156188433727,0.0052154339715394845,0.0018697890684073117,0.030798995788292545,0.01714621422388537,0.021817390900992287,0.026583600964564108,-0.01937925508116241,0.027098016257668438,0.015870995921393634,-0.035861782819036424,0.02557442055692929,-0.009967415539908108,0.02850599748093071,0.022044144601124062,0.009019070167977448,0.005660217967083142,-0.027653868771469508,0.009904749406244577,0.011042690545900825,0.009249154333282184,-0.02634380557080245,-0.007160184776281499,-0.01582030095294145,-0.034318701604763684,-0.032282255472235254,0.01718459318825522,0.018528771720885188,0.016372283288266336,0.003186923762777339,0.01825716681064034,0.03335325083495494,0.02802861256799519,0.011194593301005272,0.008229558206970449,-0.022132632848238052,-0.027615738837455654,0.022830039450757386,-0.024136787990983198,-0.006385307188331224,0.032018379659437386,0.035211106345318766,0.0041680687123230925,0.010438382159839972,0.013842396407223153,0.0008553374772063113,0.0010140333866213926,0.002203752446565599,0.006822035238316323,-0.00876339298010312,0.00712014787399138,0.005794239704869243,-0.027575557375092763,0.005218460382834998,0.028820610571487194,0.01867535981832767,0.02592849405993473,0.035341143978558344,-0.03264673124263157,-0.028333466311276752,-0.022195506904276133,0.026074353503000948,-0.015519260632336317,-0.030299086748990803,0.009661517716255159,-0.03249587522697067,-0.02691394125383586,0.011651791005700895,0.038591155051574004,-0.025683515642556904,-0.027026419763193702,0.016046878332453204,0.015599235670096578,0.010686972540861853,0.003490111545753388,-0.025137356504007058,0.009784120104509509,-0.0016447078595387724,-0.013690546411157332,0.019249237802692252,0.005678812409978131,0.01425729502494564,-0.000699005612717583,-0.006895573897736066,0.008590114662097255,-0.03627779586392814,0.00043354708399788677,0.02043299752198333,-0.013787452367337772,-0.00270292270943995,0.0002982353153283012,0.00004974547461252706,-0.02529249524745113,0.0033537281278101573,-0.0018005706128377918,-0.017966791743421834,-0.002462618776277704,-0.022850735253768465,0.030065423692205922,-0.03162697945119482,-0.016662680695432006,0.031123260644004357,0.03062287547249151,-0.031602413339332114,0.0021384766046251926,-0.021280448141026424,-0.004215482410597725,0.004432579550539317,0.016386533067282896,-0.0070260259419365765,0.03459758318535041,0.0026447948641184563,-0.03280863250460161,0.01806734555260357,0.02005154563105707,0.004490211469415998,0.012483158202455899,-0.006009226790650153,-0.0030499964712443445,0.024549134243891782,0.00014212224623635908,-0.002152820610280156,-0.008582638769741172,0.007810069992194515,0.005000204461846679,-0.01641335020645206,-0.012993686697942609,0.006052259702435997,0.040229876377460894,-0.012318137312246454,-0.027469758173811254,-0.014628478671144945,-0.022688653391678023,-0.017978824824335566,0.024765952918586454,0.036948215393454394,0.018717352854615923,0.03648408178137418,-0.013914325650367331,-0.022173583215120692,0.02683521804366291,0.0033646207996200755,-0.03647063086893334,0.029723122870750494,-0.003869901312213407,-0.0064144417386935325,-0.011145423719017616,-0.0027591390328738333,-0.004449802411782682,-0.013625131679247901,0.033575252767761854,-0.010158128378261933,-0.03389377835693929,0.0025473404158957618,0.01303089793368482,0.02550957482725583,-0.033165218223135284,-0.012600145071119272,-0.0016319327250504665,-0.02500437515102011,-0.03666042982138074,-0.03372251087599091,-0.022250537874971263,-0.01881419481827973,0.023097772947725657,0.03955616404497452,-0.0005844978571631863,0.01220061513381307,-0.0005711746034716697,0.010708241540914695,-0.01132419834526208,0.013701809821898102,0.029111183451929833,0.017235004377437243,0.03374643436141392,0.01799720712360553,-0.012531623776064692,0.021047926358734304,-0.055063976301347344,-0.013863438998807124,-0.03029490619252508,-0.05350676694514979,-0.016469361583953672,-0.02962009328360891,0.029024532806542467,0.03052118223471184,0.03415500681306921,0.0203784659734041,0.022117941513817716,-0.02010182409757879,-0.012521157732004412,-0.01935132119894917,0.0007495311301296333,-0.005536950619134986,0.03037051712981844,0.019080340449211402,-0.03257208792807142,-0.014254185714699405,-0.02315235482837522,-0.021326064622726553,-0.008933954383946415,-0.006820914077524869,0.0076557775766659016,-0.024708678405315068,-0.011045160622920016,0.02353174354844123,0.009079039144672004,0.03636646695794949,-0.03212645075276859,-0.013774237772353539,0.02148712037726719,-0.009731177114143405,0.019215702365862754,-0.02310186466586774,0.01937376381282844,-0.018298556900866417,0.03578315086707378,0.018045882968932496,0.02854229365481765,-0.01813407453205109,0.017781606100114082,-0.039226827712241945,0.0043008519114343755,-0.04362268379766188,-0.02849961061089496,0.02836231099230699,-0.0042801592066786095,0.008579782815478242,-0.009040489907540545,-0.024218121179923877,0.011943441584453847,0.02414211380703242,0.011322201666014081,-0.027573252626568814,-0.01173220625202105,-0.01455829287135722,0.024937858515931575,0.07426808664413045,-0.021044355269463823,-0.04336786848458507,-0.005081482572672484,0.0045544382462482744,-0.041660997158046845,0.0004960212081031627,-0.002358026163788215,0.00632022251977244,0.03434654450940899,-0.002994423803306917,0.0041752502608270745,-0.06367585065643146,0.010002926010484699,0.007363324949276087,0.04010429279352504,-0.024384951314919405,-0.023855629261172656,-0.024807939804946392,-0.0038182143684505994,0.0312123560738251,0.032822234799651365,-0.01980659149864933,-0.012879509011445781,0.0009671272808801431,0.013887936504230751,0.009621824035651826,-0.010264458723752649,-0.047729119600715755,0.04454054062408474,0.024824528682081872,-0.048503340247260024,-0.027549996686270714,-0.021348764959778953,-0.031298439151443445,-0.025581789627880578,0.01877988909679972,0.02414459155356225,0.04024451494818075,-0.0015436350393763015,0.001113344085893106,-0.013996669303220872,-0.0617727027425475,-0.03030597493498451,0.019756519854709418,0.0004145234154282409,-0.04101674946327132,-0.021322302705995354,-0.004891203368620909,-0.013528784922349208,0.020855007081908558,0.01570430319568744,-0.014817843644846333,-0.022258216010573203,-0.013149846306415506,-0.040510830117792274,0.0032074161971834304,-0.013817151102922438,-0.014735438707402671,0.036369348743541224,0.012689230565468902,-0.061832249259311384,-0.011476380748055811,-0.024488518108916595,0.006253396731814752,-0.002015156580856506,-0.039482492016676536,-0.01758035652940325,0.025281984439912617,-0.006016210395608149,-0.015906706017591043,0.03492355927179717,-0.04507187747129174,0.0023544964736081885,0.006637288371470846,-0.002171152429586219,-0.018592789150170083,0.01855273537966052,-0.017187025585257566,-0.010908140136572902,-0.010511272544054913,0.014138078838643481,-0.03750627104043112,-0.013876738350781626,0.026287152281608318,-0.0047158767038590925,0.028572510319107316,0.024161655544042062,-0.03361528553608212,-0.004702501125074198,0.02547445816316829,-0.015320345744717368,-0.017246980197273637,-0.02287987389678232,-0.0220940507161401,-0.03144248115731691,0.002753716119201573,-0.01283083973157173,0.006478828842307809,0.031902206011082734,-0.011624098570070051,0.008790418987557287,-0.020286176140902775,-0.000031591787296567786,-0.010577114257162049,0.012593954795915555,-0.012662927321641112,-0.01640569350780341,0.03013704546306844,-0.00881939440828668,-0.01178278859224143,0.015671512836778277,-0.0041009511336843815,-0.022073452480025464,0.0022121811565811605,0.031255719959612537,-0.018888879995049766,0.015163298154807235,0.007027500020163738,0.028965873973182288,0.02360135153958432,-0.04710585929586465,-0.02568520723564032,0.02645849459109377,-0.013379449906859521,-0.014749387131485795,0.016722887764969396,0.006507908326158466,0.0012240885813379727,-0.016251919525692497,0.010585052728495607,-0.03506220292346263,-0.0023154347671238305,-0.011390833977020667,0.030467548582597308,-0.004338067307172089,0.015108408269356619,0.013385892789217542,0.03670062996689575,0.007230139237875354,0.03644025654660567,0.029816399994109028,-0.0018624830122355323,-0.03189342947201328,0.03381325474635391,0.022633720092258704,-0.021956604464799336,-0.019181100892067402,-0.018324961235503465,-0.029123667723704543,0.019521069891338606,-0.010816687159848222,-0.004071620857004216,-0.03812238439715991,-0.0025743299919850243,-0.015300541044841092,0.016183700249813627,-0.009813041792598147,-0.02720631055482308,-0.004687759885325252,0.005475760235759249,0.03224155693876798,-0.034720425761750426,0.016750822238340134,-0.001433931198829588,0.017608471506783335,0.033869329630658356,0.019499353544449125,-0.022363730767579196,0.008115401353308902,0.026275358181867665,0.04373410703028708,-0.021172340434276564,0.02061820311166059,0.02373909713166854,-0.0350566811889021,-0.034519546636326025,-0.008931608406177375,0.035348104393604536,-0.0029865719584302977,0.023913554154888435,0.019837643682004923,-0.011520352356473642,0.022994033942416305,-0.034303552926262214,-0.014760041869192459,-0.008158430069186507,0.008961580151342277,0.014961925015176581,0.0019150828876803396,-0.009807559138342352,-0.026512754610491945,0.02373249525212492,0.03477381716877383,-0.01319059859393369,0.03436368000116343,0.015991988834797733,0.011916952836741941,0.01510009876229699,0.014338240674615402,-0.010621563147825908,0.03734896199832085,-0.02635646507829105,0.02886820733121544,0.009747283268660535,0.0022325780444531072,0.01606080347710333,0.03225208934751221,0.03464832316042157,-0.020579032396954598,0.01945016651387026,0.02185346203314662,0.019894658430909738,0.015483687935844644,-0.03733869601183901,-0.02978943706110425,0.004330307306690203,-0.028443497152136236,0.028747394119479228,0.020505130540066613,-0.026311755487876724,0.014888518106176061,0.026428695887247736,-0.031239831732427666,0.007240340151236087,0.01671951689871059,-0.02089131462251358,-0.006619795315371811,0.02409776663174877,-0.021892584500321954,-0.017016984141552713,-0.0009656545002738389,-0.0014461820588712833,0.021337253746298197,-0.027011300278249852,0.006368292487875659,-0.03357193150952557,0.01562795705019652,0.009075414312932432,0.012710418293288013,0.01628121040409883,-0.009054381491042844,-0.021072872763477895,-0.0008619160452352045,-0.013936708992876854,-0.004514256293119844,0.007478455466443838,0.030948046051746027,-0.03630962659086251,0.03540083157465047,0.03006227701108455,0.017750054361644375,-0.02168670142597056,-0.011593467763231453,-0.0261321851082295,0.015506258375418377,-0.0022182911522209475,0.02019970460724677,0.017338271633199624,0.02089857791488974,-0.03671940034088738,-0.022532390145675624,-0.0028392526723886027,-0.01755763487079003,-0.008032016976590275,-0.02040335373837698,0.008049302115243837,-0.029307447302565136,-0.0030952271260647874,-0.01665828622224217,-0.014787114443808652,0.014184909771917668,0.03249975579154431,-0.035618760685670346,-0.013331077711308743,0.005427208163864874,-0.0060186134862580815,0.014156743891008936,0.019525469235570074,-0.032079278397076555,0.028808572573354733,0.007048338646045226,0.0174757408480239,-0.033047710963220976,-0.014768122224254636,0.022825068863100657,0.02784912512128553,-0.010767833989059335,0.024151142357025545,-0.01541873740715034,-0.025689577914834217,-0.01135528351315622,-0.013475970479346911,-0.03417041814321759,0.0069731986176580565,0.020719617293602124,-0.006242477926316945,-0.017759163616895963,-0.0011311437687907865,-0.02098916249489879,0.003167339637488346,0.02831651020202338,0.022501028031085772,-0.0038801571188350546,-0.031637551829277515,0.028048872763188893,-0.014590633861264857,-0.03147016831951984,-0.018817101367347423,-0.025312215225301346,0.030147967449072537,0.004586892511740872,-0.008711915649615206,0.028042492484752414,-0.0342936788544988,0.022830556134402685,0.027319614664516195,0.02668093109650541,0.033843107509350386,0.015710073923827124,0.017421110205640113,-0.03146330620196606,0.005524070884231782,-0.02616105476015061,0.022827604891044923,-0.02914880243541594,-0.014440473526202691,0.010819046141861084,-0.02508500082955737,-0.017227210698579163,0.004368694427855095,-0.03433700476421001,-0.014857881191976804,0.008678008901108956,-0.017180504331445436,0.02242762326037639,0.02812016948812268,0.0321760687142532,-0.009488011794968547,0.014851480208806046,-0.006113846542273309,-0.014527922204602054,-0.0016992021697310481,0.030423898093319707,0.024423306835650832,-0.024847326347297635,-0.02447324464160322,0.02406066471014796,-0.011528780384309201,-0.01615750334814574,0.0064553344157026234,0.035338248752891155,-0.014330590598161054,-0.00805368500031164,0.0035173533693571048,-0.03453959718558627,-0.0018168245461403503,-0.0075961548962079715,0.014367042332210396,-0.03504756707602407,-0.002884515444962363,0.03210500178955608,0.007171197381282421,-0.03538085357471278,-0.025247492800389106,-0.009945401285936097,-0.02756369680027746,0.029192802979211927,-0.0303268263684202,-0.028309622298857202,-0.02819767521553527,-0.02830687863803054,-0.018405152204350992,0.028481811351153505,0.01118899386534704,-0.00858782363954769,0.02781777664515491,0.019027620519917552,0.017187522662630104,0.009794488867288136,-0.005841214572107128,-0.017425752274852803,-0.012154035485484844,0.017705808780615926,-0.02401387751792149,0.019773319931435954,0.03450153267799752,-0.005749463963461037,-0.016271195414064896,-0.001919373451381551,0.012640949204686185,-0.0002108103335977302,-0.00022523395450798527,0.029915120517558427,-0.016384601369217933,-0.014702716511625307,0.02947326236239058,-0.03526669424757979,-0.0175043861085351,0.005466064331606205,0.007779405370797291,-0.007872010034707081,0.017274314076060795,0.0324383487251947,-0.02582671797807779,0.03087836634066722,0.02859855697283343,-0.033308620775892576,0.02426354558833109,-0.013173362325543008,-0.004455405400284983,-0.007208840756283877,-0.010198591262638333,-0.012329634173155486,0.0340101280042546,-0.02041815049990619,0.0024582941406055617,-0.02715178456379238,-0.020824129218814727,0.02941611621452843,-0.019481189669459345,0.03284126618193399,0.004944726772642016,-0.02704457111777942,-0.022812613778616223,-0.002863465441370047,0.006540771144644068,-0.00127719057386598,0.027561284016544924,0.02702724368755509,0.01025726030631164,-0.0013909512436428711,-0.003443091366694531,0.03140658974026937,0.01586855090065658,-0.006839709306414404,0.020180555578656993,0.014407431287076236,-0.005284303817788643,-0.008026940871378816,0.006012633939253727,0.015160746159885892,0.00850755527027728,-0.03259914376486434,0.02768805420412679,-0.020784403255999027,0.022971953907095437,-0.015107060723785298,0.011027880690532746,0.026156017949766373,-0.0232672521690614,0.003918178772615737,0.031052659949488456,0.012418232221477645,-0.027345456976001388,0.012324241239275412,-0.026791786393774424,-0.0064120195113509665,0.02104399545879479,0.0043596569339948085,-0.014276533067455289,0.012288936653943892,0.02579303250166205,-0.0199918809281102,0.004294236029643343,-0.01930009939088141,0.018109177934058494,0.00662110139210749,-0.002954516143966371,0.0027508041519018617,0.0017807088847365468,-0.01145733240397235,-0.016167159799851505,-0.002547629275076159,0.007669483149655284,-0.009214216074840601,0.008392062788730581,0.021913379089276666,0.01452042893003027,0.0035146618520656855,0.03521644047241684,-0.018613896663522735,-0.00704365016200418,0.020169105679915176,-0.0021686357124261852,-0.006378987819352691,-0.012057056377631182,0.012132415218581426,0.024040690146524008,0.029534547831559687,0.03278418730464767,-0.0015397024112973653,-0.03130470018967162,0.025961384209441867,-0.017616606575207673,-0.027784969021521368,0.01269655582841709,0.030450294969696028,-0.0275231090598829,-0.016708401112336565,-0.01429934747692795,-0.012023059486384897,0.008376663461923015,0.021987857376482713,0.02505065958617713,0.025313018806935886,0.024950524276327407,-0.010599553402091956,-0.03504885091619438,0.0014653013457144681,0.03530402940939197,-0.018800006664521893,0.028832558240497835,-0.013642662426401971,-0.015366039585899846,-0.01608751992259967,0.014310262155525817,-0.00717650211068648,0.03102977536858858,-0.01750214860812891,0.018862120463324555,0.03198451118148645,-0.006890110664810113,-0.030912797180440328,0.020217832805667912,-0.01590453926433339,-0.009039932696943621,-0.007313599591907227,0.026323074583464154,0.025055475420829393,0.028946893778609106,-0.031479163888533515,0.01514004289218195,-0.025079549869736907,0.016776924784377173,-0.007845706012868237,0.009732987788050186,-0.025798782204222385,-0.011235611603956638,0.024805209340456404,-0.005656452158275987,0.00532402705574646,0.007443143925660562,-0.03082544946765897,0.009959759100034224,-0.001137688931425041,-0.01977845709666422,-0.014866827490215943,-0.009343205673687759,0.03159201215397619,0.009927529086788824,-0.029019292241046327,-0.029264730487573824,0.01615769251434181,0.01695229604284099,-0.027035812249004015,-0.01756301353810222,0.005454987248136193,-0.02901802719925862,-0.031896306199691526,-0.000048528144457171906,0.025455463470148786,-0.021885549993790363,-0.022610937560195422,-0.024613535364651478,0.010027535015613893,0.0013804739578402664,0.033152225570990346,-0.02564774802381385,0.020219187814790457,0.006157763740720057,-0.03658859014647727,0.006689306061586057,-0.031165735315821744,-0.035683475828645346,0.004682344100160404,0.0038356040315905733,-0.016214609069030203,-0.03400532829297066,0.009423664983826482,-0.012892199438728224,-0.02148760877803012,-0.0025334867249350934,-0.0207454597740302,-0.018871807942131044,-0.0006813870442870548,0.014721538952290758,-0.002097319247283826,-0.022358347388037998,-0.0008789150482241333,-0.02288897586383211,-0.002226960971139305,0.03590044790983677,0.004283359825904118,0.03101903465820079,-0.024538556005032856,0.008780556076334467,0.025655482012857136,-0.030494885430473042,0.039358784190464464,-0.017426734560383395,0.030934809654169896,-0.020332615613766227,0.00878470074919675,-0.021156472531861762,-0.01819079488079361,-0.03791360078048028,0.00854257919743989,0.02613560464956997,-0.02487045068412099,-0.0073684069847473,0.023610306342383054,-0.02400866631763042,0.01979740898162695,0.001308294493530273,0.021098101344843145,-0.037889021525832074,0.019736095564440503,0.015088483200076087,-0.024727129972815436,-0.01391977080247466,0.031146877650897072,0.004853431892016789,-0.017362933256551586,-0.020299770052431564,-0.01774076110216298,0.011143078624373998,-0.02160237978974999,0.0026260941593913593,-0.008927503371007806,0.02696050522544897,0.019693064164512334,-0.022408262202361726,-0.015133308013173275,-0.022863061633473975,0.00017739619544937963,-0.020170484194476077,0.009261133468345475,0.02251367136159731,0.001248456916041753,-0.02363838188594681,-0.029314571681725708,-0.03031498561715087,-0.011471318493005245,-0.0038570700847592745,0.003928275802487093,-0.021065162222499358,-0.010574245631827047,0.010375595416511105,0.012784322986231498,-0.023600559939652207,0.015389258294588315,0.004606675347232654,-0.00034958791097640553,-0.026723369888952228,-0.004764808435601631,0.03657103948177992,0.01866201768376053,-0.00464399076434092,0.011075972019408981,0.023474991678956888,-0.007274906120520036,0.014070362714251395,0.0161848527304043,-0.04352816940907978,0.031087803566011655,-0.0201404023142977,-0.03266453133265404,-0.019486948572904422,-0.01703572089570145,0.0017955132206734648,-0.00797253511734571,0.024377001884037464,0.0234501730807372,-0.015359129372802083,-0.028209836950287365,-0.027673643214163796,0.012862623911790168,0.007345949463291565,0.012796791539164838,-0.003484467487140104,-0.019404688394230176,0.03155369232357572,-0.02702018256818789,0.028292390505353593,0.0173720297007599,0.03337122117212924,-0.016448311169540198,-0.026264967393964916,0.030649437246598986,0.024791990040196506,0.008638393536481924,0.005363560790644131,-0.013410906118751311,-0.04556792178610622,0.033059292214600244,-0.059871528058823266,-0.0224568299889824,-0.013983595060990771,-0.006509558395537443,-0.011263739075799063,0.042222799713762714,-0.021570693714877038,0.013792015052583309,0.019057177073866866,-0.012470312331199274,-0.023341644793975973,0.02599630834418644,-0.006579389719514194,-0.0034205361712441604,0.0017518560170523766,0.032739227348086195,0.03320301438325908,0.024269184114552585,-0.000246837687128195,-0.017227681881734343,0.03009479540696971,0.023033984549527917,0.014228406160034913,0.030420368343479606,0.04991872092288142,-0.0077565489876515546,-0.04822002712160465,-0.0294870336776407,-0.0097604572379195,0.030713537679488628,-0.04720592431315282,0.006002458659481834,0.031021472160758467,-0.03642003841047411,0.026609992137870492,-0.010000619517628173,-0.043551030770337035,-0.03846369394321531,-0.003741667365179358,0.03482289492479058,-0.021214301716368598,0.023370873808095882,0.006891842663134763,0.01215538616283815,-0.010784454611032925,-0.013164891237458252,-0.009255382566762978,0.003315441524144994,0.018913921766203167,0.03874103202600525,-0.008114392494669873,-0.0037622219974473947,-0.034669444766480234,0.013086958307932623,0.051068571092325835,-0.0413780328725773,-0.00899481258079656,-0.014778905185500162,-0.05420577656119376,-0.012663183902406444,-0.07110785033459953,-0.03968571225417946,0.0029719694734589588,0.02179112949335474,0.05367941591051571,0.03193973898556271,-0.038076724575947206,-0.02641443947385786,0.034204194245767566,0.019209606236062347,-0.046831324898285134,0.027359791963625944,0.02095193367801034,-0.01385446221649666,0.016629195094671808,0.024150406224441902,0.04308662880841927,-0.024837823426043737,0.026504717519027398,0.00909323314350229,-0.012859564356112211,0.03597808905719909,-0.04100702719367747,0.06234528545397953,0.06998938391495561,-0.04329434659267984,0.004046678685964869,-0.03446925891160971,-0.017086517127085844,0.005487198364367481,-0.0352082311741679,-0.018290766357437507,0.0032518749887422084,0.0030510200379629255,0.012961067200742202,0.03415475469350387,-0.055991814688638265,0.023133481580906345,0.02241324107555221,0.025245003577629935,-0.053543875433880686,0.018904769843798724,0.022754542439357716,-0.015398881569728644,0.010602884837046779,0.0421330880522703,0.00032484789270066357,-0.022404423903884422,0.026298812099100465,-0.01816179045480734,-0.06719390342011859,-0.001027400822929547,-0.05068929267661918,0.04621443385785533,0.03539900352742699,-0.030982983901356405,-0.048283642088092264,0.01750888419961852,-0.032522531508478426,-0.04883911186814286,-0.04955060288153076,-0.004016149453639451,0.007152734602955605,-0.0014043263013594834,0.030063968855574583,0.03617860220201647,-0.03345819403496738,0.020489493921984903,0.031406453516931054,0.03650364999108867,-0.0038111936922467773,0.018537858710193998,0.008122741742788745,0.007022647759542877,0.05494562920073991,0.022856037510573902,0.037230820005128014,-0.018686246099584938,0.007607289708790329,-0.016580556241119843,-0.060815471006627944,0.03067270921954579,-0.0004132971490762937,0.07462224655772831,0.04458534925354699,0.009699236542648464,0.016137057758582367,-0.038660992538709985,-0.036233742573037894,-0.058930429580388126,-0.08891704424972892,-0.018640540228215537,0.059254749841419194,0.05749489871556205,-0.020365375339831963,-0.005361214294207514,-0.05126118377224399,-0.0009943245496447533,-0.007953750013348578,0.006991638179418995,-0.04526261249179695,-0.018358509833191403,-0.00021743713552250016,-0.039899218865851405,0.05225341967470304,0.051351752024781636,-0.013988083435297501,-0.029240106978314067,0.05524526957454868,0.003454907882065783,-0.04733472981381011,0.0542966933589123,-0.03580999558546257,0.017874254545560943,0.04465898711517438,0.0042090363908560075,-0.026484848135966427,-0.023739002346717494,-0.006112631347435202,-0.01497164404219878,