{"performance":0.9346,"shape":[784,30,10],"biases":[{"v":1,"dim":[1,30],"data":[0.48229015531911446,0.3058295677717571,0.2418930420849417,0.371836750148045,0.8022622544486211,-0.09291255971426308,-0.04281370873789192,0.24796278296993168,0.08010972122738517,-0.4814531304201459,0.6882296443437111,0.17144377741860353,0.492209370997912,0.7368880416055882,0.4599407101289877,0.4817895313723544,-0.04039883769254222,0.5761210761253622,0.9022076088028003,1.048014117560749,0.5839786238206037,0.5239581359621776,0.6696966439979866,0.017487805922186163,0.8814184258382762,0.4085400596718939,-0.20220393028575082,-0.46591939821910533,0.7884095326072424,0.06299773216180275]},{"v":1,"dim":[1,10],"data":[0.03194093421164681,0.2266749222566736,0.07894356212512152,-0.6373185182769087,0.3844139751455389,0.2971149812828616,-0.1824157094425879,-0.2344868073350962,-0.5813936420168007,-0.3313937649099632]}],"weights":[{"v":1,"dim":[784,30],"data":[0.02852030220937096,-0.012675708639630332,0.018032539431971167,-0.006210054068110385,0.01274320158944664,0.03183392809208556,0.005991697433988814,0.02283499832570937,0.0159910274201336,-0.020498362880237337,-0.003055462252737895,0.007867849276885296,0.0021487760932317676,-0.011210763525273676,-0.03250792858825635,0.017898592081925915,-0.02834484756360841,0.02395789481979844,0.025438752774247328,0.03295867205141691,-0.021096574537356104,-0.02261689517165128,0.012476836517150272,-0.02419561440785248,-0.01010766353917206,-0.016716968103147822,0.012504372737892462,-0.015893734055581966,0.010932249746967763,0.008628775828547375,-0.02517672284744161,0.007270162323623,-0.02217996312045264,-0.016359268557234415,0.01904831425372982,-0.030560297332820584,0.027319936361540703,0.007739443528951541,0.01592117640617144,0.021442545953018782,-0.003292890277809178,-0.010957659112045775,0.027633171730117756,-0.01530948370408848,0.029708498636150937,-0.020613127166564285,-0.017277534771338768,-0.018196923879484555,-0.03475152110805307,-0.01687618949100898,-0.010673118717171089,0.014253468392893064,0.008244625496654168,0.02260780236863634,0.001933668426704345,-0.031461321418936504,-0.024991352970052755,0.012541194636540576,-0.01474942882158782,0.01768417831303954,-0.008332678174816817,0.02047875643543295,0.007515211205862848,0.033456771059864526,0.02079577613319407,-0.02409438168498885,0.024160896320574218,0.007339189115590603,0.031601948696649396,-0.018642393229423185,0.015234668271743385,0.029866334035266826,0.009600495933723474,0.008517463760371324,0.01388677128896379,0.008878607712224769,-0.015108541666223264,0.02813231074026268,-0.03450667997937584,-0.031306319604834876,-0.012263812147146669,0.017987130744611987,-0.007655753331991658,0.03343384980360066,-0.02681455029631406,-0.0030912454937574857,0.01233124766273888,0.02071577896935322,0.03058323807702809,0.03226056156324672,-0.023706885145010657,-0.03339282903713408,0.008317061309255726,-0.02860866224210363,0.009445944901071803,-0.006620134683407004,-0.03531215941198026,-0.00648756638586399,-0.02293780886534172,0.021626543691894567,0.014929700854516802,0.02801063753568049,-0.026904145485457057,-0.011958750521497023,0.007594823015504057,0.01075091684184927,0.006485360323776432,-0.002419965727750495,0.013304694867232387,0.023010818805181396,0.01723606825779435,-0.029521888876570385,0.008415152337514678,0.0006202995186719157,0.014436194236429722,0.0029071745988589193,0.007321182870026734,0.016105819701633446,0.009330780074138026,-0.01581458415151739,0.014089648935353742,0.024622751955989647,-0.013974137031913967,0.016557554511272103,-0.014076144441866348,0.01407496514119174,-0.01142370061076197,0.022498377947509293,0.014502049028860877,0.01804906817891843,-0.02380551667402434,0.002184848112762302,-0.024651920681582187,-0.03178537933685077,0.034070846904094815,-0.02881141193195886,-0.002873221382232609,0.005126605503169519,0.009747156141225038,-0.016637378428656025,0.031064139388051304,0.023843293534757844,0.030915131388828343,0.02338146258116696,0.017638623266947824,-0.02264644548940875,-0.02471474869612184,-0.022092665170102343,-0.02653933758130262,-0.007255212732741243,-0.0107719750319525,-0.019449901658522464,-0.03026558185260051,-0.009880386320849532,0.03198869983648531,0.010434141158324826,-0.02178398080346636,-0.03381214590272498,0.019266618871053423,0.0029769678305623243,0.009412967803353794,-0.014009745012168465,0.016668827458156787,0.021633824579557565,-0.03295544800447888,0.0046321975941286606,0.027559061577888608,0.02969942921864331,0.011546246971045414,-0.006447412019675469,-0.01567593608401891,0.00397663330105142,0.02437665693679452,-0.01527115304170894,-0.01017874361412217,0.02604751719203529,-0.03078561743644527,0.022807808831554702,-0.03456161660081572,0.01606064859370329,0.02860438871905235,0.012043186535064546,-0.02844706069294654,-0.009887781444685256,-0.01335611913564451,0.033613091442015824,-0.031485311796345665,0.00002257321144135543,-0.005309878528170473,-0.010776452642932952,0.011914042265683836,-0.01918787908308831,-0.018076958514183717,0.008475862541279744,0.005409524522783808,0.0004568058921187168,-0.003677233547138239,-0.0010944608266701614,0.012542310183553215,0.019698539870488627,-0.0042475540577923895,-0.015113963257831698,-0.029158811421388365,0.027150670795877213,0.01833811079728382,-0.03269843517499447,0.02608441872878343,0.007154166423851992,-0.020369384121434613,-0.025473620107193513,-0.027363646327020513,0.021889177187057914,-0.0022801738754909193,-0.0355209826625419,-0.02294678623571473,-0.00727728867708545,-0.009539639997829584,0.02280200973781564,-0.0299577466503756,-0.002990371324094298,0.017816083918355444,-0.01564213874864809,0.015656900451651815,-0.03138034834191177,0.02884167262131329,0.008617045198572822,-0.028563073665373646,-0.026618248088509225,-0.0021293560436381753,-0.0022018824643274607,-0.003650254495736208,0.03568105265539301,0.03401886969253386,-0.0011610968905131358,-0.013567544098457476,-0.029560805752973356,-0.003717352729950628,0.033961514454014755,0.019768669081086702,0.03458877975893353,0.007111859454393632,-0.02770806999342912,-0.03134409089537344,0.029368959637158822,0.02697037949691319,-0.004762275857928527,0.029632797472126465,-0.020863521422799916,0.024409688498806675,0.015600118563373302,-0.018285834696473536,0.02963974159439535,0.02622657938815016,0.02326108160371966,0.023218452431581858,0.02119608320628647,-0.02494910627211276,-0.027202040946514967,0.02626039020696887,-0.017947897716234378,0.01828232997140325,0.013356943845699644,-0.03211196542661592,0.013093775157221016,0.03269656764447347,-0.02089570151710312,-0.01910024246639576,0.014393825034512524,0.015568765836392108,-0.03565461368558698,0.03226405229999124,-0.011732491524308697,-0.0039300945898166975,0.028944654073580583,-0.01932757150466042,0.017221288266988447,0.029984480033667688,-0.010000285208576098,0.015802059121846193,-0.02772738103865302,0.026452612446378337,-0.012650956045427746,0.0010952625265414975,0.025697206949404423,0.0123882212950419,0.033586310360511906,-0.016382337824601443,-0.008894074907128124,-0.025010336788471164,-0.019010086859263434,0.016386485824918626,-0.014104779595219892,0.007013283132134375,0.01795137967234628,0.013792082120968434,-0.011239161236656563,0.02379877593589888,-0.0299257420867594,0.03325969908551338,-0.0260896630494361,-0.03281835037970698,0.012285441856845353,-0.03145901522044533,0.02876444930837886,0.012654666901587328,0.024597213227993957,0.02997056162443283,0.008852311982325244,0.02797854355558299,0.027049300760460873,-0.011627336862044755,-0.016051480900568245,-0.01959278041949083,-0.006490799484467815,0.0024709210397635406,-0.023218533576100785,-0.014754253434038307,0.02523395521200516,0.006391117265130912,0.009972495541342018,-0.021584141811240243,0.00888075468839803,-0.000727598786889834,-0.029229035361788367,-0.00472719110785131,0.000337508520247054,-0.02191405139175425,-0.013692144311181547,0.026999298352504128,-0.021094943015375383,-0.02467494698065921,0.015616130469300722,-0.00621797323277359,0.03348960954729191,0.022197741080447128,-0.023730487897681507,0.012986559490585074,0.020743805827080797,0.006838843702937268,0.012287031368544032,0.013463220653949365,0.006548982644927426,0.02653269545055359,0.007800457813282202,0.02422053171759911,-0.029424904241705057,-0.013273253374028607,0.035592724738687576,-0.029524156635692123,0.008390036989154144,0.022865987347741305,-0.008332435809050218,-0.008511237775062366,-0.013044026718194206,0.01756197283751932,0.005873751595743645,-0.027048611094535695,-0.020363063585288117,-0.015465583035887964,0.012047727314653927,-0.005933393168875756,-0.005962282981031839,0.024254701495171935,0.03321791736882616,0.00595668640015842,-0.02976244478321194,0.030494823920605846,0.030254888926858514,-0.027781940240797456,0.0265050376307758,0.019158805201125336,-0.000018838636993068974,-0.02225862534696926,0.00399190579478791,0.0137074899390447,-0.0010844074411532712,-0.025028141943181856,0.03394857304603938,-0.013852525817415326,0.006074477419569499,0.006611786660462702,-0.02294774464616597,-0.012980566866349002,-0.010381085382232216,0.020317358403307152,0.015373720804577178,-0.022234950664321164,0.014527432380167562,-0.031051808341239204,-0.00270576099841392,0.008441067684936509,0.03328223781193994,-0.02808877677641722,0.0018921215624889364,-0.006894206631319255,0.02580723815859129,-0.0011452166410095234,0.01325295043993917,0.03285252862004003,-0.027505384342052804,-0.025581727272889567,-0.028151039098707916,-0.00605957950515379,-0.03318597094271968,0.00450497710932033,-0.02493388278915264,-0.023363262342719203,-0.018966853079577184,-0.001215435415840606,-0.010431000087499481,-0.03309844215568332,0.015163592110159368,-0.027093750978336165,-0.0246669290950996,-0.007448811884165261,-0.024273099393464708,-0.01557698046911436,-0.029701053148366043,0.012032689546386395,-0.019658510409406485,0.02148493506331567,0.009354385319894352,-0.0022981460943251935,-0.032507592338364394,-0.02526680480059029,-0.009216798962532144,0.004280170493907229,-0.00599544463196388,-0.006892761594975734,0.02738094140710643,-0.024180748081813926,0.01695075764268024,-0.02151495047625713,0.018043616106495353,0.02724922529547653,0.014393564498158908,0.014193084295309787,0.012710741411084768,0.027116878211203264,-0.0012397232176674742,0.03556764675745403,-0.0019235989546102792,0.027241942521025218,0.03012865568417925,-0.02561939227352175,0.009154183548992152,0.024592260724316504,0.024759630409795463,-0.006837531277344139,0.03468969170546934,0.034089781957746146,0.014735713320038204,-0.032576333352367634,-0.017389364486657424,-0.025782599280426702,0.0009724834077226472,-0.0065040736477377445,-0.014260857116649083,-0.020340822837174158,-0.004496400548900651,0.015251235218288207,-0.0010651599909075966,0.01047821937257422,0.005847248455024764,0.0032586433370657172,-0.004229317203599725,0.010494183926932492,-0.02947978035501048,0.007956500033717158,-0.019358712480567333,-0.0051277061420282296,-0.010997046181978783,-0.008125103767766725,-0.0035416840884753536,0.00029328177250821923,0.01685964946630157,0.00699865615608392,-0.01893317335573729,-0.03139566816674333,0.010186852057302489,0.014432894907297364,0.027038671388642396,0.00839205810291991,-0.018783415625913916,0.0012218879426503235,0.01788042526446914,0.011356592542686617,0.0017697580827050127,-0.007020813512035713,0.015817800951914034,0.025594493697063965,0.003364227994081329,0.017439648663762193,0.016932873240235638,-0.0027875078212288643,0.0052059962620725556,-0.026906909247338864,-0.011267434600293192,-0.013495129967094944,-0.007569526465867869,-0.01202403277138916,0.029836194684444303,-0.005367584354673119,0.035081951093628036,0.020137711787591855,0.028602539409920677,0.006144619305918746,-0.023926465007519285,0.017364634159933737,0.027946022376480112,-0.006756989287553354,0.024516482599674316,0.031887095472050514,0.025130497806298346,-0.021104379836245628,0.033002812089055075,-0.0116260331948183,0.03313510701270507,0.03141351006780439,0.021424734490938513,-0.013381741844658093,0.017275738082847276,0.024553838502128177,0.0005996097951951815,-0.007738134134934675,-0.02570521510049744,0.03169851815556496,-0.024245744336415923,0.0069693787595729445,0.018211051864654847,-0.03103543001324882,0.034161058702098526,-0.019609636526107744,-0.023911513741274665,0.00458070588827332,0.031755316173485384,-0.032970765278168494,-0.025551126457284648,0.0005743046797144977,-0.007499683280165974,0.00825805894951026,0.004035967265160013,0.02675852023240534,0.02860958302362286,-0.011535339786032398,-0.026254901432309824,0.011095149605815466,0.020684021971273156,-0.028542439592241467,0.021983179372379924,0.016701513023082093,0.021045674532383585,0.004493697913250924,-0.03025330250258272,-0.01114150975524935,-0.002450157157806325,0.023517806317128104,-0.008561995405057594,0.004709191205436149,0.02392749167666592,0.017783099393204944,-0.02082552433374881,0.006345214429758626,0.033957095294651046,-0.03288604494233165,-0.023659658190146163,-0.008105920407894325,0.03036739203049882,0.02714254529420024,0.034684897628397784,0.03458545462949347,0.01504118672384694,-0.000556197095891546,0.010203017865805464,0.013707669282914904,-0.023892255507392456,0.01857148460961867,0.011068809629330718,0.005938455009312622,-0.01964400563520055,0.018513475676316657,-0.009013835306089093,0.03320999869462052,-0.03323313676043385,0.03382203637799357,-0.021891296870633625,-0.03404663230999619,0.0005317599952481267,-0.031875503029805304,0.01524362175458152,-0.022764317971453507,0.031255770544344974,-0.02243685369964045,-0.007009936117139515,-0.01550207797670487,0.026745378034573837,-0.015903456800114242,-0.028392835423095703,0.005919976237454251,-0.027011378452560814,0.022019163077165768,-0.011863510916329392,-0.03397108822011393,0.03498442760009687,-0.024239273126989543,-0.02892563871996031,-0.012344523137661245,0.0250538421385463,0.004436536734601711,0.022876069506599483,-0.031464952611968515,-0.03269761358027309,-0.02388795954044292,-0.009811112398421027,0.032433489704713436,0.03526716767567237,-0.02666493475044735,-0.03101853975835784,0.022110122280378623,-0.0054128754491040085,0.024691416797750408,-0.03563704139282036,-0.032694542081958954,0.01581134107422571,0.01642118149309487,-0.008686257967708801,-0.011702045245693595,-0.0307118638090638,-0.018400554554079008,0.03269068710689753,0.0027471570922719263,0.0354385751215546,0.024396926599449725,0.03380244419108047,0.0004798795035068845,-0.002158783269449835,-0.008931059775120147,-0.016645556632186,0.001071251994063646,0.00010568696183110848,-0.010489850944268351,-0.018783066590555984,0.03006663441154843,0.002884544500927108,0.019520843051085306,0.0342676867590961,0.029891172946635833,-0.031115259169681164,0.02170649884300145,-0.029506600169587567,-0.01801222220234514,0.00812494675227561,0.018539799090999107,-0.01390988916564655,0.025129882927691548,-0.010024645563470573,-0.017706670343465736,0.005469025001109969,-0.016574508200322007,0.01327213065495779,-0.02506558164960415,-0.025393090538955776,0.01399004028944853,0.011441511573033462,-0.02204325873772349,-0.025860266371220325,-0.022710682580268423,0.007437722913186194,-0.018335173165664843,0.02217608282720914,0.007125255496269758,-0.019130779337351727,0.003757271345760302,-0.00951707200992134,-0.009981806880677069,0.024450020320304883,0.004966638232070428,0.012101617168675846,0.033047216487402956,0.002479163363717639,-0.018432688772924793,-0.0015272834775185914,-0.022926019626951937,-0.00019765452549490303,-0.025715463261647656,0.001366688825459192,0.014684027958825311,0.029434744508828214,0.019923087309001417,0.004085437191431521,-0.03495597294191624,0.0319171804438374,0.033940432181338034,0.035295510304820005,-0.03205114393676741,0.008292874391265852,-0.0008427655342304746,0.009440246003181413,0.032952357353433756,0.011392711862335196,-0.0011048649607292918,0.003427203348096146,-0.034364801550086366,-0.009333280980053274,0.029805619822661708,-0.0002413083073523961,-0.012443895658032118,0.02105244371777229,0.005598241012934477,0.006206446287645072,0.02907598889659918,0.02530031836363858,-0.029975336984055585,-0.031791511743298737,0.009953450810681675,-0.035145760641086904,-0.007540134110601251,-0.0293946021213507,0.003607529919676798,-0.002076942759701481,-0.003745054723295782,-0.020082749088663983,-0.03260076029189412,-0.013591247748490487,-0.03456789426127005,-0.023441579574205212,0.025051817985339953,0.007182329657873736,0.014613538551989894,-0.028888047650767894,0.032244750798890526,-0.02275553726649783,-0.029559827127573844,0.004037194815891744,-0.02226744957343612,-0.01779406595708247,-0.0016791237598465306,0.027235955315977264,0.03490884818380484,-0.009580038706104022,0.010886791230331552,0.030880692025362685,0.004913592854452288,0.02594054365334571,0.005668006255236592,0.005679863293328591,-0.003862850256865946,-0.015846152714160202,0.021554970761338263,-0.03005630090474314,0.006944492627544721,0.0041307963506248685,-0.0074420854327945166,0.03229617832079784,-0.033704811948453366,-0.03074821717906928,0.018983007371790626,0.003495269581042612,-0.030832466910051908,0.03440005959454984,-0.01863911355649076,-0.02489503831888381,0.02595546516462857,0.02048891219272589,-0.011622438544761606,-0.0107126945733684,0.026198079017247272,-0.018656869499764302,-0.027044729455906615,0.014532416535635084,-0.01448255513686574,0.005410503913586426,-0.019485250159339947,0.022362078374460755,-0.02972195883875396,-0.0289392692506798,0.003612065887060263,-0.02644897692404616,0.01587874078451569,-0.025198647512002577,-0.014342369640004808,0.004252712804369278,-0.032849421004759564,-0.02613287339697312,-0.023736667003951367,0.01093510381141987,-0.0008661197111105648,-0.0038564523181776472,0.024821235519073177,0.004935799901870638,0.004204457897111623,-0.023734645650860507,0.013591826507268708,-0.010750356091365524,-0.03451692858952412,0.01802771530343524,-0.013843811561073012,-0.004358563913650762,0.03388385162872655,0.02598607700304692,0.023283361995961063,-0.008516824819321873,0.012690925494320986,0.005201363625469524,-0.03496945840712687,-0.004011957318090738,-0.03273911733750239,0.0042706152274658085,-0.03464076436954533,0.034672862916345956,0.008754846553051795,0.019095882576333864,0.021339749735033706,-0.0023922548029400165,-0.02944210251627601,0.006496584432776675,-0.006824380812285216,0.035367320865892046,0.024920725911295412,0.0007912863187705191,-0.03187637712105908,-0.0009212462753200382,0.002021227227869425,-0.02667184554014298,-0.007331060286489204,-0.006018200291858955,-0.03239129383293434,-0.01916959640865076,-0.0064348736146630885,0.002549902114840928,-0.02205270750893879,0.0010659209231222364,0.009981629123468144,0.014183668747573009,-0.015288974603030532,-0.009104798038169642,-0.00895258669634905,0.017457756544679577,-0.010330884001844357,0.00999179647364859,0.02160445168034881,0.011009979159431547,-0.012430520530784053,0.02073127372490697,0.0006559322255789146,0.026273225036675774,-0.014610293504620842,0.02373562737675908,0.020256455474498974,-0.033605405866259846,-0.012269732844271766,-0.004549223757171213,-0.030317230139296197,0.0011780643131115778,-0.010242564056757148,-0.028095040783234247,-0.013878314254403348,-0.009998423584108044,-0.03380129749387252,0.0014365570426611155,-0.016096639589988953,-0.033466180271810454,-0.02272561840332202,0.01338589610008889,-0.030163910095084852,0.015505003805968911,0.028840302250522615,-0.02754206140845404,0.011654203466632549,0.01905790148719149,0.0257072931683444,-0.02510814078983292,0.023436209642147397,-0.03448224714609078,-0.02320193958706323,0.011086799959422204,-0.025598432926405117,-0.006299495815113323,-0.022061435766552503,0.02584449552488556,-0.031166509488683426,0.016239827456236977,0.03119549558982164,-0.03432175726208353,0.02369852005995486,0.012390249136514542,0.03412616387981775,-0.01186028287908612,-0.02128897453430835,-0.018227426898241684,-0.025860027439815636,0.012051441411986871,-0.02001866443890172,0.02794407121461709,-0.024418476076487172,0.01490423090462624,0.027533823585220385,-0.01484038271307042,-0.003701411123984033,0.0005245757147461783,0.0005504225772637872,-0.00267154949313074,0.03513419339064422,-0.035496359900033414,0.018223604766502408,0.02264914002570728,0.024870083088293304,0.015392484626402414,0.004219244559394424,-0.02607974777831828,0.005475743626790167,-0.02320647837519601,-0.020601159416578647,-0.033781377333819314,0.022591461565170015,-0.02482991543914037,-0.031171940209217396,0.009850745747297128,-0.029519964983119117,0.010145733976252652,0.0002108871502966153,-0.014154586837750456,-0.033483114036717936,0.016757206404865187,-0.02332038418879664,0.03371942217145356,0.025445557364206173,0.027561728679125905,0.010754460410612912,0.02346441346229368,-0.01836183223353852,0.034790223593447675,0.0030917858674819956,-0.03391141144043216,0.02388476250310123,-0.017607582270240965,-0.02729983125036769,-0.01609588199357719,0.030170674585892204,0.011870061624963945,-0.010545430639264164,0.03176032657962016,0.02889817763903603,0.018386624301712624,-0.03376576510332701,0.005589487531373893,0.007361490967936889,-0.013644736573521356,-0.026252367364458223,0.03271904999994696,-0.0070142325323588085,0.03371633763996121,0.03468247956204107,-0.015629733042428175,-0.009204608338844636,-0.028157952079430375,0.025256883943647335,-0.00440095160132227,0.008360585144171581,0.03084060018069315,0.011275459384504785,-0.012089255548660386,-0.003457558461902428,0.020799001785808763,0.011481511686363605,0.03198135009926319,0.006311333435227931,0.022414280163779995,0.013721334480816234,-0.005574974500508551,0.012121127411312528,0.018737909527231165,-0.015863679036368945,0.033944667557824756,-0.03505731022181923,-0.015630687901269234,0.01613920593051079,-0.009731279938671795,0.023127593170673064,-0.00653205014331732,-0.02364668313576557,-0.03307806776773763,-0.011527066793941136,0.012919649517946576,0.008714020202251505,0.030694010083026836,0.008167068561177342,-0.002792332280492044,0.014635973461140041,0.01066202754262052,0.00451694535791705,-0.02630989884925149,0.004714531030375608,0.019594998536932168,0.006866415374142785,0.013864057833910245,-0.0309915836751706,-0.018876719074982597,0.007514329657533023,-0.018568172651175625,-0.03367097091412433,-0.009189464035016082,-0.03507949885440307,0.03259196692284195,0.026295661199858808,-0.025417333649807333,0.03323754871548394,-0.026038481600524292,0.01600665802769894,-0.034904307988549634,-0.029402176595342156,-0.013501645936412001,-0.030193732500396038,-0.023676690239040257,-0.012423943636619151,-0.03331389107796804,0.013406101903117824,0.021406829188205318,0.02328913995646439,-0.0128215167163267,-0.010507176530730132,0.031814555348964366,-0.034968830347272314,-0.03448810305773111,0.02699832473429024,-0.022442031771860983,0.005773716770187519,-0.001622373194561976,-0.000044216776682106485,-0.016692508487812657,0.0008085347722932256,-0.03792632449179142,0.001606071974586279,0.036296344777880615,-0.01196316645948241,0.025642056029561093,-0.020827022371749052,-0.005390319346644421,-0.02854283468879958,-0.005713279053718925,0.025542985505643517,-0.02769571028795598,-0.01881056730155043,0.010962236386705255,-0.020288663751194546,-0.032942632406072564,-0.014910370361434045,-0.019697114956949337,0.004129034393389351,0.027303707519367598,0.002693315900963636,-0.027566122169167668,-0.018021548414969637,-0.02838488666078211,-0.018378663521353197,-0.018219304895354744,0.001880465298811289,0.01598523261245852,-0.0022159824253546847,0.026770579631372044,-0.005758175967182933,-0.002114318779582581,0.03266056437580406,0.03374810938247061,-0.009168518198028832,-0.007337684862265284,-0.03477193517624209,-0.008992733124226084,-0.025853083919771057,0.0033619367785334997,-0.031652363109805376,0.02869246744406632,-0.016521742844843527,-0.011341491386286396,0.03465940266571114,-0.010267550020885153,-0.022050078782465673,0.005137045524969886,-0.020061196387812886,0.019323793011591435,0.03372529934904507,-0.027158689013891082,0.009205047950888714,0.020579475666344212,-0.036596097989694626,-0.014986386794358892,-0.008957387378531778,-0.026658970414486866,0.0024553899673774794,0.019334899304330338,-0.017033571639259056,-0.0028203269910036135,-0.01882025478179835,0.016030505018893592,0.01968470616895554,0.027349772356613945,-0.026823695539733548,0.011586725094383611,0.015786483029047876,-0.02713382889611366,0.0021930936679948067,-0.008427102106661005,-0.024569280773984466,0.014777503655319022,0.015076288581802788,0.006628838736300086,-0.0035097535590563355,0.02097615435209438,0.03439882725213264,0.018302751324610206,-0.012544093923652563,0.008930439299907495,-0.03453280482170051,0.025817113892071343,0.029523202749621596,0.0012102943832822178,-0.003282729926701746,0.03349771432858598,-0.021880110657636506,0.01041091271811652,0.017058467906559693,-0.03184714373147416,0.029201913715556967,-0.03106955735017438,-0.02486044568230464,-0.03059495721871544,-0.014209473504818026,0.020185703157600317,0.008187573099532454,0.018362249384989808,0.0004265978275505345,-0.004896952421694702,0.031370750627153936,-0.0054687147362643285,-0.027382855760529116,0.03824340389880349,-0.013154418331704913,-0.013244012108484308,0.030719952648853625,-0.012993608940505896,-0.03112328926565463,0.021686187664892536,0.025168212160966815,-0.016897093554189266,0.012544668085807544,-0.004269016144828077,-0.019511423729398618,0.023977963998637167,0.01665666686356679,0.015327551737927663,-0.025917873366817695,-0.0038515515094646583,0.034328883952927915,-0.008122092049352906,0.027703245184137457,-0.0010775345559585249,0.02836195566632309,0.005748241939306975,-0.019293579662873973,0.02129855813408265,-0.03351470582098489,0.0018888610646843524,0.02810086366651018,0.03601705245762915,-0.023924960666544818,0.022497597909853798,0.030067378495681193,0.017646552904034735,-0.017175156762867325,0.031311637286227455,0.015269498800900635,0.006152369253091494,0.021614869058917813,-0.021687671115808254,-0.02159396139380012,-0.023354483875763325,-0.00041995537531474777,-0.031214143294563693,-0.016520212534128786,-0.028231425772553196,-0.018725602238310136,-0.001112672041830653,0.03647508995583263,0.03045880812955001,0.01720509975586133,-0.024225693977399113,0.033886321515960376,-0.005090916195616728,-0.01881044486033937,-0.026282896472490692,0.002526052795973565,0.015671802292668662,0.03302879047433332,-0.014704423450576992,0.008581282099244431,0.03379972849737192,0.03383384996273239,0.028210189105702787,0.03049620871565346,0.005384335919243844,0.025613331808395274,-0.031187109652571134,0.02040548996301722,-0.029950197767011803,0.029521276829728122,-0.006372822092213615,0.04020136082462216,-0.034255501764245834,0.0015757104416670095,-0.041878778928385506,-0.005520522980523709,-0.01205847328691514,0.024710898578512153,-0.026591440779845186,0.01866847286432223,0.03944196008982565,-0.010750562895393197,-0.033641434070954955,0.016690926906106247,-0.016677683613430284,-0.041278531863489,-0.0027191665263016627,0.039137894529597476,-0.008270843880580817,-0.03630657802725449,0.013733512417216215,-0.024661334790960155,0.021279996997103815,-0.021808095062680402,-0.007220997190402237,0.02022595435117299,-0.01888787368442465,-0.01940777740426172,0.02810805066430852,-0.019097397083593898,-0.03485654792075842,0.024606463779768595,-0.012871809649204775,0.020340303898545437,-0.03367078608273169,0.0331638303233176,-0.02861928549597191,0.0014002699966512685,0.02829057750612523,-0.005621039705606198,0.005411654820306586,-0.026376388978686795,-0.017172290477623284,-0.029080688517376555,-0.006786674910928535,-0.01230405016383193,-0.009771982756266366,0.01659748470385142,0.008608824697294657,-0.01982436639795002,0.017352289403472748,-0.015659267977294576,0.016392300771945492,-0.0029081733652294014,-0.024207065396133,-0.032104197873162515,-0.013019168997668844,-0.011566814092238042,0.01132223523177013,-0.010254464434584365,-0.0053199713572797775,0.0064766538227556715,0.03586568655290842,-0.027242823536529008,0.02135993898258199,-0.020934711318046365,0.027405718588847355,0.0039029857560081336,-0.0181732456231736,-0.011756153365329699,0.008093164440760376,-0.026106112589967576,-0.01931484103683657,-0.01447579654349002,0.029809253345932582,-0.028888600540173604,0.03374467530598408,0.037522199386432406,-0.004293463460779207,0.03423486088229219,0.021877980028997896,0.03349107532271669,0.00578991209077979,-0.002773462820003041,0.021764290327295717,0.011772349138248582,-0.02974551907727294,-0.02982028405677115,-0.0021711163357926357,0.019680358694175826,-0.018981067189085488,-0.019724243389968067,-0.018212294008619196,-0.027520138352715055,0.027499812292536605,0.016563791504227755,-0.007806921805270313,0.002717083823027068,0.033814222559269184,-0.0025387881526618174,0.012491711734768993,-0.028254278306595836,0.03133934356661897,-0.007336780543053133,-0.022334985002848227,-0.008967527134506907,-0.03227006110341348,-0.008973216856344361,0.014659007032009827,0.008571202827372467,-0.024085580613112376,0.02722162722397719,0.035280277507900124,0.0036500276033893573,-0.027834672832221925,0.026078376500750764,0.024906338477621373,0.006269482521479693,0.011851899001715653,0.004755262432835843,-0.02101999938946823,0.03650569851586031,-0.0038016082320994397,0.03588238690732777,-0.0035274055755665974,0.030227614426038347,-0.025643998983161147,-0.0067351958134016215,0.0012202288846537358,0.0380387310073207,0.019994630847949973,-0.009101526655019789,-0.006093451100316453,0.020098875055458126,0.006501113836748108,0.011533361613745675,-0.020807477593983464,0.019470259120968343,-0.02564150738548715,-0.016230492048234547,-0.02183170364606818,-0.0004919601170914851,0.041552094671759694,-0.023874460344153296,0.028374212711187514,-0.012231526006000002,0.010659828771763798,0.01992911802881116,0.026106318081959016,0.019002918835348125,0.03165826241924004,-0.015436326449113066,-0.01111528945371557,-0.0004388879285867974,-0.0027636580482814626,0.030125686456777764,-0.031242932135092924,0.02150994246805079,-0.02135850775101716,-0.02409223363811732,0.02238821152540179,0.03397517299704705,-0.017913125302977718,0.0025419603962706797,0.014781461504583272,-0.006495914734769896,-0.0025349536444560622,0.012497073120664925,-0.0038058926513369206,-0.02925600535251391,-0.016884326209471424,-0.018754131271092538,-0.00555873933563519,-0.002097548320023378,0.014045114625139668,-0.0129020115379412,-0.031788833336811914,-0.0006164929330705389,-0.008052679085504692,-0.00971372375993568,0.01067344345332386,0.029760637060113032,0.0238939206903939,-0.03261002010828422,0.00023934999595997053,0.03668067682381223,-0.032638039607930956,-0.022405954369110304,0.006000777698697531,-0.017767833340439146,0.01925220080037216,-0.02605379432284692,-0.013641307982692908,0.013282512986088374,0.026020664921713323,-0.010874242182270883,-0.03465526617193048,0.028213362536156552,-0.03498821793840863,0.020507835609933793,0.030432765568478022,-0.016997386956346984,0.029405137174884688,-0.011046552193348028,-0.01900937563632952,-0.0018645360877241304,0.032236003256474306,0.005850864017855009,0.008333447017979749,0.006993354706241906,0.024829589018195285,0.02098172763978869,0.027672271964036748,0.013440594037618141,-0.03253646224416426,0.03533003730397254,0.02764528537224052,-0.011190911321834352,-0.022212886873052257,0.029328782122573054,0.015594440194240087,0.025698696603199813,-0.013246131906350284,0.0241398373218835,-0.0015062770213568374,0.014310536848897116,-0.022764755428452573,0.026131377863709723,0.02350970503992407,-0.008774686314376357,-0.005067467898737411,-0.01703812740024861,-0.015290301100889827,-0.027460653048693807,0.0037611474989096196,-0.015178973936331646,-0.008857002211383228,-0.035276286471518745,-0.01746113081431557,0.02443475673071204,-0.007818132513342865,-0.03099935794068002,-0.02429438433873547,-0.024837071121747184,-0.021485894104794553,0.002889607856868795,0.03128621282183883,4.00373429768601e-6,-0.010023147239942071,0.017311242023194756,-0.015404134413760264,0.02825470933615676,0.026818885852535973,0.02551146203210001,-0.01596366962691116,0.027887867447709457,-0.013133735259347341,-0.016283480815413507,0.010110395649799446,-0.01608166956029465,0.03444416344910204,0.018018841590893814,0.011128001678098003,0.02466088757595229,0.03309687522242633,0.009704198406373243,0.01718794068100215,-0.002543564287951137,-0.03485637964805819,-0.00981968978569731,-0.0008116372150541697,0.037313749508262294,0.006519633970464422,-0.004065254833147574,0.025090443983434203,0.022822942568327287,-0.03185795646253327,0.007208736723494014,0.007713223324340035,0.018462081534335584,-0.02303107868861254,0.011390947082951082,-0.01975865056925853,0.016383602227900383,-0.02199567808236293,-0.03830406236963891,0.03143140189093659,-0.020896889431554183,0.001922002473782128,-0.0025793482767743864,0.025077073746862452,-0.026297359990797468,0.01973579303652563,0.028011369879188834,0.023229945640249758,-0.028536817664180675,0.008422023625284774,-0.03317384554406918,-0.025892261242368413,-0.019033153238889378,0.007438880511337983,0.001203718001859588,0.01580520579743023,-0.02173951777357748,0.015063277904541098,-0.023149302289929383,0.023268178732295808,0.001874269314541509,-0.005413029630899793,-0.014818200782620234,-0.02746371987119377,-0.02419317353843216,0.02053950373374652,-0.006382946685159477,-0.0026912055815683377,0.002052143029459649,0.02338383463186834,0.01361881919642483,-0.0004547940866308275,-0.01900986019355141,-0.025235755415295852,0.014372186059252725,0.00835876507268139,0.01410648718772457,0.03194504698612347,0.025380125731682815,-0.00989910692415223,-0.026280060996612186,-0.021998569581558155,-0.011244745409323645,0.02673721168083746,-0.006276549878827571,-0.009132438712889946,0.009662131558071682,-0.01975245378209173,0.010630347983104365,-0.0205563145921137,-0.019370615389065857,0.024537071343885018,0.006728196129045164,0.0345352438639374,-0.027730813933704048,-0.005724715356507886,0.015652812307074385,0.021880662504573642,-0.005930473386421378,0.035520408722599595,-0.021401435478351657,0.017585626207404465,-0.01935941821652609,0.008540188686834229,0.004982860965651832,-0.028032524894323754,-0.032663278741267954,-0.02916112907180654,0.016329240067262996,0.0029355037330213163,0.012630213591827475,-0.011832237346534696,0.008665761935936524,-0.01980839609412553,-0.01657767290756291,0.00001952988528589744,0.01812705975951312,0.007900194602010711,-0.018948405553918225,0.00014532182729685983,0.017209795038330263,-0.014145968602909318,0.017396319874170674,-0.005218694442929661,-0.025726692451119425,-0.03143550038287936,0.0251358712122408,-0.006264110318269345,-0.022575352907687384,-0.0186410536222482,-0.027843197028553472,0.007531772562162482,-0.015955254183458237,-0.0227760934964525,0.007263934799826712,0.025253209659110185,-0.030825821608027857,0.03149347105517905,-0.016704302289110063,-0.0275662919916529,0.03276865395678072,0.01075381391807094,0.016018807634903424,0.012836177682124717,0.02239344282105027,-0.0023648766533411747,0.0031750091958325025,-0.018711938623601623,-0.02883349129525116,-0.029351686901339633,0.023502580363517073,0.004270356371844253,-0.01798376116385823,-0.02301245342558043,0.01618702378281514,0.030825618895421736,-0.005932130248254057,0.016901644970486927,-0.02447229165778207,-0.03398606378420568,0.008521187162885399,-0.0030643821266772425,0.03569371282017379,0.018967619500090724,0.00801193645109699,0.035129143679437244,0.012522380160412565,-0.01171556637785371,0.020658368374584395,-0.007487541399986562,-0.028002571394624937,-0.012624563208220283,-0.0008519718672738291,0.016281546407753762,-0.0045920085893636255,-0.01136257161821484,0.02747778455788767,0.02739693015578068,0.015005888516772092,0.026546550922231252,-0.007529037122371803,0.0065012079134236025,-0.031123639124598906,0.003622243494742064,0.017410787231221164,0.019578894660684312,0.02233382417780086,-0.017557783871772266,0.02679371544408853,0.0003673289411309094,-0.033959868356435066,0.032700507315090485,-0.0030246588150602757,-0.0168469571207349,0.001903800686691777,0.031212181362715835,0.008332049951720953,-0.029338707956247392,-0.026514949090433025,-0.01030743105445429,0.0005203721891761451,0.02075745933136255,0.004341173784402096,-0.018290131211442247,0.02274433246890742,-0.0014455477003962117,0.012413718809985716,-0.02797829415814016,-0.006581383083033639,0.023598759838690003,-0.02889189572300169,0.0008242505012476947,-0.00819186371300245,0.0014415423037351036,0.027850925199048304,0.007244450007939766,0.0248934275248111,0.01420344071844791,0.03474457765649894,0.02009875405003181,-0.011491511067101792,0.028601806400267823,0.025684030919970957,-0.033794891681696186,0.014200907580641011,-0.012484043306736754,0.0017889392040578223,0.007641558364393335,0.004628072197325049,0.005030740462557248,-0.03182464889051571,0.006373317607264929,0.031022949345297604,0.024613252154447145,0.03207927011587476,-0.004816563877937767,0.0012129088541039806,0.025857732562617697,0.012658866221661631,0.031216939096711457,-0.004744456222779334,-0.002240350089230833,-0.011393147973168405,-0.00874674675088814,0.010279111024639395,0.03443470509331935,0.025892260651493415,0.016257040431585254,0.002861696326212755,0.010517807836200072,-0.01463656533115346,-0.0056566844535025675,0.026427726885052065,0.02968736572404268,-0.016470804843023355,-0.03143802749909503,0.00033530628040807225,0.015711820681961974,0.019776158231629037,-0.012079484556907168,0.006276940241683238,-0.026751755065922693,-0.0013080387152420853,-0.015503834045196237,0.01178844709782697,-0.03361765682807403,0.0028767845810597145,0.0235877535877225,0.021837704702293244,-0.00015737931007785144,0.00165337267277315,0.026698007396895505,-0.018904144982085036,0.032113786680355846,0.034051682229400276,0.012543177415309366,0.002371094407572216,0.006667118967491913,0.029742173922240184,-0.015040571505098311,-0.028064231144478136,0.026528718990637978,0.03542918866786897,0.015036611562064437,0.006876393667979097,0.03157109327680424,0.01903913920784623,0.016327122093694593,-0.014848704016078528,0.019414802210725255,0.003987155929225403,-0.01704169984693739,0.013460200202672789,0.02037658729121792,0.00009399104764303255,-0.008032554394509193,-0.03209420439228677,0.02736581991747217,-0.03354196206898796,0.023092155281072266,-0.00026990271141489534,-0.007206690008965146,-0.011346814637144813,-0.033696961354545536,0.025278929064428027,0.02128227028722838,-0.016561885257425257,0.027699886266783057,-0.013799168341652214,0.028559344433200854,-0.009557893238782237,-0.02844927125575562,-0.017453932525609426,-0.005894453398941083,0.021496530653266992,-0.01922569464877318,0.025868069770625095,0.009437400585886581,-0.01418082737716436,0.02846461756661631,-0.013759983984638815,0.019142178101991338,0.027833593990622456,-0.0076617780590350895,-0.016251669533986747,0.03244943187004477,0.01313020131647958,-0.01970256969151836,-0.023913167490487622,0.000917515741240884,0.007421675961509918,-0.02943526812190678,0.026978393849887056,-0.010274506416692633,0.029761818170927386,0.026054675375618213,-0.03033859431837034,0.007245869307166763,0.01993321085540624,-0.0026901231763442703,-0.03388719097789353,0.0071718116986330726,-0.010093346495858174,0.010112241129617798,0.003930614242689383,-0.008921708761946702,-0.02006680119939937,-0.009436569819380127,0.02524402865004595,-0.027842184360564206,-0.024641498885593742,-0.03247162274437144,-0.004220448241552031,0.00583570466569806,0.008139915117288317,0.016269596803561315,-0.005533621150501895,0.005555823995057292,0.03336398042071501,-0.019781760546708545,0.0330165502991736,-0.0007703606527636435,-0.033878510275973286,0.023810483420281824,0.0269732450024652,0.022041081724585507,-0.023650822361594874,0.031180757489384776,-0.03431409061646393,-0.0331404147135335,-0.022741305285167886,-0.009047427846088085,0.01675898838379487,-0.01009950158820546,0.009170559548965538,0.02368275639695199,0.01797203795451638,0.007768419211066893,-0.02029112510928774,-0.0039534055476899595,-0.01578833685695626,-0.007844741784003769,0.012819416072270558,0.03256337133795419,-0.01686319554650236,0.03532758411533632,-0.025166587723817097,0.022043268006585116,-0.022987710928752226,0.01396393417946373,0.02111799300436648,0.02018297684482503,0.01378713622032639,0.03331139765621917,0.034101947654050245,-0.0013250820194486714,-0.02843860559262482,-0.001510513674670171,-0.010047462695800124,0.021219956430870913,0.0015217441033091499,-0.023068273691204826,0.004208716789590739,0.02515123821446442,0.005793359309096637,0.00801145843053076,-0.0015192844942143826,0.003364922226844345,-0.021255610100522848,-0.012443070402828433,0.003515938827740488,0.031680658440530744,0.03410348399678993,0.009646457282775934,0.0292463797818509,-0.026100542761346424,0.010237158376465653,-0.01053124878443896,0.028238446821334036,0.0011528960190694349,-0.006210836922961982,0.00013449942407437786,-0.032676317345956316,0.029885119686660213,-0.025641170663227398,0.026787849581857946,0.029402447338287493,-0.02325551319947365,-0.0256221466349722,0.025344835391972315,0.035701907840718604,0.014727104940547919,-0.003907713853209686,0.027909026324518412,-0.022709222156217148,-0.02805279189909189,-0.0012086229785966268,-0.007944604238676434,-0.03463554723719724,-0.001990116626674621,-0.012998614040103447,-0.02596463656925092,0.018784823715693247,0.0007169101689539643,-0.014420351418326953,0.01883056485062167,0.028149271705626627,-0.023793210448251802,-0.004909417825638537,-0.04760812517873955,-0.0002515520851489846,0.006272688793463138,0.01778736059859654,-0.0026580665101321086,-0.0269051735492245,-0.014963979776018007,-0.026066280418615313,0.005302232153018387,-0.02661462773554481,-0.0065264081377819074,-0.024062903734788168,0.015379811052562843,-0.018257410523877554,-0.000948654542481333,0.041402461137612936,0.012397805700345845,-0.027125816712088233,-0.005640275555366645,-0.0037669298541317454,0.025108858045760882,0.0062090811235538945,-0.004548612840970785,-0.025386404540717313,0.0169992178047811,0.04639456315075736,0.016306064220252853,-0.038669645808943665,-0.004319889033807011,-0.010578439676409665,-0.031713250749564034,0.024320087239111065,-0.003924387468482745,0.012736077673071203,0.018894007813253913,-0.010526880294564061,-0.0025412941044397025,-0.041279125077295316,-0.02801924093284625,-0.021963582497732382,0.03739417250767433,-0.013927421009100915,0.028770358312058406,0.0028088087558479496,0.044779845665114504,0.015737190249602878,0.02385109400487642,-0.031440472506361304,0.013424240413810545,-0.02554860696836874,0.0011365135632370796,0.017022164643924236,0.02464250451370915,0.016640767965092174,-0.023378940074304737,0.0135041707807089,-0.009532800024209092,-0.03902757883692982,-0.05277678924438548,0.00469140462439578,-0.05529002555892609,0.02753524715641807,0.017253329533284498,-0.041483544479458914,0.0029175720570236356,-0.014590153489041606,0.021162640231851916,-0.047617250637951525,0.002001310968859023,-0.011806674529536931,0.03621955863824727,0.00941421736445597,-0.02651387842994298,-0.019727914740688763,-0.010994590214299617,-0.016869020092183537,0.03851055804729357,-0.039669294247533744,0.040148059104121114,0.01392843133061166,-0.011936331849220414,-0.01297893629648088,-0.004383590905955346,-0.015294189141336326,-0.013275902444532087,0.03401335525171311,0.003363363214905751,-0.001311805611726323,-0.04938985909190455,-0.009729708112800217,-0.04444654219131643,0.026399438932687078,-0.007422538268326467,-0.024842377371455376,0.06853916898898763,0.015964662652509946,0.003993987737296969,-0.07492416264506914,-0.018256403740108878,-0.0372065707582947,0.024606008964423748,0.011491315176707807,-0.01718455021908251,0.003774207441696964,0.05359545717994644,-0.005023747382641075,0.06635204897595488,-0.008221793413337427,-0.01459935549764246,0.029834458374214563,-0.005225529383816266,0.024090406201475106,-0.00957417029665792,-0.02047198902098159,0.024230903098005612,0.06884166009065133,-0.0022990204786954654,-0.01937560229266062,-0.04304429963070748,0.02776980261508198,-0.06259456571672567,0.03595847703000229,0.012139978874384599,-0.017039927409535503,0.01590933438177719,0.03246732011660565,0.006466567139615117,-0.0766386308229458,0.005027688057487185,-0.05645268183892903,0.002462630069974971,0.05250631778602616,0.00042889912983186656,0.0009765941119521987,0.03690998028128943,0.06301162075067832,0.03642261967763689,0.009016129728483117,0.046993843740904956,-0.00908720263115853,0.012257936431939993,-0.00008166052335170575,0.009647268428398255,-0.014894602746177779,0.006745041599134583,0.09904752258537779,-0.016417875432693435,0.019642303153649544,-0.09192068396819371,0.026767647496393324,-0.042490249346389154,0.03054829586631441,0.05368820737218178,-0.043475243705012365,0.03846488636291686,0.017666349688732406,0.043708512889073195,-0.04422919430252338,-0.041840582724438115,-0.07762234731734266,0.01105217223139917,0.05373754442294973,0.029941355265557548,0.012375434790366086,-0.0040665526328076945,0.015042965270033438,0.10225157022166677,0.008050851409185527,0.0017651449093124328,0.012652527098462882,0.019529327950154843,0.012277322926919444,0.0061507168778008325,-0.04427224615385344,-0.006864074636646851,0.10522334620640875,-0.006267728556125583,0.01758035323268677,-0.10654056395666041,0.00014524297417929722,-0.036266319444516505,0.0021137519750317763,0.03802815363966385,-0.01837681500630792,0.08625880891209098,0.007021707576632858,-0.009650123869021593,-0.09945709006190638,-0.013236068018710028,-0.0803785492742474,0.03530124896270668,0.05020824444668799,0.02252013976300476,0.03850444056824015,0.055736581701187726,0.05512814278201852,0.08157116944937742,-0.0021490310789940652,-0.005426156454912079,-0.011514731458936852,0.02935754659782973,0.02737047954625806,-0.005065589021143442,-0.03599628031934195,-0.00006098779169343632,0.08496870227570871,-0.013424771091377252,-0.008596756637016352,-0.06527026247270395,0.06251825023366443,-0.050545741590502465,-0.0020924699736019465,0.01949842675472765,0.014799033056075675,0.024065831443957648,0.02361373164255473,0.021470710876286263,-0.08384947967418115,-0.022775652936408097,-0.08113851154040777,0.0011354069971373454,0.08172870924825273,-0.0115281230644684,0.004757291274622118,0.04933163675175669,0.08225845052084728,0.052867375195967695,-0.018532541151486254,0.019392962249612032,-0.006571667319531611,0.009041768434808578,0.012378013770373321,0.012735690583967,-0.020109193482349803,-0.03279087958380864,0.09679149403098568,-0.02703836223103042,-0.005491675132137864,-0.08909354143293383,0.0031083389117185427,-0.06331183405468149,0.01786331680382375,0.05372903521570636,0.002603774772251788,0.041252005404602735,-0.005275451608913245,-0.023809004099492787,-0.030499659380675472,0.03569178823058533,-0.02750893365389246,0.008742671877758063,0.03343476316348913,0.017190764195995172,0.004585812567764206,0.02984715707695579,0.03032213679224883,0.03182559472293757,-0.023103971266597963,-0.014586116123423027,-0.02055142376364856,-0.0018141413223068982,0.020880606744112504,0.0058217153277960905,0.01201683775067892,0.027400712154916462,0.05031015697956424,-0.036869628699896365,-0.07259088890156273,-0.0879997729871832,0.036259933583953144,-0.05382117026000897,0.023335944054527782,0.029278128937569103,0.0030091197161734792,0.042368924403175676,-0.0006151817488942202,-0.0044201690639410285,-0.03465258217766702,0.010236373903098252,-0.07831989533517943,0.004134840861223619,0.025581307774633737,0.0029116730181458863,0.045282872719241536,0.04768201814803883,0.07224917748383781,0.042309863952532244,0.022196098069950917,0.012231074793563333,0.007754066886003701,0.04142664144774622,0.023264664295297662,0.04997701735074992,-0.036842224856835186,-0.00026547092481750395,0.0595640382438798,-0.038190862648600866,-0.02790768597280295,-0.047441786806779,0.06519974105385372,-0.03782286571480187,0.04638823777915661,0.031337391064182075,-0.060848419319126136,0.028083048660725526,0.040433624593393565,-0.019096588035430285,-0.03318631151352368,0.011946291306707315,-0.062323389042078875,-0.0035165516326823598,0.05170910473714192,-0.014835904422857461,0.06164904887823763,0.03748047612219546,0.07003300076491172,0.035875389174474,0.029683054277124383,0.010988879699951399,0.02081272121004641,0.024979354021319646,-0.01598756659276627,-0.004189102465916266,-0.044454661942813146,-0.055547057933616854,0.041133368423348006,0.011707926544136884,-0.07975096122686556,-0.020245580660497715,0.006487907505464033,-0.00633330371126392,0.062487727702754264,0.04842188461014857,-0.08351087514267323,0.012090419354155927,-0.023315498619687642,-0.020221798209182445,-0.04550429633937128,-0.02163059140583276,-0.06252066102585793,0.006734729389350412,0.027170480897125104,-0.01041060573775041,0.021344346835052277,0.08981604870043697,0.05117595685961688,0.05079942003564844,-0.02246674203392385,0.04448672799844268,-0.003353188613345068,0.024756444373110236,0.014085415566707669,-0.018170705693526606,-0.025684880260026844,-0.01789609053063287,0.022539268123504805,-0.025676018668261708,-0.035954320117066355,-0.03327947460825541,0.011406071242151492,0.014710748460632032,0.028108217763495903,0.0151752886678097,-0.04680126419055192,0.004795075198806076,0.042631851983680344,0.0022420251423710324,-0.023111879949459645,-0.000500263750325173,-0.03449213840465119,0.039159646707018325,0.058339325892087734,-0.017029877984712283,0.043709482361006774,0.01785301506306571,0.014974456651738492,0.05161725014401877,-0.01274596021954359,0.02178941528271935,-0.017114379481956942,0.03158652664062976,-0.0160807385690028,0.03730346002187141,-0.016584021715210402,-0.021873469129704292,0.014708365961303349,-0.019144680960607233,-0.021528615725516967,0.0037358129223993256,-0.009419313763418438,-0.013167909049452446,-0.0020432084284487647,0.01940305835503249,-0.034246675375735725,-0.005193847779744991,0.00236110279402429,0.013315518731679014,-0.03508503284526879,0.015486794255343658,-0.04242493526707388,-0.0026253223847655742,0.020164928780578663,0.03976645560518503,0.014166342597556732,0.027577445663822038,0.0031652712724828057,0.05199424186777613,0.023031070426495895,0.041614887740573855,0.0010245174442358531,0.014200681331554612,-0.007735160063835871,0.03272018259629728,-0.03570928847159329,-0.0006142218563362482,0.03317588198079482,-0.0281412929408552,-0.028193871718994973,-0.02376644403140748,0.006355200091517473,-0.025320127604249544,0.03469231167444707,0.025654395123274942,-0.03125598418344427,-0.015193593111681624,0.006640729624235959,-0.03563452218174093,-0.015766664975976265,-0.03416931635076615,-0.015904985740024385,-0.02032511555789008,0.006446379021991058,-0.02928670478319767,0.03154699842330646,-0.006100250708134012,0.04088973504802024,0.03277993169394744,0.0023268348220924556,0.033151483544740776,-0.025474898774633655,-0.007982719528910477,0.03087508611213725,-0.0027424868321104688,0.01004085482654374,-0.04107679135153951,-0.011533473095826335,-0.029981727221538638,-0.03479325849262251,-0.0337733301799231,-0.02345955359380476,0.024530721754749903,0.013142167644952206,0.030871993606524758,-0.015575010342075717,0.013723678944095298,-0.022562761066184326,0.028713685032271355,-0.011453324601103876,-0.002788526461568657,-0.02281802153709533,0.036979871272626044,0.011651748962023605,0.010222833620064467,-0.026023918575342076,-0.0008557399730386767,0.00908884591432291,0.03185952177789212,0.03449576731028117,0.04106527438412611,-0.020891842959319465,0.035330272671751616,-0.02436779077216707,-0.011105955854331702,-0.02231761500017557,0.012967709208700651,-0.026059777967030056,-0.01446098991492953,-0.02458612658621977,0.016821109454584426,-0.019682988223005984,-0.036675818519909725,0.031227059673312837,-0.018103918080222527,-0.020661191131678226,-0.011696093736135902,-0.007849084308913316,-0.017718997671988656,-0.034621807494153556,-0.00831215272320733,0.0069456763367752045,0.029860989322406186,0.027793336955721854,-0.006505365584464031,-0.002225048132373446,0.03235336698901643,-0.008031797962892,-0.002839251071647603,0.03207472768591306,-0.028414418214090676,0.030875779281822766,-0.00742111217129094,-0.01806647342418862,-0.02679981050022099,-0.02708783647539751,0.029230429436295644,-0.011567806475961567,0.023594509645588815,0.022150972614673217,0.0027423220580873307,-0.005439310039101413,0.01788147833573026,-0.03306571432704501,0.020157220267979236,-0.01632370402560714,-0.026872712872495427,-0.005173829004960152,0.009741937753599383,0.006381076295009954,-0.03218728163078975,0.031532489776249534,0.024381128930783997,0.0026775176363231993,-0.02356719701023262,0.0053199174987874345,0.0186854231449601,-0.012834552525186635,-0.013622202322491407,0.01317702687840414,0.027044832301104414,0.022256845337077096,0.007035903524902785,0.0086619327710778,-0.03208768898591154,0.03432840101358011,0.02373629358704289,0.009855068188993442,-0.02219512715396185,0.03534721013172504,0.025842540125460632,0.032359227273786116,0.03109293209675912,0.01261010906906377,0.008996547548100982,0.02863272622335655,0.008699661225601521,0.02845756457590182,0.002608259589820009,0.02915469448195589,-0.025447269591116022,-0.01398600895412065,0.034089435724111786,0.000899087027716844,-0.002882032861644548,-0.003963787985622508,0.031069403980368105,-0.018726091965329855,-0.022368571882324877,0.0016445260560687836,-0.016691078578723734,0.0166853977841651,0.01614761148737271,0.010190107672105694,0.028462896762118148,0.03495171626458542,-0.02892633799699197,0.002403892784129412,-0.006792897446044006,0.0015518058839424365,0.010716778942518608,0.010726004769754905,0.004170513979241987,-0.008937227301341926,-0.029829870872439077,-0.00891508412090217,0.016807991827778555,-0.028080964006923153,-0.032971285494205436,0.031881082240766495,0.002176816049150418,0.002119067905431149,0.014048239628828224,-0.02414917732306982,-0.003580733194721554,-0.015912978750905915,0.017470863675410224,0.003355572968646955,-0.013408422162499711,0.03171507770417603,0.00117406929009483,0.0169710735301363,0.012047014765481276,-0.019369134012671152,0.0028449740456348224,-0.01775351244209955,0.023830842207690765,0.01477589885917896,-0.03399100466326994,0.016477331607869142,-0.001489823852709779,-0.0035093774251831536,0.026206598741303423,0.024249560199887936,0.026313756737198143,0.018531931880947955,0.009356726290892669,-0.022901319680731978,0.006436827302775838,0.01792627868990631,-0.006736191329554355,-0.022348064994784905,-0.02466712425933816,0.03212929720074803,-0.015936324017171155,0.024544860545922496,0.030191138477524956,0.02261385492624647,0.02184826101503244,0.020953978160081942,0.011967563801628764,-0.0028746397168399745,-0.019339064328658825,-0.0018541070674337329,-0.030146401492624184,0.00841457711530591,0.015543822810149543,0.02878404225296742,0.014950994369266134,-0.02415009266762199,-0.004978865059514122,-0.008109087313347568,0.028459212950310703,-0.0179074868034228,0.00822014903310797,0.018533334410409275,-0.008638119465886645,0.002039527990638633,-0.009470905055504455,0.02191282189975098,-0.014597247630784325,-0.02120777678715984,-0.03456099855953823,-0.030695065304414237,-0.018728293944868205,0.003985402373080725,0.021767503388089575,-0.03162249180402242,-0.006323787474728185,0.016120192851162,-0.002930271503714117,0.0006639864448723248,0.02308208896946668,-0.03428262294574083,0.018608155774122767,-0.028540679237462965,0.02971543551868147,-0.014326682984273958,-0.024169934842429637,-0.02574137091517354,-0.0281980489383437,-0.02440930849938973,-0.024772993732511087,0.026025394068864012,-0.0038443702440844746,0.018654325888787376,0.02740965825338332,-0.013716689798353356,0.001145172991863834,-0.0010672254890282812,-0.013152580980612432,-0.024900385155964298,0.009710778910333229,-0.0291843835425016,-0.031224964891778065,0.0053095844103281525,0.03342382228259916,-0.031186959302579927,0.016869179065536706,0.024856303546449902,-0.021353255351465768,0.03402425676721304,-0.019333011570585788,0.024791515181240908,0.023042472506473684,0.0006590274022338251,-0.014411763819096559,-0.026772322897672608,0.035369972776881205,0.009995294702195963,0.031830813090247205,0.025216452398777442,-0.034656006051195495,-0.011370007084537075,-0.005325092597876731,0.0350715759569999,0.009406630674634877,0.0063670292821663655,0.008130797600798403,0.027243857892563266,0.019902670265441482,-0.027226648968353907,-0.019313551712606954,-0.025948184797739905,0.023330000274647485,0.0209577382414387,-0.021877521555496666,0.0006278301499060384,-0.019412483538556666,0.02868272058290986,0.0006832859110298463,0.0035014291223449926,-0.015017239028981012,0.009205033947673627,-0.0016617113662464249,-0.025939260285050603,-0.020943848624357553,-0.02142918342971672,-0.014241165114811766,0.034339301642883506,0.027927830135237277,-0.006718745282706514,0.03303902786943376,0.03012626426154477,-0.02354415616839297,-0.000374591429220777,0.02388685149488556,-0.030469952090840087,-0.011286830446785167,0.03402999940152397,0.009004488457954747,0.0157164329435445,-0.03347600680389643,0.019079084998609868,-0.015507194362107563,-0.014923401474871645,0.014622414084727461,0.02001067833503755,0.024555411446680053,-0.031659256110208644,-0.006752378687547779,0.007040528893501496,0.007336972269840402,0.013833099134793657,0.008991221318936971,-0.00013337675808094062,-0.008729238170520215,0.03261330761588636,0.017226718207034836,0.03350453231329589,-0.02127015949731563,-0.03213021390416553,-0.006026633058939018,-0.03073869059588762,-0.004982417432755087,0.03413499837590074,-0.02774299948790203,0.02393812861291085,0.030413025395256588,-0.008441836237864594,0.026238041890414395,-0.0029413352577394294,0.019242253677102385,-0.029904956377460528,-0.0096375498593291,0.015558585834155841,0.008295417740166731,-0.014868210827996636,0.017679761393603614,-0.0070349088645584885,-0.023915580386022133,-0.024533857350967952,-0.01598492119656819,0.004509359140982554,-0.004121188570056939,-0.014548235204484613,-0.008724865745492026,0.02262988267639952,-0.012438955359052675,-0.004135150941628976,-0.02496585061152743,0.008120977693157172,0.009014646856870739,-0.024692174795561173,0.01791005063595773,0.0038405379476767667,-0.028882679768422324,-0.006668220737992409,0.0098493534505776,-0.011982156990810426,0.009744124623443113,0.02802205771669278,-0.0013058869943426091,-0.007754979957153903,0.025488368484798893,0.029558777425684097,-0.025506116380144023,-0.028515901311629045,0.002058112997392714,0.017802197542239613,-0.02744191203579959,-0.008840900358101929,-0.0027938907639649285,0.011920062126490601,-0.016290786027031535,0.02116627886690723,0.009720938393705584,0.031106895949010924,0.019239865189155082,-0.02457691366872371,0.023899710123121087,0.027989296102282398,0.008418164096821435,-0.021690271986676623,0.009093704366460204,0.012581332851712597,0.0044409836262172386,0.03599709088956106,-0.032924121474279505,0.012568509430590851,-0.011584084172233677,0.010343706303844225,-0.02699532001484159,-0.014804623935807632,-0.033592004627553254,0.030332668892473692,-0.0061887037170775825,0.01806079810406253,-0.01657938106266579,0.0030942713432491843,0.007663957869790376,0.01295980649086179,0.014949759990090029,0.0410062187649771,0.007706085568934972,0.0210624706905407,0.039041687071373274,0.024976952747411168,-0.013695832681800482,0.02825217227156463,0.00866921608578644,0.012787995308954804,-0.0450378600317706,-0.009745910322441523,0.003185349201846264,-0.04125399460896116,0.016682975462570294,0.001609363007799894,0.0047730526681474825,0.0029643784731352954,0.0032167070987269702,-0.024538816321345067,-0.009907037800750283,-0.019200942184108505,0.03268692735378874,0.02969444991810006,0.009709681922241026,-0.010744384422860517,0.004984341101482679,0.029914622104542193,-0.03144839075349243,-0.004979240717959521,-0.027543931254080646,-0.019940423764216376,0.032675976410180003,-0.05054529676354423,0.02632629698565445,0.036486445984363014,0.01384454595633388,0.02168081790616707,-0.061250502988190854,-0.029747789588061173,-0.03588676135787675,0.001067291824169627,0.018246974289510474,0.009524382498537544,0.06721782894391577,-0.020039818577022056,0.020107423629012456,-0.04785525006066898,-0.013190413854804595,-0.050622951275555904,0.037493221262312165,0.014462862247924835,0.008171685729363993,-0.017639022679724975,0.011518400663659735,0.004733114077168721,0.06891708277946942,-0.017925303690622903,0.0025770926160694893,0.028684924433335254,-0.0425700670469359,0.04067756430102857,-0.03565267046579113,-0.020397504525558035,0.07121070169016104,0.08499554442374985,-0.05518680579498386,0.045598226238585435,-0.025511254522817082,0.019545527121220138,-0.04358133646021261,-0.038446816249324355,0.07844250722542499,0.048297762466566335,0.07233695260145774,0.030569265007701674,0.03243549623863107,-0.05066499297285416,-0.0423143891837279,-0.041505971693622856,0.02085621931466879,-0.036647216434575816,0.032629219626258546,0.04409448183742381,0.019001956685301875,0.026930044126381288,0.02253937095457985,-0.005639163581944445,0.017577091915375435,0.03476577300411012,-0.05202050037830059,0.04662192402957943,0.0003062598395443173,-0.06633259796598999,0.09503636311950883,0.10554318338775934,-0.019898078777088747,0.033069164423953065,-0.027895164690523243,-0.025668131242195552,-0.034304819416980284,-0.06599348129098531,0.03807320624418092,0.009397524269078887,0.09913996421695574,0.03814387264764083,0.04824332777491004,-0.10139040321448611,-0.017558514000119655,-0.10342971302127156,0.03683842051610847,-0.014135101508648475,0.011848039127451183,0.0340160763770125,0.009993628319047671,0.07111597478051955,0.10445696432232547,-0.038567654566130496,0.0017808657072695543,0.0005913487055167299,-0.01246332898198994,0.08049031086653839,-0.023755394613950275,-0.05500824190721163,0.08624500542365197,0.14549967049900922,-0.025420012904195984,0.08160609757650761,-0.08447601569805026,0.020683030234249864,-0.006261808960973814,-0.062099136896968526,0.03346095813497425,0.07675788036805814,0.06407306320780415,0.05582512763949842,0.05272552505716897,-0.1605224304875447,-0.038918280003828305,-0.09587091503867518,0.06043817454821892,-0.059855915140660035,0.049002022236789296,0.02042914422109164,0.006409957512492826,0.0816152465936846,0.11969157699371884,-0.07969046781402431,-0.007401964621386418,0.03923843966881541,0.004722197099413601,0.08389457261962611,-0.047585925948349414,-0.06782444019234385,0.0642813240222336,0.19600668862158388,0.008776206897697472,0.09123090207608527,-0.08695193557370212,-0.019085324400975403,-0.008724375546022066,-0.12205840114095369,0.07389732214405273,0.07453774264393292,0.10156761933910236,0.04661378152020216,0.07138802956140908,-0.2098145764611734,-0.08825208125908153,-0.04583824666760713,0.04103766540680523,-0.05145424144401941,0.0831465421419579,0.023051473749284623,-0.01373172032176196,0.08879015200410577,0.15194839016973183,-0.04617341614093686,0.003503481115762043,0.02023723723611611,0.05357119036848549,0.023342113070907226,-0.1034213973459651,-0.06049561110949208,0.12452609995762992,0.19763276575168082,-0.013060841376688247,0.08765454844667954,-0.14253693278835378,0.030590741536285097,-0.038536309963605776,-0.05479139632616013,0.11135222586548267,0.14281011057529158,0.18041488662585337,0.013351292478902545,0.10776623941126712,-0.2368762934144874,-0.12023946811559362,-0.11296737835612998,0.09967913210676772,0.014458620813639574,0.06091688635043744,0.019627358861080708,0.02606462225794104,0.1060205617805437,0.1634243080910502,-0.06318698356073497,-0.004040354539643132,-0.016405493826870572,0.04958780063582938,0.04065188550076895,-0.06759181733010501,-0.01577541093255577,0.0782419619412387,0.23363036657274242,-0.012429209211089151,0.052787300005696716,-0.11763794962557388,0.07785482153535925,-0.055538579893824144,-0.03253112062512283,0.08187848698778885,0.07284721140370788,0.18140745116189702,0.05321492033010668,0.05213907845397306,-0.2174201860319416,-0.08364954175437768,-0.04804828410323969,0.11945192005283596,0.03830485091157543,0.04854346914912255,0.1018851793437861,0.0014013846476082401,0.149670897696047,0.16032731836204253,-0.029697209949117655,0.06275653768136562,0.03055103311437734,0.11197030632121191,0.04151847631205101,-0.032373240207107454,-0.037078675080049084,0.0685366795040619,0.20510669507472556,0.024204327908920412,-0.027321771344674988,-0.12690003251722326,0.05016422688631803,-0.07140710731598025,0.04382022132522255,0.07206973706092426,0.027470821148945456,0.12034199589756646,0.03718744285286099,0.045114468183639525,-0.1781673819094388,-0.08890613471711212,-0.066067168720122,0.062271069162409036,0.02693934920980601,0.06776214527574215,0.08351073864171488,0.01749063843560479,0.12407446290987732,0.11755175762855585,0.00036726478899778314,0.0674833381884516,0.03530159731092,0.09025226900802955,0.02739555944059146,-0.03771475457633282,0.013642970986703902,0.0490671709242563,0.1407081520731244,-0.06925078946201807,-0.0038191790011319247,-0.14914184806050348,0.10262221789949116,-0.01772011372471141,0.025580252264994545,0.08528630106708918,0.007707486142382477,0.1153132669656225,0.047791550751761884,0.0009195972798584712,-0.18475970966574093,-0.010329994102267615,-0.04880174901945164,0.09711923714932226,0.015457795089088004,0.08218535343553011,0.09479762702707031,0.04186501400308971,0.14762878526242973,0.0873651799140233,-0.011005212531770834,0.03936413482006848,0.0023265036904073586,0.0498352864696369,0.05029546272806396,-0.007754210947255103,-0.034745245443911194,0.001368589561684884,0.16150510604958818,-0.09685326341159577,-0.09875912593135353,-0.08911127998952355,0.021295531940425824,-0.012768677139077356,0.07974810293080595,0.08601078521815538,-0.03963113132616469,0.11182946719072982,0.017060189346854927,-0.008156303486968948,-0.20351154280264933,-0.04569419086547314,-0.11447881704673417,0.10729035160173503,0.010478092736359355,0.04120304312440846,0.13332120309502435,0.03839583402260147,0.07838208850145631,0.12143518493297,-0.013640588792708694,0.04161193803153705,0.05516583126177164,0.0408843424116988,0.05538241071409284,0.000952942364624825,-0.04000466356960431,-0.03690629128672868,0.1514034532215155,-0.07048214463351596,-0.1388383423119531,-0.1565157662228361,0.03414685539021822,-0.022996807705307876,0.13184519349436066,0.04242038220201364,-0.13940980889139581,0.06897838030048352,0.030980463848468393,0.030917808972416614,-0.09708485369977402,-0.0007031366945656448,-0.08415036579188313,0.04897779202412147,0.09898897407084273,0.06196596175729212,0.12736760922997722,0.11897097063724822,0.037664626724380874,0.08826562504004068,0.012514021107977748,0.09386059366013316,0.007732893289256831,0.05778383065942969,0.0974194520788194,0.036542317785669326,-0.06870403440378181,-0.07102572150500708,0.07863237029738733,-0.04716245315752484,-0.17025135254729004,-0.14866156548544737,0.015385805028979713,-0.06322252826893661,0.17637213595231305,0.007241485938844736,-0.12998060035422582,0.036119988985241255,0.0575387851110824,-0.028495950697899283,-0.08526059797279424,0.003218513734971065,-0.0929603465628676,0.04218454357138894,0.056200224513221965,0.07139970177751803,0.1505758435107208,0.0731730492656653,0.013394409966624716,0.06767295064703546,0.03476163834592595,0.11391822846896149,-0.005384189589528528,0.02366303249434312,0.03082505272316576,0.008779427829263572,-0.026496473864798913,-0.06645618220631326,0.07581694183074626,-0.095654048009954,-0.11941380565700353,-0.062060350555542654,0.03887889797598624,-0.010781299002569309,0.15411641607605475,0.03240149754868615,-0.14652397701140338,0.07057101758989054,0.06980874872767215,-0.031153749556923866,-0.083795702428142,-0.004159983937937383,-0.10986380690713339,0.047874754456126815,0.05062335620858056,0.034791235557019295,0.08027198382363634,0.0716943449957848,-0.02210412523942125,0.07962756534647245,0.03571584957067023,0.07527805490081241,0.0017578002219604837,0.008333334021456725,0.05824989190111299,-0.0033309559691564266,-0.026630421731292455,-0.03475014670942837,0.037987329755853394,-0.019317309108153272,-0.13665577522768388,-0.03507564867024161,-0.036032829343680906,0.013100476189371659,0.062097799161344405,0.02161355255228485,-0.09370102843744829,-0.00759141375685612,0.027191510830063315,-0.012274931667197373,-0.009730031735156268,0.02769501473031435,-0.07265737766450503,0.035669367310620856,0.05580553028485608,0.02337522299352655,0.0576273966059237,0.03606759355805668,-0.03826255972183923,0.031486238078928586,0.02905129518596334,0.06250937021284073,-0.025944397658365606,0.009698841591669772,0.022093084175792223,-0.005500132261200042,-0.04663784233479298,-0.05537900673282281,0.025430210143108423,0.0052830746241811334,-0.06077470316221481,-0.0606273995019633,0.029446938130642746,-0.005096934616712805,0.05179417007153365,0.027419119886505774,-0.07665646303999721,0.024943939366406202,-0.003306659981727123,0.03038140703940747,-0.0030474708862886454,-0.009441713478651892,-0.03188140062104851,0.007211723231652253,0.04735028890449187,0.03320850734778433,0.04709648614490089,0.05810969484960274,-0.018208135527018603,0.03388393136000669,-0.01770443479812802,0.05182333058412346,0.03533316477453304,0.02320137125998373,0.032734172358475304,0.03342411495344966,-0.04075357643008379,-0.01165587451516171,0.019424469089524624,0.015982688698099143,-0.028120783760926117,-0.006797392838827038,0.03369251273701855,0.012189377631994456,0.022581006685799675,0.0026597727170232393,-0.07543948166129268,0.036973686064425866,0.023722561068053448,0.0016310364734451323,-0.02966761945245149,-0.021549195189600318,-0.03506402500990924,-0.011959708956845986,0.0064030944752331035,-0.0039881593234174315,0.00118767701994431,0.017692065929504484,0.024120878896234425,0.07048315769643008,0.010156409454317152,0.035719990561955725,0.012493871837183718,0.0013291562921121563,-0.025228326225327755,-0.021068760292723546,-0.006693291522125665,-0.02133339471685237,-0.002832221759573228,-0.0204516257527234,-0.012400643160483598,-0.010486246664979616,0.029809925351034806,-0.008582656917492935,-0.007756062617665397,-0.008690766428842091,-0.047677244435428215,-0.016517277855108058,-0.008158786442402562,-0.0047069612336958075,-0.01374189258121819,-0.031537855394235446,0.014120058477919408,0.009585027241061759,-0.002611279937964218,-0.022105238441580233,-0.025805861736899575,-0.010317466233648763,0.043521804556907275,0.05754522161359838,-0.04103589245859619,-0.0009987313695840622,-0.00945328856376677,0.026047234300129698,0.0016860378277416804,0.009175251555989578,-0.020196882928312735,-0.01988559426996169,0.004796705063173442,0.00979269977438749,-0.005473158958537891,0.008372193661494812,-0.005782183916314331,-0.01604634525512022,0.035660926466904774,-0.03294123592631785,-0.0028907239991402644,-0.027146893044962064,-0.02830015247690247,-0.012485920523012103,-0.033345262819274635,-0.019746138914809096,0.020458162235297193,0.005279751916970324,0.01556611257839632,0.014081765799820258,0.02388310844593275,0.008985733329777396,-0.03033490869241858,-0.0007818353674843865,-0.032069852858457155,0.013825132755491552,0.004089001268369152,-0.01087533551786182,-0.02481544214019052,-0.02580017327583378,-0.016654642720047252,0.020400396691729463,-0.034141319327436206,-0.03104777310826909,0.016418523299763003,0.006040972318318387,-0.02673984198835752,-0.018669291644626856,0.007124152809072518,0.005719757276611029,0.024050860178106842,0.0000703509811579259,-0.03072213754613274,-0.010383921007075981,-0.01794138491717787,-0.0016832891805462257,0.023584479684777518,-0.02809016772696231,0.030600530411945426,-0.023806397008821773,-0.011206896644506845,0.01391197811535007,0.030902559941917113,-0.033241539256041355,0.0033723009010324313,-0.019417344896426967,-0.02803512973629707,-0.02836789513625304,-0.02411133166294626,0.030764144069331464,0.009382006731797614,0.011528887531345004,0.03136491537948018,-0.03562147750578246,-0.0235356961667112,0.012390182629741677,0.03339497534276474,-0.030774167460682587,-0.007777756201642831,0.010643614237620997,0.029169392557713617,0.008205008326662613,-0.00683417081266478,0.03217218845742051,0.02460508781273934,-0.015175300250799427,0.0282122652056606,0.02425074839148088,-0.0041706180133253,-0.021813794378127565,0.020716630693789227,0.016031634313181935,-0.00267614108944901,0.023297642846795252,0.024489492874819052,-0.03318304154287123,-0.02137644830453059,-0.016309274514918416,0.026529274420790547,-0.024101649592054707,-0.034183746346168366,-0.007646278484870459,0.02129575753685759,0.03499830309244106,-0.00273829320041246,-0.01633287163424208,-0.009064015870235089,-0.029086136222958317,-0.02332140555322223,0.013655363478882064,0.022044077007671303,-0.0264898350597572,0.008355806495096325,0.030739096021609125,0.006020377084268294,0.020030359212582907,-0.008204096240400909,-0.0016386481757848514,0.03509531802535536,0.032791950409672976,0.024388591426484627,-0.020732528877479416,-0.03009295975098647,0.014032262114871422,0.026111827512648893,-0.023942265839682127,0.0037142964860096776,-0.030252260356734714,-0.018409024913985283,0.024835692323513583,-0.008179702817793452,-0.014198460400689382,0.010007646269181419,0.030511069589078874,-0.03231414596635615,-0.027233038217634613,0.03245251087421147,-0.022899088340282762,0.014530047286358974,-0.0032353862514351707,0.02114367517474471,0.01609428153788204,0.0013261973438612796,-0.02668921535814307,-0.02042806488648167,0.01816726199831702,-0.02211137246104202,-0.013501576557626075,0.03400412171437074,-0.015683114283577937,-0.021763019473560904,0.01199373825288137,-0.019274210002930607,0.00446592847876825,0.0238658008691752,0.010575633687255125,0.02225916983511354,0.02870259110652434,-0.032905510329616,0.021883159025043158,-0.008829674826436078,-0.02462378659786513,-0.0070088777857859495,0.008977131892083805,-0.018319849360004928,0.013340154012532156,-0.028358921503293232,-0.008214004856687874,0.0030048342994046123,0.014709046153982646,0.023710015050330862,-0.013795246630491524,-0.030652264342077757,0.027760438134771956,0.032444558110512944,0.01960230529946399,0.023781720010718467,0.02466874590317499,-0.008430871999379384,-0.03297468022587801,-0.026569991253469954,-0.004645248490292612,0.0034461918521235405,0.033134897836175466,-0.00010357999860506782,-0.028018672275598143,-0.02240210818112415,0.03512245727289459,0.03409500545341647,0.015371951461109385,0.023566165167698636,0.005397398157816343,0.009512526237633902,-0.01856972630937518,-0.016772908077680875,-0.03174970393363143,-0.029003580790791926,0.003746828440716804,0.0015121255407562215,-0.034735604006413276,0.0026565328013730366,0.007785015003890909,-0.030908917850864418,-0.02830687635590749,-0.007776207664502633,0.02720114180487874,-0.029262104239784016,0.004808420568649894,0.024624956221150844,-0.018529572434504583,0.006922175000513933,-0.02293281320762645,0.03393412351383343,0.02306944968883947,-0.02961063232843529,0.01730823949285637,0.02900577282841249,-0.013671668467366185,-0.02911821823338944,-0.010869902573139625,-0.030717835459679866,0.025505921383359307,0.03738067880523915,0.03784182384943892,-0.03617441005720332,-0.0031275733750869756,-0.029032859010260554,-0.01882817207220342,0.023978669000641748,0.017461189250851095,0.031496052770535195,-0.02558452681137873,0.012316831187534317,-0.002752624933772859,-0.032576414073706934,-0.021415783470100026,-0.036048924113099436,0.005133037105732978,-0.03746867255439263,0.00979045328306902,0.03007779378195111,0.014560164051170298,-0.0071235092928388,0.010369024674883046,-0.029846609706092545,-0.021477577338180592,0.03505194491570255,0.02363218830827822,0.03179472027654602,-0.02155028140030597,0.01683592298617321,-0.0015882384106730575,0.050854804078181264,0.00632982808009694,-0.011301029495320209,0.016335879944605825,0.0017042054616720212,-0.0012420326907846184,-0.0008578414720791741,-0.02548904295219495,-0.029419176141818913,-0.0016879643268271857,0.03723561972844632,0.001796732730465478,-0.008311116526313618,0.004188965371069541,-0.018731998369003397,-0.011634688341377564,0.017505351807892724,0.005803107199034913,0.025603464398874162,-0.010058052780051834,-0.012504176830119052,-0.03686890802215696,0.04317503391246438,0.0017197998485547336,-0.0053694249771211655,0.02677156964964853,0.023419109105800383,-0.059200897937892176,0.017813605073866447,0.03727248376182735,0.04528156584288507,-0.038335465029751936,-0.02329580080849784,0.025699845505213276,-0.010326660816302562,0.01963475960462107,0.01282530407059735,0.022992272227608697,0.03443863659371062,0.029684849166652583,0.001868897427140448,0.03365305596244411,0.007229736323345509,-0.07085737318628288,0.017705271070618207,-0.00168815245692063,-0.0012588469230949207,0.026772490501622444,0.031140449526673022,0.010926953707349564,-0.00115328340712946,0.013869493304753414,0.017194614697581396,0.012503034096479593,-0.016718528818487725,-0.018102065851546462,0.007010048586863701,-0.09124981240160303,-0.04664883627862789,0.042331960610909235,0.08556179840442689,0.008390586072395427,0.009908699579817841,0.008241447359959303,0.009072410964417011,0.04959849385803458,-0.026589403031276302,0.02512393783278553,-0.002016647213445191,-0.014537307229232178,0.054417118925870735,-0.00875378468177918,-0.03854685114650609,-0.03047730687500572,0.019787779475059445,0.025647191047398175,-0.04858517321551805,0.02658952218275908,0.03947227212885276,0.01091285446905607,0.053523326501584624,0.01861065840299216,-0.0015729351978934,0.014399506949252997,0.021073479247121225,-0.04740259135786332,0.049082973284889184,-0.06284821765963089,-0.010170259603343055,0.07759897104121405,0.1519828844256109,-0.049908693191910304,0.0037306200400723426,-0.0339860020787382,-0.0036863968706159246,0.03058123950672525,-0.11650800459793555,0.03924403565837639,0.02296121112873318,-0.008135674157636818,0.05915375857495718,0.07454420513025015,-0.09535242040273723,-0.14378697175566862,-0.01176505961020955,0.059661510054629927,-0.1045871000498133,0.03493087078656508,0.035849721997845224,0.020036683497825645,0.09654242616006296,0.006719826898353149,0.007842620710192878,0.012027647102920681,0.035617386951693794,-0.03969821209739906,0.06739207409247605,-0.08731141830227956,-0.08516748422189913,0.10507953171031689,0.18085931826103527,-0.05844918626002738,0.06117316645209799,0.004251606822557424,-0.03203523999351404,0.025004769555430635,-0.14333796257664824,0.058160448673429954,0.07127078047202785,0.041485380857943885,0.03901173829240695,0.09697224519968736,-0.13356034510304515,-0.1662098823875384,-0.01134479885060421,0.1049095414116511,-0.1830281596028686,0.0586063823593124,0.054462936593615834,0.002013393510523534,0.10728641913177865,0.05298977905938491,-0.05168352342968761,0.02712155812907191,0.02492794308342136,-0.07689991970631986,0.08775478275892457,-0.09703797352811439,-0.040666094440303814,0.14173223750250247,0.19483531725400577,-0.05559106628862867,0.09969167878133803,-0.00008792834797475188,-0.03092411737149666,0.04508587191692813,-0.1653855236753266,0.10246455127616322,0.08014126074575377,0.05753652909085472,0.06492642926575845,0.118558994643721,-0.1420220942491359,-0.1985475444114034,-0.07955406847208736,0.06639280601352858,-0.18124003618441153,0.0707580006422815,0.11517452606020968,0.04350526033423978,0.13998256347121288,0.03776185277756703,-0.06722787366542855,0.0037454418090897006,0.024488365029159905,-0.0599191363632708,0.07584829064500079,-0.14328109376820114,-0.02069796180182122,0.14647650265382414,0.18180082210689713,-0.05597683057409144,0.11824636134805688,0.03184184260280551,-0.035004707134406156,0.02468907395222184,-0.17117238872843626,0.11889694656557502,0.1668581672638468,0.04351866313556959,0.041569267615958666,0.07799787603417453,-0.1344272090985498,-0.22315330097353256,-0.0750187511741068,0.0681918771231592,-0.193847625436038,0.05197743180744987,0.10233288533071427,0.03138619093439345,0.1050984250187217,0.057171658252990754,-0.0292983445420614,-0.0448289961435202,0.03235314453469419,0.012236039298182207,0.03720953851487513,-0.11629067254463964,0.029854425283191193,0.15828415486884131,0.21087991358764585,-0.09461526027238668,0.14147013018728266,-0.01679281847772107,-0.10764420393506265,0.017006612274971702,-0.19787832659599155,0.1373646230747456,0.21471886941217783,0.1384122218318148,0.08009936242292487,0.09581093579340216,-0.13052057185666316,-0.23820806782475876,-0.05561367555736122,0.07354991828858813,-0.1653546962985802,0.040455452764923384,0.05122428061363033,0.004540383016603359,0.06900340522639323,0.0766700268216527,-0.07212983282356553,-0.06216448569855351,0.017984621881472963,0.0298403604547706,-0.022473478719954282,-0.19191352706397813,0.043790646585770004,0.1587317626557711,0.2086368077511791,-0.05013097309866292,0.12227138219547438,0.01931503835790961,-0.06552272330507787,0.04921233520923363,-0.16173816841965866,0.12041318857185394,0.15940734124441977,0.15966750362118629,0.07428276239428036,0.08359335590925854,-0.15535282088331334,-0.22925211914285545,-0.07061661737367388,0.05056287131628016,-0.17668798529644517,-0.01539013961895247,0.02601910644242184,0.02985597577449522,0.114906747664884,0.11644667208051977,-0.08507140632716591,-0.026906941722701125,0.05823217794331563,0.05732250176490594,-0.03971937004540891,-0.13605941156223164,0.01862168596014241,0.18143794198272867,0.21857365815389762,-0.013199588055338494,0.02786741671637819,0.019796727188948253,-0.04387701677541022,-0.06972244729396057,-0.11042833595369024,0.07589107118035189,0.15416527518436146,0.14665682630318716,0.05070490799903657,0.048788687580844384,-0.13477541781972863,-0.20304063928105176,-0.00896724404756162,0.05395060164468646,-0.10906585759295606,0.0027103278958053576,-0.06327674666084433,0.060779068704404034,0.09931557861047231,0.1803347160499596,-0.06881239664393977,-0.04129474503482952,0.03734742675986391,0.0788606422655683,-0.02823970435440816,-0.1035531719971143,0.009293332593581876,0.19295599636516697,0.14766021538805688,-0.030681179486531148,-0.00036944869360064223,-0.027462385462880146,-0.032026587878115964,-0.09172832472079914,-0.051199008607449706,0.07825937177425116,0.16922993776479234,0.12143264918458307,0.02207867505384725,-0.0024559555383752716,-0.1132865380917105,-0.17311898551002408,0.01463879444899027,-0.011647221059583454,-0.10342983346127989,0.0006515772367331491,-0.05393813595491668,0.016718333927150646,0.07269042784263542,0.14181242265419938,-0.022128918265266962,-0.05351685653680049,0.027248994663209295,0.022003097282126977,0.007914796772588514,-0.07520628616701797,0.0479479406781578,0.13121278396481056,0.12547101463135518,-0.08373621232420335,-0.0556144834506908,-0.042851608272996666,0.0482617009864812,-0.0735834940565065,-0.05132562300181058,0.0245430633665241,0.08649165010284338,0.1193837356535189,-0.001415959426375958,0.043197329813152156,-0.09019583516235659,-0.04770847956928401,-0.019342212832723815,-0.01520797066071486,-0.05127749140868983,0.05498548075333381,-0.010072736715916878,-0.013929839086380298,-0.0009940973375846412,0.10288014681724757,-0.018402853026139518,-0.02620545219500883,0.06935432412968984,0.05933554902966891,0.06671110195271128,-0.04516181836310679,-0.001124579163791208,0.014732698424279125,0.13913833807697223,-0.0348953200251253,-0.1354551894184393,-0.07203694161843865,0.04304259142101187,-0.0933404466316462,0.015490867762552785,0.002908579042705779,-0.005039764033720031,0.13874539030226377,-0.004416714989938816,0.020968882152194782,-0.08928371327717333,-0.01516060225152938,-0.07874496074130574,0.019892982715790434,-0.011925438201068578,0.06071450644975923,0.06297658173127488,-0.02929677106549018,-0.013676131802027328,0.09155041738676555,0.012013217571987433,0.020629427485045343,0.03346897569442631,0.09599455088363355,0.015973038186635865,-0.05902657150216348,0.02289196568766606,0.0025325936446638627,0.1748290755843545,-0.05684412099168534,-0.18568886361911174,-0.012589130552478954,0.048664481559426674,-0.049232885341072126,0.07548130539242784,-0.007260874172862295,-0.05513821147608953,0.03893038523146343,0.02442296798931223,-0.02641299838464997,-0.03942950287364784,-0.020177659562757702,-0.0897936090561416,0.00969882445191232,0.05266019923813989,0.10364620041787288,0.10678314037616128,0.02801371890537861,0.0407156949964415,0.07407642882704264,0.03495658959728738,0.05035575328543057,0.05190841206866944,0.07554093106988478,0.008314223795728243,-0.035285474494803404,0.00004241057150155653,-0.12541299514489332,0.1557931300012495,-0.05260476713057522,-0.1641127231091344,-0.058202244775512356,0.025640600690926343,-0.05793462729857882,0.17902814251292468,-0.011577384206061837,-0.15254009418351927,0.04014963626693128,0.03904039011713435,0.029046454830162213,-0.06124098320374065,0.021155862031341156,-0.1284136813954467,0.024201225534624272,0.11121728585502004,0.06807197041919534,0.05587407514488301,0.05631413681849718,0.04641477669075916,0.08925560974575704,0.00042338252777825906,0.10123368137052721,0.035358622199205325,-0.0017559782398442964,-0.024499418995572644,0.03773942634453277,0.05343068769987085,-0.12343001466978426,0.11783858469469938,-0.040251092433775976,-0.15187938206744525,0.012163064285525957,-0.028503670928904358,-0.08361945863784868,0.20382134879239489,0.024188240664990625,-0.13348909114108293,0.04391327853871803,0.02110141012445707,-0.04760216961090722,-0.0042349795474106045,0.04837582676990419,-0.1376445937386153,0.010649203974019314,0.1331289457137061,0.0011926634755331038,0.06730968784532654,0.06300347029261241,-0.0010083160804809862,0.09988880551314337,-0.029583800710972323,0.07643096155851317,0.013674307983464593,0.03611347274782395,0.02207439998557575,0.1055739907909604,0.060685854434471984,-0.11503667896167755,0.0647696552323276,-0.03276725308347462,-0.09959385372890212,-0.026425442327725028,-0.020817535459357685,-0.09020232519416763,0.21138273682545877,-0.014507218121411295,-0.11072554710377219,0.0691777838556246,-0.020071974327283842,-0.018067521398756142,0.027986768554628522,0.025431382768440734,-0.09949600804164214,-0.012747562563103464,0.10283792570921214,-0.04544055862318797,0.07189595867635512,0.04193988117447461,-0.04449053266938815,0.034290204351139296,0.02891311013096496,0.048243682326473636,-0.022070490531922574,0.04162520807384361,-0.025780282641340222,0.08559192422889812,0.03541022980894646,-0.077053565940569,0.03839920356203503,-0.05342377640277421,-0.10176735301223801,-0.05961911643148828,0.014925280871630775,-0.05058314896576463,0.18977916550360288,0.02956165992350316,-0.15121936167752215,0.07929438871044218,0.020960404595241178,-0.019336068715662427,-0.03456639392522101,0.07120033456299504,-0.09914834522655035,-0.005813209109102563,0.10505245350252783,-0.022658774938977878,0.07702188764724967,0.07135937823527262,-0.07285623182984753,-0.004227535054466722,0.03979165658299852,-0.0006760255300419286,-0.0060087324580761865,0.002033857263533582,0.013342447222917697,0.026277579619326804,0.0032657243564412157,-0.06204252964598256,-0.01715232145267676,-0.010357766459751,-0.009366597699774534,-0.07839661986304758,0.015859560705830947,-0.02378642466138102,0.09276307144424797,0.0033423210289960058,-0.05370705049242624,-0.0044600023651591774,0.011477596769335744,-0.016474962453941113,0.013835175580922014,0.04180754349988106,-0.05253020394189458,0.015691585859800225,0.09600924177130829,-0.030686341456629723,0.06430884372691933,0.016857995001333156,-0.07083550661100106,0.00363217227635876,0.01646017390487856,-0.02254470119080522,0.008065841105325215,0.030480108458503165,-0.003017118053367165,-0.0047525557673888325,-0.009204184082179457,-0.026297009330235654,-0.005148578164509872,0.03185890034497661,0.0001226835623968026,-0.026475322680999083,-0.021090034874289572,0.02299796478955672,0.006716051495861886,-0.04727907092815209,-0.04105253517002074,-0.018911055161878125,0.02488340274194756,0.0006519074113080478,0.0027231285554953077,0.05606758333537299,-0.04882713844072756,0.026875077194267957,0.04498679232023159,0.034672423430537315,0.05098874839291154,0.03560314313512411,-0.013628204313822832,-0.024785344027792415,0.021464687653600774,-0.014662014351757395,0.022333749473382895,-0.029512349142652702,-0.01637353568487609,0.012943441727876504,-0.032605418101947226,-0.010098103148407395,0.00008777549924424865,-0.030267033490475426,-0.020495661672935057,0.0020463361390309037,-0.014674801405584454,0.021232480206978363,0.027199257345720127,0.026000223875022706,-0.007746763163431085,0.0167974614981883,-0.007942214103771536,-0.01219414515993831,0.00603739527041514,0.034227400765977474,0.02014935643574184,-0.02134969023038245,-0.02138476481258286,0.03431984123939566,-0.008363723677626006,-0.005490092488154857,-0.004884407915172906,0.039105502092924176,-0.009506385421935699,-0.0034530113498180796,0.0033022147303026607,-0.03541992257881839,-0.004036703731721688,-0.007342222447204106,0.011864910855440905,-0.03146781014362596,-0.0038311216182187243,0.03572472554029766,0.0070274789205925945,-0.03405368583122627,-0.025033722160229838,-0.010734236505242821,-0.02863633562132297,0.028007673182457813,-0.028431714304415327,-0.028779419088034715,-0.02857335322931049,-0.02743377506146759,-0.015636850295651546,0.02583730540220902,0.011196417350304539,-0.008984202072655538,0.028463086641444254,0.02207417530228812,0.014530988838581515,0.01139928467377386,-0.007994418559286521,-0.016104220141655964,-0.013655619272432069,0.018861755531228253,-0.023999647413952968,0.019859582533412405,0.03424375697942336,-0.005716044620287018,-0.017006288615836834,-0.0014437299375915848,0.01227988892422227,0.0005400206226612594,-0.0002611888323321767,0.02993616931286048,-0.016431055902821942,-0.01483170549881512,0.029373946865086268,-0.03548523504815408,-0.017320609941025262,0.0054218824775625635,0.007849574519414985,-0.007543932753319272,0.01713202443460038,0.03200657595860202,-0.025809617781678694,0.0311979961550801,0.028579422321600902,-0.03220467377720208,0.023706398875676944,-0.01296037581858003,-0.004500983310835457,-0.006451744289191979,-0.010942662510541707,-0.01171695855060519,0.0340101280042546,-0.02041815049990619,0.0024582941406055617,-0.02715178456379238,-0.020824129218814727,0.02941611621452843,-0.019481189669459345,0.03284126618193399,0.004944726772642016,-0.02704457111777942,-0.022812613778616223,-0.002863465441370047,0.006540771144644068,-0.00127719057386598,0.027561284016544924,0.02702724368755509,0.01025726030631164,-0.0013909512436428711,-0.003443091366694531,0.03140658974026937,0.01586855090065658,-0.006839709306414404,0.020180555578656993,0.014407431287076236,-0.005284303817788643,-0.008026940871378816,0.006012633939253727,0.015160746159885892,0.00850755527027728,-0.03259914376486434,0.02768805420412679,-0.020784403255999027,0.022971953907095437,-0.015107060723785298,0.011027880690532746,0.026156017949766373,-0.0232672521690614,0.003918178772615737,0.031052659949488456,0.012418232221477645,-0.027345456976001388,0.012324241239275412,-0.026791786393774424,-0.0064120195113509665,0.02104399545879479,0.0043596569339948085,-0.014276533067455289,0.012288936653943892,0.02579303250166205,-0.0199918809281102,0.004294236029643343,-0.01930009939088141,0.018109177934058494,0.00662110139210749,-0.002954516143966371,0.0027508041519018617,0.0017807088847365468,-0.01145733240397235,-0.016167159799851505,-0.002547629275076159,0.007687522206048104,-0.009127346066616672,0.008254688067300328,0.020924186992889462,0.014624830409242492,0.0034064138249475222,0.03616870542626549,-0.018648893731531325,-0.007025687686507403,0.020844923628294234,-0.0024187668887862865,-0.0058000576983735985,-0.012030627444918653,0.012214411303978693,0.02410430986386125,0.02908077750881578,0.03318605874689092,-0.0014857576288346958,-0.031359139843066174,0.024946913419805237,-0.017748317263259712,-0.027716719880952485,0.01255658406626133,0.03035358983230141,-0.027273386670096444,-0.016806134238168503,-0.013144685268436351,-0.012008979843368685,0.00846132607222474,0.022020233931899075,0.02482294610333053,0.028115110133942304,0.022183544634706582,-0.020724510963885903,-0.03299019987770637,0.004003485831149422,0.04127246109974002,-0.016408529278828698,0.028032178931350103,-0.010643700486815207,-0.017079410372416386,-0.007440331670448412,0.01079466003599385,-0.009511508782179575,0.035165739447266205,-0.02135162442756073,0.020766848204633658,0.031838736032685645,-0.0055598801372761224,-0.0372579742753165,0.020824644436519598,-0.015326075907698388,-0.013664046091203705,-0.008599706160501453,0.02958473000813835,0.023294001528532213,0.03709863575055196,-0.03451206246061326,0.01754776286228343,-0.025215694069755837,0.017580917177775452,-0.0020993180317864855,0.009660665903911441,-0.05424968227932861,-0.004013688243651575,0.030092742048699352,0.014575411732580099,0.0075980538066122314,0.0022659033590575212,-0.021829386459574645,0.0022484766134174042,0.026665764605788414,-0.028170852236724282,-0.020682593469268803,0.0004101600346804086,0.020413167103757703,0.01926454444694045,-0.02783523306126236,-0.0319179156582103,-0.004795533016606417,0.019940505163385285,-0.023714008735661506,-0.03464773654435605,0.004926837260712567,-0.015880121253497533,-0.03326101917483006,0.022562892963680116,0.0182816900320038,-0.012257762165795648,-0.01920919128988356,-0.018707880223133928,0.014507413458395095,0.011969832373387026,-0.02422419461837955,-0.009667943074542365,0.04071395036754412,0.05574820081565461,-0.041240540134587195,0.0007222147238206691,-0.005914332464114152,-0.0634780795716799,0.07196037995043579,-0.019722815476163516,-0.02534779645979938,-0.009767005221354302,-0.019438045676145356,0.022337321551580743,-0.012209774839289476,-0.005201332823430439,-0.07338590624824291,-0.007418919064531577,0.011073666549215294,-0.037213533913858454,0.0006935283534708829,0.01713838991053389,-0.002974771378974263,0.031127141899983463,-0.01638767615229954,0.05833901742584747,0.01415972201694554,0.04636474041495995,-0.027798067822222876,0.041273364080855114,-0.06689372703738083,-0.019227738507028802,0.06750442692617604,0.07632376337781656,0.006949148344089975,-0.025338204373389964,0.03965418654816665,-0.07033757931495085,0.07280463120898385,-0.08138901091431598,0.014019503879489338,0.06060353353675947,-0.056425076303019545,0.057732532382789976,0.04536472586838571,-0.031762449415448035,-0.06426693153492581,0.01922449646851423,0.05234585312585067,-0.14206904973943188,0.03271544152025234,0.08557214735275695,-0.039450774321061706,0.07382164248471275,0.024787348773647817,0.02451511326097657,-0.0012397359624207631,0.020736916319095224,-0.04579706395553698,0.08486589445400436,-0.11994709175386055,-0.010534135176105111,0.040194070897809686,0.16758338418001842,-0.04345156754143229,-0.019812246833615963,0.012857578735215897,-0.09023744588784167,0.09710360410057782,-0.10484939854784993,0.04502229373304749,0.07036503387142419,-0.01616009550415213,0.0650948940216778,0.017710219183316753,-0.06011116246117308,-0.11784515468059006,0.019198549006896725,0.06496655570409382,-0.19067835873659172,0.022053151663923687,0.11583589567058515,-0.008951716296397723,0.09556738499730737,0.02513645391294195,0.016664647951462924,0.019530012362845836,0.04112530416707564,-0.03882573451038067,0.13919056449405268,-0.04025919939597283,-0.06275439099705835,0.08965031420727618,0.19519087194002807,-0.10999346923294909,0.03268834142712407,0.0166008624226303,-0.09702744852914992,0.11866452109288558,-0.14593451005372515,0.029319103245840906,0.019143904685330063,-0.0007597637339965701,0.10256458052262796,0.073577978449253,-0.03779782969018898,-0.0767271383643775,0.008948503723125464,0.08164568963908343,-0.23927880075649927,0.09001461044628842,0.13601736699299377,0.014220345618229338,0.11849385472380558,0.019742785047185754,0.019053291378231363,0.010191287157459651,0.12180228987651597,-0.022590688066923426,0.1371048996169654,-0.04252712693148714,-0.09512143725900085,0.15607326994771656,0.18803905538641794,-0.11671862142359243,0.030616218367444225,-0.017803653170827525,-0.10191796542586755,0.11702504839878528,-0.22372746186969436,0.0549091101022306,0.03060614536762475,0.028696332441689315,0.10641702831823076,0.1556102129722945,-0.06568640849776353,-0.05872879793896429,0.04615353776808027,0.13154359307390678,-0.25652487048099026,0.1260923494707208,0.1495143684807334,0.0039466507570799815,0.08865095168408428,0.08145461443138101,0.0168902477513848,0.053967810772884595,0.1178579434864623,-0.046513092524608945,0.09297062172808045,-0.038606161213499135,-0.0550697215016205,0.16577900807715443,0.1962417654855228,-0.13548846410088808,0.0025982571234322,-0.05841009669614836,-0.0567402171384006,0.10856931375713932,-0.2432049048171002,0.10827506011999255,0.07751390736428157,0.006442102519512663,0.12277972008097032,0.11431506381094592,-0.10689754069900928,-0.08521507130077376,0.012398646368302912,0.18964456438115865,-0.23819625635224195,0.1007641428779562,0.1608892041743275,0.006649997669554751,0.06371438267234221,0.03616221950350714,0.0031029922646883547,-0.005420425388282936,0.14733003011120668,0.0006843042903458273,-0.05438738123891011,-0.08883760614765135,-0.09432250280663845,0.17034049358227793,0.11398088404609535,-0.10298782168481975,0.1003111935843405,0.0210177076226123,-0.11318520361453045,0.03907020180217729,-0.3188213868974132,0.04800285828184169,0.0939046586967774,0.017391461253864513,0.1302219668504982,0.14656132415619108,-0.04731316275219761,-0.1123761008959987,0.06497423953458133,0.12557205468118807,-0.19835012894559712,0.06620712669370965,0.06511791186794431,-0.017906255110004335,0.03183861013417765,0.08567956848045935,0.005946255194746064,-0.08045265495889474,0.16864456826996885,-0.020270261656883785,-0.13320476035923434,-0.04735229097796929,-0.11324781456459539,0.19175747874056068,0.11159307773122572,-0.0702143230773009,0.10337207191903916,0.008369489347076547,-0.0975692415553883,-0.013964841683360879,-0.25260431978248554,0.0534576969761747,0.08600106099505679,0.004748588388711372,0.09168354501789112,0.1371916578709348,-0.09142303035968725,-0.10724153328444613,0.048807325355144024,0.05894027972773314,-0.15070966993926568,0.02373974554012286,-0.0021657447099256706,-0.017873774366250452,0.04008169099672973,0.15903865355255814,-0.06801959010444825,-0.09079245989785341,0.17910124197439656,-0.050311520037905934,-0.2291206959850777,-0.06505425693715196,-0.15551224065411398,0.1792002627640306,0.0995080837056986,-0.0024841749362291385,0.08847197995276719,0.06014196533216122,-0.08652861076948883,-0.11472113135935316,-0.26980131801515184,0.05531907291897121,0.11932347706341945,0.009735142911780693,0.08341515664931097,0.13346786762361712,-0.11284989428066618,-0.13434844166236942,0.0725910274941928,0.025207391957526065,-0.09920194132098713,0.033355387119817545,-0.08756444540713355,-0.06935658673157205,0.1373138093207887,0.17913158734387802,-0.06556016916194074,-0.08947013105526169,0.15907275391181538,-0.04575197779160138,-0.22547441235041266,0.07732248546372099,-0.10349285167319067,0.2085391640071321,0.09154980340199072,-0.0071566303957272485,0.043709474572499324,0.015710054655734978,-0.09770707655028807,-0.1882385739565404,-0.26045521214438655,-0.03917430299990024,0.13506201241639879,0.08245792498919043,0.03161566595721816,0.08400267822761733,-0.11902584311662326,-0.12639020666212936,0.09668323500195997,-0.04429525066784904,-0.14421487187227366,-0.010667802392770657,-0.09892185865627713,-0.15998056626091012,0.1261828848215117,0.21023117561763696,-0.1198484976690835,-0.10344903674299596,0.20023432922216183,-0.006800317828552932,-0.18758180619487255,0.1401496009143966,-0.051869419702932434,0.16669185674453907,0.1610169494246937,-0.052619229363178165,-0.09197490901913516,0.014740362215281485,-0.04229353167880598,-0.1630402374597295,-0.23598178394131233,-0.09173831323974677,0.11399184714393154,0.06634940786395455,0.0498306255520872,0.10611056407572395,-0.11240418351611714,-0.12301092065565132,0.16306951375944603,-0.01796028311568626,-0.13516353047205937,0.028305234084392113,-0.029931907781120235,-0.18356587275646624,0.1568810919189236,0.1703803166260994,-0.012989745799727436,-0.056693643229245874,0.14778607672061828,0.026432238692280303,-0.20589022425418255,0.11738756455653862,-0.00413922269941271,0.25725663634771373,0.24366164837119636,-0.10666301782468647,-0.22434031817368338,-0.034550024547791804,-0.09400579342340913,-0.23309803712312643,-0.2666849133865785,-0.1851124593542399,0.09306025739175437,0.09270261377500771,0.03288202384982428,0.11430459114737428,-0.11972242432529054,-0.019508722872634922,0.14840105995338865,0.02475178717537822,-0.1794157979205434,0.03780687998563939,