{"performance":0.9434,"shape":[784,100,10],"biases":[{"v":1,"dim":[1,100],"data":[0.4836799444794008,0.1173518469817506,0.19856386361348993,-0.019254938333392715,0.4590631664404209,0.11879348725497851,-0.014418435932786355,0.07944216083943365,0.12684819738144817,-0.011393306422626842,0.1581936432453352,0.5059105956301022,0.8655323103135443,0.5458938815047312,0.07465192031377078,0.24392322641667746,-0.041767943348571514,0.7501347349826634,0.6468964790009036,0.06219097099866522,0.5751257621583498,0.4346055595479993,0.1890193459156714,0.484560255453723,0.8902111479653726,0.7520438969346563,0.6143016617547027,0.25173448703253265,-0.04294952099880311,0.32853006212094915,0.5219168936217387,0.5047760504883964,0.4121097058077855,-0.05389503960656048,0.17017855065542278,0.19197246085708788,0.5465213129312306,0.8589140449722744,0.5808705599364411,0.41297333192847585,0.8058875921564523,0.7255457858011825,0.36624540259746624,0.5492268501956948,0.29855363497015147,0.06494828964999662,0.8473070158498511,0.6049063517148129,0.49526606196890244,0.19014544926085522,0.357126050048611,0.7542466275052631,0.11793112815897275,0.49800349183170906,0.5793409988790165,0.8278404137695112,0.11778676026818187,0.0679160439074546,0.20121577325878287,0.7176089485304692,-0.1575063256397806,0.013944306565585029,0.43394726367780384,0.2430607931479375,0.5336507540067463,0.08611294536348378,0.5675606476536416,0.674838010741187,0.7616466318932579,0.10878943496905265,-0.002418986272100968,-0.04537570536011621,0.02723108324435693,0.4731113138089386,0.2084032869088542,0.37762782588079385,0.37392344880375733,0.1749656160268242,0.8893553117169641,0.8160507912572974,0.596225884254678,0.25013624478544383,0.8777107659993681,0.4028905128927853,-0.09285144702058568,0.16375881385146318,0.16208070659676616,0.22514336295748072,0.15042521881405596,0.8184446864625265,0.2464030773669343,0.453863821353193,0.7324030115780313,0.614959091373315,0.12072517727294213,0.056899341293304075,0.8606885674527955,0.5487583035168282,0.6803187369554291,0.24772260505799995]},{"v":1,"dim":[1,10],"data":[0.49036393867524747,0.37091903776902346,0.06797262756741768,0.29327464255602886,0.3270067362609842,0.8121050566967981,-0.13727483050500336,0.1496558159064514,0.03170133862598542,0.58850098278525]}],"weights":[{"v":1,"dim":[784,100],"data":[-0.008883096503270238,0.003421426625137003,0.033293136529985584,-0.01350668615689743,0.03382243600831415,-0.005199416375493402,0.028048573599573787,-0.03503424414095402,0.0009504334946625198,-0.003721502856024523,0.02071431907605719,-0.00004297176236327943,0.0027437907177204623,0.019814646998513236,-0.023523828921430977,0.02618112802965457,-0.009829638694697138,-0.02411082048901598,0.0095661477339452,-0.03231014605483035,-0.02955953532488734,-0.01850633483479888,0.03551971156038951,0.021608563361390266,0.012647216790928284,0.016115286880655444,0.0344184914905476,0.024432093954774352,0.02313192386213731,0.007805294542558391,-0.0010966969130458484,0.002192582156139204,0.010580307753986136,-0.003048783752707153,-0.03518605156215848,0.024233111052976083,-0.03491732510227017,0.007280743531926377,0.008884062221810055,0.029028884509673503,0.02420895742532206,-0.0017101451486864414,-0.03269157971831425,0.010137077937839654,-0.03505164040168053,-0.009467087700230827,0.015261125322859344,0.013175955027611291,-0.01734287577971876,-0.03013972260468757,0.03352785544321425,-0.0001626403657694689,-0.03185510118829111,-0.005239488523922593,-0.027524790748590027,0.0011241825474277573,0.016785407961153825,-0.0072613273185917,-0.027064194325053435,-0.019718469930581715,0.015036216726550276,-0.028427380357570847,-0.015625187686239852,-0.0032872587101435355,-0.03233740953106632,-0.02600488141231732,0.03488570050705059,0.001695599311099097,-0.012760154859187705,-0.033943384189994076,-0.03362091893398573,-0.027090743867508146,-0.0018743641989158316,-0.002456991090292085,0.01432189885285725,-0.004156406724288374,-0.01178114765058004,-0.02695093460666309,-0.03257932438660913,0.01804775359616944,-0.03052515170338602,0.023480586135122397,-0.013959789141897962,-0.021878085149799057,-0.02964361555570792,-0.011756620080337857,0.007515205465049149,0.028316753880414654,-0.030689415408521006,0.01441385373800022,-0.022971131580391196,0.001994404728924773,0.002144019193611832,0.001862147396909264,0.03559640161499024,-0.02861425126594963,0.023832614860592977,-0.022969773821320386,0.021653365324787836,0.019147201579044024,-0.014906794876435234,0.02308644932569205,-0.0018379286654206517,0.010541145014558988,-0.028790245843835667,0.03249355465950492,0.02394108639872767,0.01694676160451948,0.032085033503412685,0.013967367980598153,0.02721860717200156,0.013034131837820456,-0.002597492434495377,0.011459011709103809,-0.03111711205460018,-0.018701171053553383,-0.021225330090851556,0.0070784963214231625,0.027214317542111024,-0.02673700042348648,-0.03317178931585769,-0.035427599187775695,-0.03467736468394952,0.010539003572686905,0.010410635782589842,-0.03078945555670558,0.015061063275096057,-0.02018108563067568,0.003612349076375962,0.022282808216693116,-0.03183680532457256,-0.0007676362700890366,-0.012404618951119757,0.024540092487436285,0.03555049533366064,-0.021255568056415867,0.03507381060389335,0.03405463474057539,-0.017180494217617328,-0.017118910027154693,-0.025219518501273668,-0.009114026189236672,-0.01111186971659642,0.02267625266978844,0.03452474723573118,-0.023111110545148188,0.02560350149455226,0.000510222484480613,-0.03422816017193115,-0.029354086817244208,0.02963101924277109,0.02573814882762872,0.02430053883906242,-0.005726417010674716,-0.017950118093639427,-0.014316889841244207,-0.01903083965569541,-0.005605837527665889,-0.03173706245169608,0.017089273965131345,-0.0034541345014318034,0.013032438125735415,-0.030453023021455326,0.030364776513094008,0.02817704256986335,-0.02558501133363865,0.018245286270689935,-0.0031685051917414372,0.028223107171190937,0.022016993369318963,-0.023910185459847164,0.01923031776616703,-0.017725216632660277,0.01665638824259741,-0.03108906865073803,-0.00769237702067457,0.03141614203737847,0.02771425501650561,-0.022247084784187084,0.01522110295811685,0.025356828184104528,0.02984586540985451,0.034452857780422896,-0.007961534233394789,0.022084591864092017,0.01987461418208409,-0.0008233739297045517,0.001547880994422872,0.033778875908957784,-0.03230044911886912,0.03212117515528003,0.02311900988011891,-0.0061434083561188665,-0.0009944384591499406,0.027694514319285934,0.014767881454501204,-0.005646285623417385,0.003997120552205545,0.007903011012660124,0.017525806517325937,0.01017513502514019,-0.003019091887834592,0.030169159695050976,-0.021145329265972044,0.002081345023543797,-0.010471886987734616,0.012316016863028375,-0.004786118552928001,0.006660073995342929,0.027414339428748533,0.004558688864400633,-0.020773697582996187,-0.006962836009118876,0.02098427749852113,0.005766471242800164,0.025316118771802905,0.01105611103778708,0.007353514513602347,0.00559068166670329,-0.023306966395158862,-0.02449897332653553,0.03129405139680118,0.017139334384965225,-0.0131367374774986,0.01611347964770339,-0.010389797810503532,-0.025474719990855023,0.023003196221067675,0.0012268831500289595,0.011776472742875951,-0.03473841606797892,-0.0018963708563936033,0.028389058222613145,0.004781969988946012,-0.027423811738553745,-0.02545080219076277,-0.01354762705254962,-0.02667167389828116,-0.008732146393595222,0.0015547556789568956,-0.0002573074420949076,-0.02403146594938511,0.0024594678911414383,0.010874397086186788,0.006683992562106597,0.00539110234473477,0.031023581838052677,-0.02848492626272679,0.023927818813183607,-0.030421730767129916,0.005662565966293477,0.008035474063744608,-0.027673150292541547,-0.021055221527175587,-0.023211161129049307,-0.023124619102455668,-0.012517857804910751,0.001596054378984961,0.022557548784949165,0.021379019303465516,-0.021741015403197568,0.021227543979703625,-0.032634832643833774,0.02542126913879125,0.021735791413385937,0.02938928746006868,0.02138285282961577,-0.01946689987571634,-0.00791700753857048,0.008133124374651045,-0.003885089876442365,0.011722676095979928,0.01252340958217979,0.015212127066898907,-0.01961467094934017,0.0348527920599529,-0.012651763981955,-0.01594453793440274,0.002701346226629306,0.015139929273071694,-0.019481674534487823,0.02004514391061095,0.016531203488377492,0.02101068426405123,-0.03540735400115134,-0.017680640778772485,-0.01241752051672992,-0.03265325592629247,-0.014607587698666212,0.035162634402228346,-0.02617677465346773,-0.014393564711289258,0.020108585511096733,-0.011564689812500391,-0.006122685584268411,-0.023990776692227232,-0.0023884980742900283,-0.0030701203634002777,-0.021801579693428885,0.019278566709380676,0.008510365788811862,-0.019686985200890992,0.026928516933516805,0.009180198682784156,-0.0009087242469115742,0.008055993045000438,-0.023920696606119077,-0.01538893078095276,-0.005364610691324243,0.027838292852293237,0.002328313078409243,-0.03356754537433862,-0.0026759682587313496,0.019892456910452237,-0.005723599684931635,0.010520516483174943,0.027846701156689534,0.020111262137281788,0.02342623201705301,-0.03307214302511328,0.02473781467510572,-0.0210031228689636,-0.009120139802232124,-0.02432974390601006,-0.033907257504906974,0.0003823398359688798,-0.03524743861309141,-0.013906460742571226,0.018473147413953436,0.008330979135077597,-0.035391360108840884,0.0066517267308059055,-0.012056129300482894,-0.01829067011443381,0.029649609046998107,-0.017087695468235645,-0.016295437200187557,-0.011921920019115184,-0.0008886725854626715,0.013983687592790894,0.016717111593981496,-0.008015961703204746,0.002311518667817647,0.0017947821105060505,0.008745263534256767,-0.019965154626280044,0.03054113375091561,-0.0024918699904942568,0.01474716746188856,0.014215491242429676,-0.013828552445412447,-0.004200642079590131,0.01445494683027672,0.026504280857868552,0.032741901528670375,-0.014819448696156732,0.00928252747487341,0.03549832699171111,0.022972867134817103,0.01615309326473264,0.00925992610407332,0.0178942658892522,0.029900786135549265,-0.019762835448936263,0.02641197172494292,-0.004676077869463873,0.015352857214343528,0.018344243702310435,-0.030817650286831175,-0.027400106983565417,0.03168486593646962,-0.02596849259730405,0.008259542305406854,0.016422811682382195,-0.01257631315798459,-0.017359670913051333,0.007883395574547723,-0.013256747623101457,-0.005486794202015144,-0.009337319809878349,0.0334899499831056,0.022395359853497377,-0.006202083179570685,-0.009018358317724445,-0.03315640041176682,0.03006276404661655,0.01098887895224146,-0.00959539749030101,-0.008875512908157246,0.015300685939286523,-0.017575007392741156,-0.012948312868166396,-0.009975114093510706,0.026662442421204045,0.017954748525212644,0.030021199436166116,-0.012427837994979422,-0.0002495672230371157,-0.03436473248119936,-0.03277956246388525,-0.017474278225859292,-0.0009131229256083008,-0.001058462600739274,-0.01791384587136732,0.018644146188576363,-0.018262566870318367,0.031502181181915764,-0.028422756971635287,0.00005467583307355167,-0.017538518870303377,-0.01096408283558075,0.0007194866926961696,-0.000890570815222938,-0.00294319431419781,-0.007772783060466151,-0.01334447417029732,0.004668737152755363,0.024209885840152098,0.02858618932308818,-0.03213691429127909,-0.02151723687505152,-0.0029182530336286927,0.017996827305076374,0.014666102972077997,-0.022586489730945757,-0.02582980365933301,-0.002327614958623804,-0.013804481335647423,-0.021131014056808013,0.024125553202868293,0.012396159651483822,0.02290423141520892,0.0087971920378931,0.0025143279545838046,-0.01350717612350584,-0.027132455243002895,0.008355812167226015,0.005799884200543892,0.007148689639920595,0.01955813873894282,0.0009459871067257902,0.007354192814685474,0.01405231127942736,0.024305379109781464,0.02408532149359978,0.00679497263459751,-0.012418156378208138,0.0042269700568369345,0.035124719452865966,0.017784807617881558,0.029330618604674993,-0.00817683387416552,0.023080060487950527,0.002375637830931976,-0.016667132429838843,-0.001707070032991323,-0.019828636845703476,0.014501177591807878,0.02545943532685903,0.02136725342978006,-0.03239988146285817,0.002993340842331764,0.02519611190214857,-0.005702659342211258,-0.013826655230682796,0.024383152356592275,0.02970634939176403,-0.017880165372327297,-0.0045317994335840744,-0.03094683748738003,-0.0011163480242372265,0.013546289514526633,0.007697000425274846,0.01687716977126054,-0.01093190057213473,0.01904417052676296,-0.02282046569550809,-0.013513009233839024,-0.0048918808473919564,0.01035478232420111,-0.006019693967876192,-0.008711864262638716,-0.01567946014454578,-0.011068465578943984,0.026996544968814193,-0.03245963492337408,0.03451747876820718,-0.020623502552977083,0.014244450962636664,0.028101465692483424,-0.013684392137625604,-0.01584348633872279,-0.02458242526138532,0.033369205546841904,-0.019857175648108485,-0.013304555724190216,0.0055818971148399316,-0.032508099256711366,-0.028497993276684105,-0.014166262874212188,-0.01851089962902833,-0.01183944883200026,0.03104107807026714,-0.0006961766707374167,-0.026398005113110128,-0.01252030681887379,0.027288941169562056,-0.005668398403820971,-0.021276473510723717,-0.00221161814390073,0.03000841399781108,0.034789762996252305,-0.013023221241619825,0.03297550199133893,0.016177726635937688,-0.023553799267313665,-0.021051614676777217,-0.0024827380120289663,-0.0017483208785344928,-0.015367722948177023,-0.006955868398765639,0.010433603872997105,0.007662480349905784,-0.030493064420621035,0.004373175920273101,0.028603849361112085,0.00700122903220405,0.026811725394533692,0.02631689323185665,-0.003986540548444481,-0.032603698787962494,-0.03269369713239339,0.025627697115609208,0.017013470500578123,-0.01406510771593215,0.011164276961631437,0.0016428049900010094,-0.029691587626806744,0.030529764467794332,0.0060664009774093405,-0.0075320509071177405,-0.033011900041509605,0.0030510217552011734,-0.024149991510358126,0.000976166028236504,0.019581359145927305,-0.001151105911840769,-0.009666707115604405,-0.0021053822628454635,-0.007877496401643876,0.020270754934164047,0.02044098180513573,0.023280964568445132,-0.028985601164041773,-0.033274220288427574,-0.005630452980936403,-0.035263887289883306,0.006196445994992618,-0.005152424253203072,-0.024630082093406364,0.006614949459126267,-0.02228684076600134,0.03208243271493402,0.02765935723967987,-0.035159703211534214,-0.012373824064885994,-0.020687141341788097,-0.024342002035240347,0.0338398941921475,0.006354218376395285,0.02314583328657281,-0.019666222331627736,0.02620672767525119,-0.015510108339622531,0.0007381770114968586,-0.00846264202426025,0.027665756686323817,0.02142387741723771,-0.023477653756689847,0.004415587388911568,0.004737406023337179,0.012558788141659165,-0.028839220385838447,-0.035438800594859404,-0.0190998751688333,-0.03366084799425795,0.029019834375674597,0.03170648512432872,-0.005850890725885054,-0.022643323780987688,-0.02577512724133002,-0.021670044769354427,0.016931397184632276,-0.00788791858277628,-0.021230480540058175,-0.015490016415902924,0.034454175691135985,-0.0019143273206181852,0.003820098161415722,-0.015897118337591283,0.010657146445672295,-0.03568744831186672,-0.017249774209514488,0.0033195775021247487,0.004163681500595207,0.016139795644119145,0.03130691775774688,-0.01306709405500842,-0.0037333478450831056,-0.033804347280259474,-0.026047608818894626,0.028054602380036917,0.035273226129462654,0.00873932011150242,-0.02224579495805174,-0.005133749255361888,-0.010324706109960866,0.03140562115238743,0.01525843464205575,-0.014639933522887328,-0.0024069843704323593,0.021238700927019565,0.002157437842359521,0.01911394649836822,-0.012750565583624814,0.028980097681118172,-0.03193815728055067,0.0039267998322990785,0.006028747443163653,0.0021377746665332473,-0.0006767125782930136,-0.01975296633673597,0.02256078577010994,-0.012043824369548886,0.003846993764457816,0.02396962721960272,0.009070386642491183,0.028213731184445964,-0.01988543824955353,-0.03206206932596819,-0.02088104414205164,0.026010288511045684,-0.01586009662376778,0.01988377604914972,-0.018435187389990105,0.025106266293396393,0.022816822096844512,-0.03347334615689902,-0.0123763365863445,-0.03201983074217669,-0.032730141098419284,0.008443009132780697,-0.02795118488613925,-0.012610101105038858,-0.021120281368513297,-0.011580171507997807,-0.02759842439332384,-0.029508063705046102,0.0007813815355312004,0.02051731462163025,-0.025692783335001385,0.024648558523331095,-0.02774103857248354,-0.0063865024594559165,-0.02525760909500177,0.015441584638125012,0.010226248988957867,0.03268765476698378,0.003071100286015281,-0.027133331348925767,-0.012538667141070024,0.0012441743148528112,-0.017377882536333416,0.014936639562146845,-0.004002510670381008,-0.03528461294743181,0.01906448894609731,0.02013495828002814,0.014298634388930516,-0.012716655639686807,-0.028805825157611063,0.028219066779015797,0.01412742170337896,-0.02494180133656996,-0.02359685544294627,0.014097218857526003,-0.02111700976288203,-0.003068384870203653,0.0005881068678111126,0.017912815328474108,0.022474172162842497,-0.03159534985843636,0.005962541696339287,-0.011728943349599046,-0.0014461644177034966,-0.01587513824310622,0.033572112083338934,0.023166296998180465,-0.024513554304948074,0.02945182537271132,0.0009317219881177022,-0.02555101720999903,-0.031258000813608126,-0.005809257345110792,-0.029352774625697724,-0.010125566478546344,-0.024607526962690432,-0.02684000651046771,-0.02283956356803485,-0.01389723933530218,0.0238358794250288,0.03502658083567882,0.008966157101138253,-0.02611534194426933,-0.0022268065826594532,-0.03421297878738107,-0.02055828758982043,0.004630301325621776,-0.016496911852718368,0.008060183769205982,-0.006971019174135722,0.012166663683467714,0.006241320938234388,-0.03255014909264943,0.028670483148471315,-0.011796779902339308,0.02562752821070323,0.007277582196118071,-0.014418673218803205,-0.010897550326229744,0.011797353214025023,0.02713288064099628,-0.000519388004830805,-0.011596949454862306,0.03242699832189341,-0.0034065158869717935,0.026324810244424863,-0.0016823945005748978,0.013410646798762011,-0.011876148960241806,-0.016253742044773017,0.010466969898217332,-0.02554882382516071,0.01280051657786737,0.004100107146028029,-0.034881348615670826,-0.012148823135468624,-0.03354354820217715,-0.009157426707331408,-0.03137303214530163,-0.028245611804125024,0.018984638133181915,-0.011935602288039976,0.005745882812311365,0.026698440055453698,-0.017906691057728952,0.007174355654761842,0.00456842330315594,-0.016732290546253675,-0.005465214003629506,0.013635330526166674,-0.007356024652944777,0.03482946196983509,-0.022310837164061553,0.004231682980890938,-0.017044062126106874,-0.016385912875119635,-0.02894418514869788,-0.015330608683508596,-0.035564690984772884,0.015315816287073332,0.009219815514666378,-0.016326457215361856,-0.012969980347526056,-0.017344613625041472,-0.014322479072941294,-0.01451989377035412,-0.016212473637745185,-0.02141388302813707,0.02082492184336629,0.002846180274407119,-0.027234305509957785,-0.012733584839531051,0.03283496957043587,-0.014065434762678916,0.01029069410298014,0.009951059411043487,-0.010830688498506325,0.019577837984236256,-0.0016588436041549135,0.032962843556711904,-0.023493085680160983,0.004539164035970336,0.0052059057639545075,-0.016469359703293964,0.01431059614895061,-0.02641646484568979,-0.03087014026780023,0.03537388269164514,0.009758235213591523,-0.006861903433844661,0.009958217395512566,0.025517953070052904,-0.017271769739010647,-0.03155521416185968,-0.019212470296656337,0.03045698998300944,0.02923471815241023,-0.015768538386307856,-0.02998489788500832,-0.01757239013549229,-0.035301361625363535,-0.02293339191419219,0.015211453393464462,-0.01529897557423519,0.025162175519048008,-0.003665232857537185,-0.028635242138071382,-0.017094198472179554,0.024829479965285027,-0.006239913581706374,0.03419736664396189,0.005549399290209367,-0.01270077523954852,-0.030658102813806827,0.02661459498376338,-0.010562494246852709,0.02976741641009993,-0.02912935415799129,0.02119379733876839,0.035319407669545916,0.02390726310770192,0.02984268895725814,-0.017366623261073282,0.018237622219691288,0.005809324247739278,0.02808495207774256,-0.03191409551603676,0.0013323761525569564,-0.004003278939532909,-0.013254608967453688,0.0353091637867763,0.0214943520290454,-0.022519062639866076,-0.0191970701935731,0.025679696716638167,-0.031082054218508133,0.025330058671342887,-0.020894127746862688,-0.006207496004721352,0.013351221436363456,-0.026405459182167395,0.027613726501209895,0.02893725723249388,0.03057680477971382,0.019222546611114225,0.03433243987629145,-0.02901203298064481,0.002222889765076279,-0.018494161397125213,-0.0002652356023620586,0.01599365494326594,0.027116398619857596,-0.009017090765861848,0.013783405489601136,0.029774074392508666,0.017843338286781085,-0.03288709529786839,-0.02956302291917388,-0.019700415412668027,-0.009771370686265213,0.00910134212238825,0.004910467256696575,0.005005217663243279,0.018844473937775108,-0.023607328643204233,-0.005388618457155672,-0.03281908919820584,-0.015587268348204515,0.0036845086820498016,0.005448562074551737,0.02718808605441141,-0.016454511920135424,-0.012241091139311742,0.033185007478731376,-0.031018074157647457,0.034153675587406215,0.0009394358415059436,-0.003659366019593061,-0.01503422484273902,-0.006490576144747018,-0.00936555134098438,-0.03429777627799925,0.027473314481566063,-0.03046346975400522,-0.00908260154404258,0.0029600516691530923,-0.027535973956260507,0.0033803352439710013,-0.0003639613457294688,0.026801223624806664,-0.03251559289881085,-0.01781628296632617,-0.010108321667173905,-0.004823668232823351,0.02826798477058698,-0.002131131454970618,-0.02718334725842949,-0.0032274440699170265,0.016594435981758658,0.0026632962246086883,0.003842032082061179,-0.03346318852753998,0.0349744135383144,-0.02462224596063587,-0.005669972475386618,-5.620798651663483e-6,-0.003509025919565291,0.016842028466156754,0.005583535849492595,0.03359802821776635,-0.010401967869713149,0.03552744402760778,0.01865339105399111,-0.019147908976187535,0.01828388164334141,0.02980210283355927,-0.028473407368434747,0.024030712783071992,-0.02995012292350023,-0.0013067360886622123,-0.018233986976919563,0.006717593179625281,0.03299877841438248,-0.008689107540128273,0.01883743024634099,-0.03462788178520657,0.028693396440018087,-0.023066735765509785,-0.01215981359573727,-0.003275412502909192,0.0352177291319469,-0.023200208018751615,-0.01439624798399454,-0.029885043552723572,-0.003430396151604377,-0.014467687454342744,0.02314584479520153,0.03176084501373923,0.0046309525644911975,-0.02931114611413686,-0.007075287338967735,-0.02749410741281712,-0.017693215323480734,-0.00783135322045812,-0.019018526836544005,-0.010480907751953872,0.02062515803312573,-0.010828190119598569,0.03343208151527635,0.01824551666908357,0.0304992559803844,0.005866679369561187,-0.005997119378310902,0.028848493790478727,0.03537828299658084,0.00955089074636279,-0.015172868785867145,0.01303021048840304,-0.015169434425249331,0.02377302168502682,0.012113907259055465,0.029734890525167857,0.023913226606119747,-0.0012992319637295457,-0.034044337446687535,0.007597327635195418,0.011411000122068096,0.0016686300768631798,0.0249217827060823,0.01165268533551922,-0.010335298929950013,-0.013165433539017016,-0.026494212041154618,-0.0010287757330188635,0.020416340352360385,0.029747381213463445,0.033633367558833366,-0.01754484027594383,0.019551819805801368,-0.02515438393393892,-0.006239669862187585,0.034972601594889255,-0.024130747016295105,-0.0032499642801545117,0.003515552667478529,-0.0022048808999507313,0.03508880049739915,-0.010199683172816104,-0.019932382170048175,-0.010259427844324036,-0.002932145854411816,0.03040666481361191,0.03416173593504421,0.003033183283003442,0.021031114849565928,-0.020508373680657353,0.00904902755389779,0.033035348645911275,-0.014533455822527233,-0.016392242577442824,-0.003084861368115775,0.0251270395963445,0.017962750718749483,0.0340086232231456,0.019561260555614357,0.018584197338181868,-0.01360361086697386,-0.015726304032161686,-0.03363475825616981,-0.019688358820419288,0.007943981076648857,0.026565038532269217,0.006212447478502026,0.03504789331505792,-0.03439358643918668,0.02462234031736979,-0.022333100863949604,-0.026749962433264565,-0.0064264044416498,0.0015179210953813263,-0.01955592747698799,-0.006474277039887025,-0.02424653049455597,0.012421712776920404,0.015749212673374244,-0.008101828623624789,0.015518932988709063,-0.021851504634782595,-0.028343167861708984,-0.02723462037830593,-0.01810467739329334,0.015226210241321314,0.03253089295387132,0.03201041148465708,-0.03464996679440611,-0.02302488612693955,0.024566180548274308,-0.009291429781461438,0.016264357530941367,0.008700920211273125,0.016610750164442085,-0.0030649797701682233,0.004512527492407888,-0.004074484885324928,-0.02117563199848939,-0.031047318441579024,0.03464565543403568,0.00449436794858165,0.006003223720582852,0.016960900024006992,-0.009934262099220183,0.029532720195711903,-0.02244176588480411,-0.030291168552694345,0.028369398205419852,-0.014813034901215704,-0.02298413643861002,-0.008907267918638336,-0.01085102828170454,0.008556597593265942,0.03251267784520706,0.015568241561101244,0.026791493593330665,-0.011479996473237528,-0.014855810229010676,-0.006099366570806133,-0.005647596082170803,0.0020697285153536624,-0.03202161709832753,0.0035307209206819,-0.032807039315506464,0.021222058704468645,-0.006629144133653706,5.94400033720327e-6,0.0106937528291369,0.002548767211469141,0.01506861585666746,-0.004377807474328796,-0.0016692489536541052,0.02824431636462796,-0.0311628099136758,0.021354174109545414,0.030570590504747877,-0.02552731597631939,-0.0018263292359985348,-0.021670705158177105,-0.02165448549009807,-0.03518460409693483,0.030379302517135137,0.02814751132537266,-0.005654475014948836,0.01423874879252776,-0.020515688583600165,-0.015483525294521664,0.03528868243214568,-0.03425763245430749,0.011692954573106928,-0.031194462849079466,0.006811888560344169,0.002285059707593108,0.028172638880943707,-0.003134849630324253,-0.0019429048183347356,0.006598253319861115,-0.008166854733367614,-0.03379277479334576,-0.007462236437310872,0.022690184303944455,-0.02755207386460564,-0.02734642229551465,-0.026620782694857695,0.008342288708898242,-0.03441937104109263,0.011955558896265836,0.0056728723121326485,-0.0040647332962197025,-0.029457760441087943,0.02737236622277897,-0.003565763663804615,0.018695081678587622,-0.03335468912161386,0.01130368311803117,-0.025214588795624847,-0.020182303544359792,0.029353253545652033,0.018439849843439098,-0.02069772244461979,0.012287700951655066,-0.031019632975553497,0.00843225346408532,0.0019091459483892151,-0.000015489718865127622,0.015111080461609236,0.013198865917197685,-0.03182512045035688,0.0007012088501334862,0.02228340166056125,-0.03506823667334548,-0.035477344594599926,0.022933647447222608,-0.02503798391653024,-0.00729595580266456,0.015758862974114267,0.01810726698707453,-0.007160926946593156,0.025187031161101575,-0.0020204509700928117,-0.03446285755682537,0.01373712749297392,0.02556265137419958,0.03222148932259876,-0.021064898259649315,0.022583129047639337,-0.013830439534467245,-0.017110353995619856,-0.030030758569415138,0.01906383138330725,0.03487129236279149,-0.00884142229278733,0.03514579266402652,0.02382604688274624,0.02485314118769391,-0.008333761211912174,-0.01384070959271401,0.0022681665497602047,0.010831701388648418,0.02025889588961563,0.013394094521192806,0.015915939415871612,0.01885013067791968,-0.02433272456603968,-0.007715606477897055,-0.019679090737850853,0.01201796697431548,0.031046324492053214,0.03319425294420958,0.008451195058084178,-0.011923737765373778,0.00997870715150287,0.020769908069289023,0.014407551887590207,-0.003809314361186984,0.008547409896796969,-0.0023894627902272605,0.030824123549195476,-0.03270938018694794,0.008351554807507107,0.008383971143586341,0.008636268952520565,-0.028845307063767325,0.032350531432256704,-0.017515292148245324,-0.016471541111912118,-0.035446325310967905,0.028042077510105887,0.002002859053554182,0.019277130410243974,0.03185990351942034,-0.02634863675392391,0.015130010013884917,0.022657281539216683,0.010032119802948802,-0.0051765073042675394,0.02035543847348609,0.0021842352994931643,-0.01270569992582852,0.03524295050542865,-0.006210672985170839,-0.015452817801793237,-0.025613898989214717,-0.019315577814413076,-0.01900961094545743,-0.011525365662715571,0.011266296631303073,-0.013750580431294264,-0.034691253672527615,0.009295630900099364,0.0306070370053251,-0.02271103175780493,0.006915543472482835,-0.012725105132198192,-0.008892023463047048,-0.03457149419000142,-0.026774423712871805,0.004192267342435925,0.030299084529261475,0.019452283652982655,-0.024364327884740775,0.014057795894413805,-0.005526298810930944,-0.005193093690613361,-0.018794221662039055,-0.013655549090754377,0.012226007391671963,0.0071842888406120995,-0.028225334425564536,0.004957996789499205,0.007234972245425535,-0.009353448995597103,0.02380396656770748,0.0022697101118233924,-0.012274149284396893,0.03226228448041021,-0.028823631305701498,0.008346587411727554,-0.006042723216085112,0.026647797559105475,-0.016949352585356594,0.029673950142348977,0.014746736058869935,-0.013528338617458596,0.006177441013849043,-0.012171265462379314,-0.02062853497014898,0.027732146996759688,0.004511400795737218,-0.00823830822365603,0.017449344861170644,-0.005449684630859073,-0.005633476015333944,-0.007106618720113692,-0.011589177620021351,0.009414023529497537,0.005589208998332436,-0.023462979346316734,0.03561034588996399,-0.013792712486864967,0.011065202336017705,0.009958820737913899,-0.017077142669253014,0.010512419886525126,-0.02903470830281343,-0.006267248645133898,-0.012778716743406636,0.03314486569551512,-0.02332586670129408,-0.022294229355633462,0.020642240247326308,0.0224163861336934,0.013969020880683539,-0.021345387604025507,0.0056245136892235795,-0.027288403117613446,0.0063100757653349136,-0.007777684657560862,0.007284155652927296,0.023603137529338455,-0.003649775016331778,0.032518712291432925,0.010682410688338449,-0.019800498992293844,-0.01968889235274694,0.029911495893120952,0.03526049246732933,-0.017814665380621996,0.019814015715455678,0.009708495988997009,-0.024587083760771317,0.009860695228254153,0.003233523343220572,-0.003069481766433866,0.031510368595124794,-0.017108200233876793,0.024227225940866293,0.02879687923238523,0.029919543534781774,-0.019206984869013462,-0.03075892777930662,-0.03731362240639651,-0.006469984729431788,-0.019986821582540087,-0.020416726634506516,-0.003095143995928062,0.022027337892629822,-0.011623950589285828,0.001483393094061606,-0.028521766916806485,-0.02035843370647719,0.015439105087486374,0.024647920271843884,-0.0021523039252593075,0.004484718266471641,0.017951375597966213,0.011420301888643325,-0.016229086468510415,0.017449138578993127,-0.0013864481493540983,-0.030630820577958944,0.03369494625734605,0.00358622300243716,-0.010135170590519429,0.019089119457728673,-0.0021194355992789383,0.03488151473965779,-0.0077304332712796004,0.0249105776225031,-0.029049158550389413,0.02081320006627686,-0.024459439091154497,0.03292230696296416,-0.022919662285876847,-0.030408740303236606,0.032083640464832947,-0.02044805354878269,0.03257947964876322,0.0043948706933428245,0.018221819403799713,-0.01822878710924184,-0.0166938007983154,0.012482471315580683,-0.025484358095028293,0.025012500325497664,-0.012967302318231991,0.03230108639805125,0.029008497382239488,-0.0123237601989061,-0.029953207776517766,-0.017426613593301533,0.02718156416852399,0.01512367515568477,-0.01774671409256844,-0.003204191914503033,0.014958574214504966,0.03466696696808456,0.014440154562293738,0.005314857143479945,-0.013431413129684691,0.004916885526229791,0.00997502872082505,0.013949185290878704,-0.030461919608956674,-0.03316322201265434,-0.01248839773180279,0.006006696709790357,0.02835621935714237,0.019546192273498613,-0.026340813364844888,0.004426764298730156,0.03325421414410675,0.025713706886703287,-0.015824752759111067,-0.031241717542220854,-0.0015674384027621442,-0.031011584266213865,-0.034522729130984545,-0.029114542615252537,-0.03787252721627373,-0.004724889291979701,0.0016697271582202823,-0.002993749853498272,0.01791959923956695,-0.021297431687770374,0.0219687777323563,0.022250194031295856,-0.03122463899973476,-0.0003148559339367856,0.012641766490603262,0.0214156926971351,-0.0008953487481859208,0.016936981385395036,-0.002783829769168168,-0.0331423013459746,-0.030279652735949777,-0.02759213872257696,-0.012783835805754906,-0.01765737485289845,-0.008985059986484505,0.024178498658612362,0.0114269991699557,0.005391025095200177,-0.022129954310824797,0.024622592133017256,-0.027799482015157563,0.011672048143860173,-0.005730263483175241,0.021703537943187617,0.02093590393592689,-0.03311544801254729,-0.01920514091027685,0.028720008021027033,0.00904723400996629,0.0010213114979368402,0.01619949195938645,-0.00882684424801757,-0.012218603662986164,0.023863804891592528,0.02083723744525253,0.001208103020289291,-0.02350691294482039,-0.02940004123786549,-0.007266484334841481,-0.015758164783559625,0.023834220561437493,-0.02708512633318535,-0.0067931729464007174,-0.030402976348645312,-0.014710312471927984,-0.01331774447842243,0.028769680465233958,-0.01164880186571398,-0.028753520294951852,-0.03387792774463381,0.0051136031014932725,0.017794928738845292,0.019578202495021062,-0.03145838870145941,-0.026524587097292586,-0.0008786882797557541,0.0035958567474987236,-0.01658821988081357,0.0180379673694022,0.0069638568836987306,-0.02036163107397713,-0.024995437607771696,0.014346342738381307,-0.0020748956716290434,-0.03326912950872993,-0.01897296185371232,-0.010436293892383035,0.0005609615290415804,0.014239606324193407,0.017064667725186482,0.025445528521186256,-0.016481481880142937,0.020543891532612206,0.012048923400467327,-0.013287376787842987,0.03213509719539616,-0.003152490304461651,-0.012851581093867618,-0.006120759210687211,-0.02247342310760118,-0.025604015698219032,-0.005985196854836275,0.026841104965186862,-0.027968221934785813,-0.022747930421178373,0.023516116599148842,0.034401431776949265,-0.0048972323212758614,0.015329160749192917,0.029320506119953387,-0.014220755067899202,0.025596439382395666,-0.03393549851038816,0.006573831959102645,0.009142267558115553,0.003934737251703914,-0.005580683477252693,0.016872411345250245,-0.014749433109491051,-0.03433133022133971,-0.026194958976956065,0.02700136283945482,-0.01891000596875433,-0.03169926300161474,-0.018445609337998155,-0.03418215317880649,-0.019964034789722196,-0.014247847205678961,0.023709403272373385,-0.010650742154943754,-0.031114205277980034,-0.03160619459449024,0.02380784003767483,0.027285555202066478,-0.005032621904897655,-0.0330348949199316,-0.033116955697371414,0.013016992344223871,0.009861643336909882,0.007124459324951453,-0.0009697599625237425,-0.026238317313246266,-0.031955575609686725,0.010319017145365882,-0.016719995917748972,-0.02895995384807845,-0.019138303122120424,0.01788293749832355,-0.027043180589490054,-0.018177646163006086,-0.02913525633892792,0.006066116290021307,-0.024972428528820673,0.009420508038846958,0.023102595522838623,0.02943463651692214,-0.0294013465092973,-0.020687365594013882,0.012835825672302107,0.02343197595094002,0.03365200026601892,0.018118473040620996,-0.01494238694475759,-0.015043934311626773,-0.019351427302442336,0.00032272868896722126,-0.017264930372185194,0.017520186061994694,-0.015863490667114788,-0.023242907653390203,0.009085354647082508,0.01606205614284669,0.025555687371630907,0.028954414733076132,-0.003134630396781603,0.024430557585228486,-0.014417401762834152,0.020007301663403674,0.027232021441264326,-0.02856808154152592,0.008510854495611526,0.0011679651837342789,0.029540615615463384,0.012118657412290693,0.0076739361987230945,0.008140790957008218,0.009536674091658015,0.031093648009509537,0.012501619303470369,-0.017751092456962752,-0.004119974571570764,-0.01621847754171424,0.017088504976750032,-0.017231667074597667,0.004599881910073244,-0.033147795653723736,-0.012811039615839681,-0.02557685031637515,0.031167692829729414,-0.014836539949835005,-0.03404066442019443,-0.001848421046102391,0.02597797959362785,0.006250899842719203,-0.013103976440042431,0.022677237202036075,-0.008950196266496563,0.014716579853391793,0.022924759713029874,-0.0009769040282731245,-0.01958623382648553,-0.010567701435337295,-0.027104668389313805,-0.025856425719881036,0.033684968345862036,0.008993347730737176,0.0037704731677299774,-0.02400840503671272,0.01876772409219702,-0.007744118120022563,0.01717998936245134,0.014555227162719384,-0.009806916634443745,0.005557829997692734,-0.03219021675822096,0.012566847563494417,-0.007647336564274569,-0.01873262678953464,0.0010023061749432002,0.001706873612286941,0.00011383363383880156,-0.014617486900478118,0.016255524182010705,-0.016359384030245155,0.015494465630277517,-0.011458196592697058,-0.008215957219482064,-0.002570867934319647,0.0006553536149767822,-0.027260060970783494,0.006097730663270143,0.0192141858386318,-0.033650700027351134,0.001262179241260694,0.0184008822355152,-0.02057368899513458,-0.01907197341265286,0.014861853192682566,-0.007888924490076752,0.019340460245642097,-0.019586656609885216,-0.006721190390437819,0.012816442097300087,-0.011676284180091714,-0.0023055073804803747,-0.024284779778521885,0.033203459346209926,-0.005825592541710809,-0.004120337158802653,0.01318903822498612,-0.010002049974752528,-0.005837017810980529,0.019359219567422817,0.0028447405387048708,0.023895691893998365,0.018891805006127416,-0.01559080492085645,-0.0020162837294586747,0.03548815848152309,0.019497918175027044,0.007420953266475086,-0.004956067109234352,0.011863772584817758,0.02930032665595407,0.022919775975028416,0.01067265978855339,0.029250242162321208,0.028399218270382495,-0.010033374520665186,-0.02279422429838908,0.02452633260172248,-0.00275009262823335,-0.010785878022021671,-0.009461699787461616,-0.03055289165239272,-0.028960398465334825,-0.02511214877669722,-0.007900560371806815,0.023185887865353423,-0.03559021701026402,0.015944436618071607,-0.0010755769533520934,0.01946967594679911,0.03059639239797959,0.03317902224605694,0.003877143954902032,-0.016610762479451955,-0.005778669191417132,0.0073448974147226,0.00242119026249897,-0.031684631970781335,0.01802641702711167,0.019946684801809167,0.004375175452753469,-0.02801191245546362,0.0264589150462446,0.02888849581421371,0.034312714459543134,-0.022211516161923357,-0.00609963884818308,-0.013562695707563948,0.013023981580196069,0.006058488874795306,0.02417710282718761,0.03322776736420428,0.01113005906240632,0.0063211436899081805,0.010906635964992197,-0.023430474044548105,0.0015779240936649869,0.01792986113272335,-0.020502404616871694,-0.03313924316795908,-0.004902958378629481,-0.02322783701302159,-0.0034961643413459337,0.028402718397296137,0.00901382559804772,-0.002187900614941389,0.000676959589131769,0.025340489926222128,0.028208722246927637,0.006665791426448443,0.012054567547932243,0.012417851044875215,-0.029952878078014944,0.007328941548930934,0.027751100079581925,-0.011417518352218476,-0.0007915372225458447,-0.03303136006996034,-0.032070583805660684,-0.020070815883634175,0.005637684932238658,0.02943773602233668,-0.020665239286393616,-0.006432787039577264,0.01754422452387637,0.009395566377085211,0.018823502769800615,-0.010869035451230094,0.005041815220719004,-0.023144779873223116,-0.027749772445624613,0.021325917942499793,-0.00935009282952545,-0.018522618045328572,0.01216132464116458,0.0088034641692731,-0.02090857193401701,0.004827869285201576,-0.020666674874389904,0.025905683116832307,-0.031954950682565264,-0.006902367143475745,-0.014175302459525536,-0.007546649501331562,-0.005353781107227888,0.01640595345244062,-0.00010508850173867462,0.007807541160614169,-0.014314116045036945,-0.007284816345101697,-0.0224012733505606,-0.003235248218012278,-0.014618623948303391,0.013996269093742455,0.01209967899489553,-0.025239170591692894,-0.015846295197199458,-0.017521087617904097,-0.006496099602336054,-0.01530636190916907,0.02579011192039565,-0.004383920082272841,0.0146447886331584,0.011668277522093012,-0.030768742614937783,0.02315284073223535,-0.02054270418967666,-0.024740284405005544,-0.01587961519319271,-0.01774040396288994,0.0315669012058645,0.02929766617013861,-0.03099269641336336,-0.015242861414860132,0.009223294766342193,-0.032813008460105944,-0.02888218052811261,0.001337337518466604,-0.02880744143099694,0.01895869202252059,0.02052952535912638,0.025792305034343536,-0.012157905905261395,-0.01987026935094265,-0.0015745516221892242,0.029662396347317654,-0.013374644914127334,0.018717099780070127,0.015134232258847816,0.010652895181528108,-0.03070809857504881,-0.0022121128933038706,-0.02934338121594545,-0.03359547731646775,0.005784488375458072,-0.0015757769562612448,-0.000331893109233157,0.03317259653722893,0.012977268512087655,0.01402769386388404,-0.033213768374563024,0.016065216556135714,0.024752335291952136,-0.0037298292132888697,0.018444836701729965,0.004618269006216598,-0.007290347362819083,0.005443950848155334,0.02888737407270478,-0.018976132207252947,0.005847649278609382,0.026299569569482255,0.012994613998520324,-0.031282480216078615,0.002709926179426829,-0.01193970741306876,0.008540298319522695,-0.001312575347772578,-0.015863733789365342,0.001151978864417695,0.03202712465409917,-0.03481609928124997,-0.019462639931549095,-0.008379970406761177,-0.007025118495253415,-0.0014863827628123075,-0.00021225318089067305,-0.000264003185472185,-0.020674696259279344,-0.004314105208218302,-0.01006348966158618,-0.0095184875041594,-0.003921461217985013,-0.0114888126773026,0.016300435371091014,0.03301105983332456,-0.031233789888387636,-0.005568368264940764,0.03375574657180222,-0.02222359477475528,0.00015898655195166478,-0.00580922123518917,-0.0006440989409175618,0.03199614885978934,-0.03506932897020422,0.004014492062695232,0.004409821536933735,-0.004512754284196001,-0.01671538282168242,-0.003407338160350895,-0.026792322237843873,-0.02408538391052484,0.0309438049278532,0.011980051569208831,-0.02645935163646461,-0.025459567788105018,-0.014831009304180336,0.026012650832783875,0.022974784881754737,-0.014252467370991125,-0.03210964054233394,-0.02939667794311064,-0.03461894974788345,-0.014908557249975545,-0.03069711900816228,-0.012013398724980022,-0.0341260087618982,-0.02166047572714193,-0.013250714916534624,-0.015422546846072027,-0.024672247940217606,-0.024145835737163383,-0.026302343920238523,-0.02592450532731541,-0.010194043087839458,0.022033126581474397,0.02439744371324161,-0.0026448128716747288,0.002569316331928438,0.02439627594288772,-0.01373973249977364,-0.005320047649258721,0.01686546677557589,0.002419738901591084,0.004023605824373014,0.004999936587274191,0.02419949810022426,0.007599943390695536,0.001342360148981751,-0.022672309039015515,0.03526905627057239,-0.00786693303143328,-0.01831813772156083,0.0238937813382971,-0.033905839698275986,0.03562142334641691,-0.00686908646921228,-0.019766802475902536,-0.01662808445233456,0.02761908224038581,0.03307931263924059,0.019537619742474872,-0.034542043709171404,-0.031493397534845036,-0.01066281274503054,-0.01572600954706771,-0.0169939523577181,-0.018958553654588553,-0.007105838794615554,0.0060416292573654,0.010288747242838472,-0.02149413950450786,0.01146068738902828,0.013799866507952743,0.00943963843013957,-0.008553140362760385,-0.02845240370887766,-0.033884108137929775,0.020164157012039392,0.017178382369239215,0.01811908589727862,0.022887703120515676,-0.019335183071455694,0.031496279301689106,0.001802129309614639,-0.017034612135182838,0.016843404211070695,-0.025227285811154916,0.008191331611528803,-0.03497212901851855,-0.014657026327132503,0.023901640342017697,0.0067159967091674835,-0.0024625148752119227,-0.019391347119542744,-0.031723972525473605,0.02173909047070851,-0.0044040534782267965,0.007725211605760167,-0.002420576559131734,0.024987332247352723,-0.02202976989988227,0.0028785535478826133,0.025309795652121735,0.032841687181212886,0.002752509262357296,-0.020426819528120484,-0.02653822183586948,0.027662925939501024,0.03475356525033649,-0.03391814781811897,-0.03355752068504866,0.024433778293780534,-0.017574773920724974,0.028674490186933035,0.02989039055301501,-0.02138990946944587,-0.014809319047746516,0.023078823964115786,0.02166254437548755,0.013832212572114077,-0.006027544757497862,0.00550456352790174,0.026607094221548687,0.02269073523285297,-0.0038801740286353095,0.007335272005503449,0.01039790712875599,-0.03334445754281263,0.005501445374040639,-0.024535834020812657,0.019699243993473906,-0.03569236431243868,-0.01115142828377215,0.03555758787168381,0.033389758531111535,-0.01922227078601492,0.009968915225295132,-0.01845603406223059,0.02918440920827392,0.01939787196136151,-0.009796939304717952,0.0259866922072532,0.020037368014388296,0.008881075414452613,-0.013991288380045515,0.014972591194412917,0.0185085757686076,-0.01442928877100986,0.02622702809228832,0.015058844232787742,0.009636056065608828,0.026223341830905973,-0.02167255923989651,-0.02310939023412641,-0.026508506474149245,-0.016170117884465412,-0.014626444796116585,-0.030416510849028456,0.010098992735790846,-0.035206345301624364,-0.023570056319801896,-0.03363917258701335,0.029097821517945488,0.010408435273262434,-0.014819538246202331,0.0005671869779252867,-0.006751171103368727,0.009004778236975111,0.005042639558385353,-0.001547674108377431,0.011289212793947866,0.006062882084344169,-0.009242451890007069,-0.017562521802114133,0.0034017441129590015,-0.002979401808210484,-0.012795965404269558,-0.014112425109379014,0.017678135105825526,0.02853127945373278,0.008100253416991846,0.0010050721572843688,-0.029121034238724853,0.006511194159230627,-0.03062196590893819,0.02500896242943535,-0.012034066745400068,0.02284109388139973,-0.0006486332249971485,0.001409976524466297,0.017483701313754492,-0.004954441248842811,-0.01603330968589808,-0.012933502945279065,0.01155972164728019,-0.0335047793757886,-0.001955564463544217,-0.02434648596826562,-0.023066859319157383,-0.029205498311830516,0.012641291831698362,-0.02559494080956416,-0.01611465289146533,-0.026640436951796347,0.028775690867752,0.012757448007858906,0.006964072116603694,-0.0013644322497551806,0.021531220920498292,-0.030001323585860128,-0.019283784790006826,-0.015722367560908692,0.02995422334152673,0.020636236608215737,0.008744522378394862,-0.01145346722901397,-0.001973016799043603,0.022525525462766205,0.03553061792462872,-0.010290326474194034,-0.019554216699964055,0.00006832337789026283,0.02963445300053684,-0.03355655150431536,0.0056072701158417365,0.004759979940110869,-0.015360090201775357,-0.013250330088843132,-0.014589396671035109,0.014548420600431697,0.02802704737101118,0.01939549350635058,-0.009991440870085268,-0.02327903189596904,0.03319079473521655,-0.034923295035479654,-0.004378281978502728,-0.016985794704755617,-0.030550511831559105,0.01979923436054571,-0.02978163094774363,0.01987367130387252,0.03468916196425112,-0.020339690230039103,0.019142141944728533,-0.029657857042638392,-0.01947547963192169,0.001227460850928716,-0.031194654126218357,0.004908870690312775,0.009229071294041429,0.02790029154586457,-0.029688220684890455,-0.02339326498227897,0.03269463704399944,-0.0036437308617212542,-0.001351251374809466,0.013915179276781283,0.0031368389723253204,0.01146193088812264,0.019339596512368128,0.018875846642075585,0.010809129512597255,-0.03420468240996597,-0.03090158292014484,0.016944864325689424,0.034473307028489594,-0.007199014995565443,0.008629930914302197,-0.008749469042116154,0.03527214864664839,-0.03292205571836415,0.00003453465678934092,0.0003913506522207344,0.03437549337951984,-0.0024432136276850702,-0.008068099193380869,0.025218850749516304,-0.004810934821682187,0.015801599714269483,-0.009926212292420505,-0.011606494535714811,-0.03294771806809511,0.028310234594348324,0.0021288585639371374,-0.016808537602000895,-0.0170718064635506,-0.032018384294989786,0.024733324316227843,0.016871411059071244,0.033669470680242106,0.0195905353884378,0.004501319875208153,0.002480663652355823,0.031269742743105816,-0.02712854363425346,-0.024338934865761296,-0.026585118879897923,-0.035036625959799485,-0.0323886962404075,-0.03176529517243517,-0.03140059979564028,-0.01736685934900103,0.006089300505544855,-0.012648187304392482,0.02972495510651839,0.012295086865613413,-0.004995729142466883,0.011803297317928889,0.01893635557082692,-0.0006584720062162361,0.024788080896160566,-0.013012495587365404,-0.008510368840454006,-0.032945482870171974,0.0030526114715180436,0.0056495508630909005,0.01165737938121731,-0.01626388726998773,-0.029500330144317473,-0.004563006740207456,0.016822689433657133,-0.028007989465015464,-0.02657059621260016,0.032051868218111595,-0.027072620422480563,0.02056922389813503,-0.02281799205749646,0.011054114872784083,-0.0002830171125804831,0.03005080521662555,0.006687041495437453,-0.02009801453269717,-0.0059022062305860955,-0.027448796672325644,-0.03448761582669888,0.012765880326687934,0.022988148905581124,-0.018355010290427076,0.0024734922769133263,0.02046448821696477,-0.024044877259640662,-0.02720089360327934,0.021819277612579464,0.014863372801734729,0.002407960433769292,0.00905719165808605,-0.005838524957843205,-0.003010819914933953,-0.03459883988567658,-0.03564385970636647,-0.0335037245703316,0.02266918490864092,0.027671367934571617,-0.00616985478493394,0.02929824143269988,-0.008130342850502435,0.030984617188088856,-0.008097235293915261,-0.020149790992090987,0.015060533571977036,-0.03125922267236926,-0.025535937801248708,0.00535906210639793,-0.014861847286777464,-0.0227697148127867,0.025190758759773356,-0.02766621796938725,0.0007725672038065706,0.007056734477295885,0.02126934233118104,0.013117561799047292,0.004626866267663829,0.011180856870568565,-0.03477781757778009,0.004801925449797233,-0.027841583332093855,0.018444850315031243,0.016858446036587753,-0.02600950690795191,-0.02508504154963101,-0.00925670580650476,-0.01817994617430853,-0.01358730578905376,-0.023495965977239193,0.03489397229287042,0.03305510228924939,-0.00787687803590401,-0.03026574759882012,0.0195675534375466,-0.02485848634450263,0.03460952670752679,0.013372228675478048,0.012517852164279551,-0.003008739537806372,-0.0005996150787738949,0.018630399880102587,0.003014221575379769,0.024523972103584445,0.029323036716296227,-0.034799938090727615,-0.021631713232878633,-0.03453343799001364,-0.03398636341343843,-0.007620482152356049,-0.01245044905097246,0.008739500013341624,0.004215992975426852,-0.03434598159940678,-0.01843707471705542,0.02445673884299962,0.014992804898626644,0.012643393193167506,0.020393717600560843,0.020814383256053448,-0.03519166686266728,-0.02428103605621005,-0.010397481125601573,-0.029874247691931317,-0.03154574025770603,-0.006812537260106236,0.027667231108306795,0.002561453881151539,-0.030136570634265603,-0.004403249335322261,0.02114317146068729,0.004418973171401386,0.03345389063900761,-0.0015568864459292314,-0.02998667515191771,-0.007272668545935921,-0.009221965716380152,0.01625081164840983,-0.020010988148253223,0.020178037289599833,0.004264703997533793,0.029706479889252596,0.009378523727805864,0.01283176855928013,0.03306035206547352,0.01802898599873177,-0.025159920069884323,0.003936255866648378,-0.0022656004132453403,-0.01129181700671189,0.028282319739163495,0.014679106437434718,0.011972489620871683,0.010162547489613268,-0.023064955458786583,0.022287201815402793,0.003718432692295597,-0.01426573779690421,-0.010951719946908814,-0.022996977485381685,0.013584258624631827,0.018836758832040085,0.020147457727498423,0.03204095126053984,0.007380694734971875,-0.013708358750738505,0.017701828323378438,-0.03219931646914964,-0.02844598192804204,-0.032946059855623135,0.02613716290251796,-0.011366983189140027,0.026809115068597705,-0.020610393784916452,-0.009578752804600934,0.01855619728216624,-0.01692694706550527,-0.031582058929371284,0.015437219492776336,0.005814459936556431,-0.027611033467477335,-0.0035027453389861254,0.01912384254291693,-0.0147402721969133,0.016376902037969314,-0.01974847189096591,0.03315512150557853,0.003911428359880009,-0.001724271664159116,-0.020681602342786168,0.008091985575626355,0.03435050204449824,0.01615954627333814,0.009653849201093847,0.0159544542652318,-0.0009043756936257184,0.03314170582569041,-0.031412527315441086,-0.01953962784974637,-0.013335986116423566,0.028073905248558902,0.008488729378182888,0.01936762827834028,-0.008143418859545646,-0.02398363352596698,0.02750053042522715,-0.02640082192609751,0.007474121776783908,-0.012807840554888244,-0.02610973851785086,0.014024109911845932,0.0328627155888495,-0.02671105154752172,0.001843452638271681,-0.0008410276068629499,0.0315665852545106,-0.01827858293310006,-0.005045356903749614,-0.0011881012413304595,-0.01152237940293748,0.006555301048137903,-0.022318702194799415,-0.019904867403926225,-0.028503234077550715,0.03228515479671011,-0.015216342805240151,0.03523572389424011,-0.023796046799788955,-0.029247604016453464,0.02246185818265624,0.005175194660988161,-0.013078943864871169,0.005878623209613312,0.014699667183299923,0.026738342503138113,0.024703145551499217,-0.029441248433548783,0.02927968677359709,0.013782777922417236,-0.021440522276052136,0.0006507569673140576,-0.0221773239314447,0.023472419604345124,0.02518249711186011,-0.02708595704040857,-0.007008675075829505,-0.024436526905779403,-0.02888403685331769,0.011891026567159709,0.016791349765482973,-0.03445817719532881,-0.0061290496131704494,-0.008529886463430732,-0.03472336212124456,0.020474960608151127,0.009523944628051902,0.010185209691979252,-0.03427549247529813,0.030715755570501435,0.013994486499070327,0.023723179723639035,-0.03150553489336992,-0.007116953214295681,0.025825327453837317,0.03531874310454228,0.00692139927438519,0.02694058203027215,0.00957875952255749,0.028613698921611197,-0.02331519438566936,-0.011301250646389236,0.015458770226000965,-0.02118859036719619,0.010889207972142307,-0.004826381215114708,0.008799472703753489,-0.03024209988410287,-0.020087538902248504,-0.005343631888979919,0.01947200190309967,-0.010222887210183796,-0.027196779868468673,-0.007787608637937815,-0.02982287226019401,0.006738978955669168,-0.00535635878830874,-0.024057580744942717,0.02417549489109494,0.03527022443702127,0.03266295431723906,0.02754012480073811,-0.02510025141639035,-0.03500026972884254,-0.027624052985701125,-0.014530879176460166,-0.011425321761101528,0.004057679074839594,0.011442350813222472,0.0109572137140986,0.034888799277112095,-0.02209410552935073,0.00991599882482582,-0.03361737270758144,0.028703446112683828,-0.021539562994183564,-0.02460797617600309,-0.02768656113228391,0.006001841765016613,-0.004265251210012373,-0.015305522088716416,0.017727559937786408,0.03566144702880053,-0.033557963240932374,0.014798879282632424,-0.018512342866215472,0.029831653592991975,0.021594602058223736,0.011272186271513817,0.023204665239321423,-0.01158355519153539,-0.03422765024483763,-0.020653820146487294,-0.010914843223982567,-0.03567303604464717,-0.0064065763980239825,-0.003069347950373849,-0.005068503276785999,-0.007956652662552757,0.03474566400049717,0.034845728820983385,0.03472520210540922,-0.010434128717934792,0.032576019871649514,0.033249253060815095,-0.023654596974874043,0.013396923387745958,-0.03321674117825955,0.023174439367361285,0.025977164077269244,0.027394858924027835,-0.015011652097566004,0.027052289741512383,-0.009556317035072044,0.03477795726800635,0.0228404650070807,0.01342380447401384,0.01579080426947535,0.027867487836479674,-0.0014687440447221922,0.02524443255672716,0.008360274009959312,-0.03060360579397571,-0.00931210632094632,-0.02224093883474132,-0.0016959053429699902,-0.0035381118270294207,0.0024492177457721906,0.0331765790896401,0.0028730637690275937,-0.025073770281542923,0.01416346612299603,0.035451763954330626,0.0029592216407781854,-0.01167157877176566,-0.00993209902648045,0.018994394970029145,-0.030851963382789283,-0.029574171940083792,-0.018499941522195203,0.014094407305605836,-0.02768845882563114,-0.026680183588621183,0.026527356378050607,-0.034215655264184144,-0.01548747848261148,-0.023536179145984906,0.006376524512623286,0.022735255854231026,-0.0009182320465874264,-0.003195523851943584,0.029701424367395743,0.028511922377533805,-0.01804662949257656,-0.01745927717439217,-0.02884201097680702,0.02351563606510912,0.012638739874618957,0.014364037041193456,0.0018640541567755617,0.024515724652961396,-0.010166022313867984,0.016233253374546758,0.014917849438074863,0.0221066112640756,0.02274027320458559,0.018005844676447613,-0.011413610468099793,0.02055230459946617,0.02819278039911016,0.01162540727913957,0.023863013699605716,-0.010053956428562645,0.02872451438850669,0.004263400796123813,0.01925031697628326,0.01959509604454939,-0.02340286682339248,-0.020779293265422223,0.0018547415004852227,-0.0006148391023664337,0.009084338086985527,0.019960843053653227,0.0030562751153621406,-0.029912660758512986,-0.0044129590408078165,-0.03549971732464712,-0.005827171510869485,0.029548680342080885,-0.01960492367343274,-0.020616141004317093,-0.014255264958564502,-0.002820306857461166,0.010831547580367938,-0.0073222827982570675,-0.019129637517320264,0.020019438233529648,-0.016612476028028986,-0.030013954662535248,0.002503608437168507,0.022453628244896127,-0.01656751197283736,-0.03283788709649669,-0.02780913874791586,0.003704042985805782,-0.010540296891501329,-0.004386457714312994,-0.018222833524862283,0.013273456832990908,-0.02957858697391047,-0.03500307812419691,0.016714764927454037,0.00533302177440452,-0.01495376859385127,0.011238945873601108,-0.033074272644055935,0.01585831217577792,-0.027599001751049484,0.01085142346988012,0.015867736463150282,0.010543459272299237,0.01979941798174824,0.00738159192304455,-0.033200766663933325,0.03117539510439088,0.0025766005786744955,0.019745353126127334,-0.019556579559767275,-0.034713084668388704,0.029357894534511264,-0.028893158175156617,-0.009630806428714958,-0.033554626564932445,-0.012825974055959597,-0.009472586976627655,0.01732823292113575,0.03252472089567783,0.029605698443275846,0.02708494312630058,-0.009366735449414083,0.01979167594095905,0.013671293310574388,-0.03296232536618122,0.034395722171555884,0.022593662784043685,0.0023119145439981018,0.03326981115520099,-0.023959143973873047,0.014555930146754284,-0.01579868291496987,-0.01231290581929943,-0.026534786380232163,0.0034275656317566267,-0.020507644089865495,-0.0147706302907428,-0.013554606482222998,-0.01123297950471044,-0.033100091198731994,0.02258453777751825,0.0001058116185833971,0.002556814504030495,-0.02737392376789416,-0.02115744047044386,0.019840170136710196,0.004558196840431607,0.02542140949142841,-0.03089871565215864,0.004854732756723816,0.028361341639409968,-0.018359947843010347,0.02918310693474077,-0.0159690754661816,-0.024322569404739043,0.013987471344083416,-0.016110041980202255,0.00017355686035477186,0.027306860326820157,0.02948614405152042,-0.02342872523169332,0.008595462893175698,0.03471029470775183,-0.004633809370938775,-0.009545370841351968,0.007605410428530281,0.02594855537557617,-0.010190549213206848,-0.03339990117162322,0.022704981953338317,-0.025789066379761305,0.002636508436759999,-0.02015891152357774,-0.013271786024956014,0.007576855311722176,0.010906741661358438,0.0064678429296289724,0.01213811820041756,-0.01498423693656468,0.01558090579880543,0.0157259069547177,-0.030908325373788147,0.02898547804429509,-0.031252797290114445,0.02671126104071288,-0.005660828868955817,-0.01890507824728847,0.03185358814835369,-0.010914398138946327,0.00957990245726502,0.02600879745022907,-0.0013501185520784637,-0.032625862068699885,-0.018950174539995143,-0.0296839737252749,-0.0020107888245339475,0.012560460377726054,-0.004592506934840271,0.03471053008670946,0.030029556079584213,-0.024373898895767892,0.00832828396448352,-0.021890223390368724,0.029087899383933677,0.0006151122639708184,-0.030439664946859134,0.026732266680633342,0.01809087561457908,-0.03272078293004832,-0.019717091137461784,-0.03279938155049971,0.004707825179272755,0.009776295547735354,0.002034342026260072,0.02173219336735383,-0.0006103175839084277,-0.0021566331842975475,0.03250650173140417,-0.029113378195313976,0.008152557857176293,-0.0102287183118677,0.032971954990775154,-0.028917860415734756,-0.00935882739748831,0.029117168286955236,0.014360181408577706,-0.004194448900331146,0.01834906717572518,-0.00003442489325820863,0.011685412695644014,0.02564529169692567,0.004853075622397264,-0.028538352201000743,0.0069729287659220235,0.017116819282018164,-0.007637071702519101,0.031607427815175046,-0.025973236027573857,-0.006804724922515319,-0.014111843978561227,-0.0020640047561064773,-0.01283702473800287,-0.000016494754330916017,-0.025397899548037377,-0.012059042332254253,-0.020724067790357303,-0.004050886119419429,0.0077146277828427715,0.0029291158034991938,0.03365067758283166,-0.0058133364556758015,-0.00608704950201858,0.0009384624614358558,0.025173442781519367,-0.02376542488747811,-0.02000591260812823,-0.01595404595707485,0.002839991043319459,0.022617044682863963,-0.012361580530908573,-0.004089697944908974,-0.004818246531502694,0.021579391750523987,0.012521261126565562,-0.014547610601220465,0.02814732326340487,0.0316947254962263,0.01871710863484355,0.008574258245986184,0.01192288071940146,0.017539628305995807,-0.023776025094972817,-0.025339781743374652,0.01159942651488842,0.03503203282365998,0.019373139447299237,-0.02322422272388767,-0.009985045073041416,-0.019005483101867827,-0.029168546261059976,0.010875415499074144,0.017234769938767408,0.004112343870778315,0.028267717520792532,0.0029507884571887827,0.03185369106575775,0.0018959443923734704,0.01712962658468277,0.011211281847589488,-0.020982291746181728,0.03338089357440885,0.003554933955333857,0.0107576977425042,-0.006196612727986946,0.003422540702782695,0.001779538791554111,0.030665305630276266,0.02184268966313252,0.014774315594474272,0.00420056632098631,0.021085053959094786,-0.035156315773898564,0.02826147714898153,0.025125315751859355,-0.021981274209785955,0.029753726757745444,-0.00888914541638067,0.0004995951661066825,0.02200256964133032,-0.0004161883619371656,0.011540152948403937,-0.01587491891956705,-0.02155163546518757,0.03208352857216201,-0.009258729813661284,0.032115019223012714,0.030619358916896905,-0.02931357711417293,-0.014194090960571957,0.032244523080863285,-0.018066405123916503,0.018067826209439572,-0.003347914677288011,0.003893961597566817,0.03442141917323879,-0.009723764521873636,-0.002325722854635899,-0.02953052341892478,-0.02899876156573498,0.01969408298393422,0.017527725962429574,0.011524077067127818,-0.01087231190094581,0.023159172763285732,0.002027833883426311,-0.01885862432799661,0.03193905456479061,-0.023669355959049097,-0.02309321830559268,0.031018942258499715,-0.01250677863012298,0.01623491761725117,0.012119331469601452,-0.01767383528322554,-0.0020022916103519875,-0.007202033871135272,-0.026753209970131815,-0.03269428418564249,-0.02669994736341037,-0.022805466365798197,0.010653815183760594,-0.01027747462698934,-0.01601027682760801,-0.035153454717666635,0.0003688191252550071,-0.012538608989301717,0.012590247680934448,0.01594220608381932,-0.012239964005380776,0.01555598904795842,-0.01403043355276772,0.007671893036077626,0.003880902578074878,-0.030586597082056625,0.016506847775556804,0.01229533148643734,0.010653347732964558,0.002361842420558244,0.010957012684387611,-0.03230359020859324,-0.0066005975635223015,0.027384678869543263,-0.0037087588187642503,0.022919276464793775,-0.008325540871463769,-0.020319326861694256,0.00926807763886322,0.010678792037579314,0.03025930156099335,0.008351597083946886,0.030647567887133936,-0.02068692908170525,0.02238432315147731,-0.012769686619942742,-0.021783200390154245,-0.02881841218802927,-0.010687535237473489,-0.023200988241373448,0.031078016989416563,0.011779857191310745,0.026409765854173345,0.0036487987695457,0.01473880645140086,-0.021359677130070125,0.02113436719804307,0.006356400182095122,0.012000555131127992,-0.02129894284951777,-0.014528396046168766,-0.0076519368557612655,-0.0206504378838332,-0.009677101109628064,0.0005878361857548017,0.03413809458165122,-0.03315199661248407,0.01592638779369547,0.02922278934617664,0.013243372099084312,0.027641866345784027,-0.027429247569288107,-0.028199162601279335,-0.006529787712476809,0.007846518241278133,-0.026661139786999934,0.006913197496443035,0.006918563396723046,-0.02105142328473032,0.03428985873558578,0.02528217940615783,0.018040342075523616,-0.01952619150436563,0.03159568543139292,0.027744186761338305,0.005659683756727284,0.014034701390556207,-0.02752187891411273,0.03201911658564653,-0.022161581641632302,-0.003737815822682969,0.024022951744834403,-0.03329428938827036,-0.028510111452285325,0.002141882176763907,-0.0010220889819912496,-0.0306706760423135,0.028553874008713065,-0.022093342798031164,-0.012461865333673055,-0.01924939115729399,0.03207995474453927,0.008801011191398027,0.017525995831393547,-0.004532829551399491,0.009152114471965005,-0.0030451244545271275,-0.0254653223747247,-0.014118716098371184,0.027417972556976908,0.01957063470245303,-0.023155084143001763,0.002945289650176375,-0.02084474923927583,-0.019086839095623347,-0.003735055652313371,-0.0068278865178612105,0.03112474805748119,0.020822723057261024,-0.03543161986232419,-0.008038893869246833,-0.025679420634169357,-0.0119307864278184,-0.0069412495606011905,0.015458863978720122,0.011360475184064245,-0.009999503321292971,0.02748275334552988,0.008258667022918519,-0.007175870383734573,0.016474006846427997,-0.018555533239298323,0.028686571550695372,0.024965231315628472,0.002890830822815986,0.03106562848311413,0.01235413831732722,0.035477893323320686,0.035628417668745804,-0.0005305107415276428,0.033931827161290076,-0.012910028304113062,-0.00410958135366616,0.01934847668837239,-0.014989178544804495,-0.0063710288763912624,-0.003928751459517606,-0.011151229395359633,0.01620888962543368,-0.031879224834175185,0.008290743991737806,-0.02841746368532153,-0.016711078723096198,0.02426582483712371,-0.012499248922335084,0.01195148658696426,-0.02009033078686906,0.025108257133591945,0.010519258780263815,0.003066615074244057,-0.012790860836016596,-0.014131131968906488,0.02971855988255978,0.024693910218193463,0.017004427404106667,0.014969286374371574,-0.002798442881945938,-0.024591856120213668,-0.022377134554104776,-0.0005303605155594221,-0.022657002894004612,0.032996083430261516,-0.03444541891930475,0.030708510967362185,0.002748029440098873,0.01366690935971731,-0.02907055258039984,0.0022701123257925643,-0.029428208519135253,-0.0005686356960756186,0.0001763489753064812,0.014662069852778415,0.03440307443528651,-0.014884381881227045,0.01950095216806332,-0.011802590151954156,-0.01630470666566849,0.023443043253933676,-0.005368783332412579,-0.03255494934763527,-0.020330251539374764,-0.0012905465821914236,0.018026284921951782,0.031636965942002965,-0.00688868805564502,-0.02865877487127615,0.01654272827907853,-0.00011834795697029944,-0.011176847635514835,-0.020308098006326665,-0.0354005110975106,-0.009163403212762846,-0.016619864159489683,0.035556295345929745,-0.013353496324660983,-0.018066474281601574,0.03247139908144714,-0.034193425018529684,0.024298843102760505,0.031798798107840504,0.01429346726054464,0.012981030231995485,-0.00246010296436356,0.022861057357311854,0.025271742389726196,0.014190435276180025,-0.012322089318498288,0.0320265744647536,-0.019014219068964434,-0.023343421595286143,-0.003792151533768232,-0.03247807730690923,0.022463783479421795,-0.02286690036243707,-0.02065908207971619,0.027573669684866936,0.020677986758888843,0.011658838944689824,-0.003636472557992154,-0.033218288042294174,-0.029882596885078026,-0.03297350177415146,0.01862598425779527,-0.016931886449546588,0.026620461525054658,0.002446376444389893,0.010616003986251808,-0.0008900516548864604,0.02451850239481826,-0.012159966258130156,-0.008314886016170427,0.033396052732035386,-0.023916002472713176,-0.014889455269604435,-0.03141477409638698,-0.0073885628053399,-0.0027198343065444816,-0.014668381206840045,-0.011547799620204184,-0.0035102815602941415,0.032356136360384535,0.002909320135415117,0.00825266473487217,-0.004594502089798169,0.013264294602868154,-0.0106758540351084,-0.01405171093531378,-0.026262923214279636,0.03263671858564651,-0.03465024003150193,-0.03160467718947958,0.0313319179902931,-0.005946321208556871,0.01841086331325613,-0.016900029547409625,-0.033155671547720346,0.019385732912644067,-0.010957311765506832,-0.029323195415056583,-0.03022424226164985,0.008490851690775271,0.01947624690415782,-0.011491993783843977,0.030272701152507353,-0.014237586596436782,-0.01065618415874284,0.03337045450689506,-0.008645869714360082,0.014850810188898953,0.03238063395372767,-0.02949120065040124,-0.031131270952097143,0.0172861491389023,0.0037495564881336874,0.020726924480681884,-0.0021346316615850416,-0.024564830410458097,0.00912352189588586,-0.028792426871660136,0.003600697231294178,0.035168315221619215,0.01241326032000646,-0.0138864200607538,-0.02367583854190845,-0.009606532959720106,-0.006334203312876423,0.016970003281040272,-0.0016028422429500769,0.02769762137091117,-0.014648729349865098,-0.016632614889496505,0.013673710781570056,0.004258011481309186,-0.018253312517287693,-0.010708498419711047,0.016265362104410507,-0.014804689964978444,0.006134113871621043,0.025326313958191866,-0.03402697123997687,-0.02675802060253783,0.015662888019413006,0.03153992305373074,0.01598216075027243,-0.01404384622335245,-0.0013125512058962535,0.03507036551405632,0.03405981419367286,-0.03058638186267604,0.03051986251161426,-0.024785662833491436,-0.0032325810189950746,0.018055395983872465,-0.02507185243306372,0.008503523983804051,0.025464667230923964,0.007518828951414744,0.02807667176881437,-0.0014072301296055648,-0.025816707275966327,0.03378879968713765,0.007150685485095135,0.03282502764196625,0.008677098844660093,0.02996421709694086,-0.02478677028131921,0.02833128396986037,-0.007588667352610514,0.00687482583213074,0.02349651301369858,0.0329902204199197,-0.001037028453176471,0.03542784434175407,0.01865525721692242,0.02898298680353978,-0.015279680156932086,0.02858184500499572,0.0004130288115622299,-0.03492362190194436,-0.007096120671751836,0.029004116605778178,-0.03564159262878105,-0.004915339859372789,-0.007153524938222425,0.013790830000353242,-0.018574763544989006,-0.02641634317820426,0.007990261979793654,-0.005395994121718522,-0.00674790140488005,-0.0032813014985680275,0.007797514302799034,-0.03531841383194328,0.020374388685548847,0.03544558799299247,-0.02095819027663207,0.015169981890820798,-0.007473811147622387,-0.033156050379249624,-0.007405757533297624,0.00036431032465134017,0.02440198316076165,-0.017458088339330793,0.020454581147364592,0.013481154711862684,0.0008006974011356723,-0.01927902928776039,0.014217667955224257,0.030596471725178875,0.00024107072106773725,-0.0001369288551570149,-0.011845761698323633,0.023945799865561532,-0.029641243267384525,0.03096240869906277,0.015878438802041334,0.03303164874210519,0.020213781945384944,-0.017721648669632748,-0.0026197655241961162,0.02032765704233852,-0.01696979773502042,0.03405802386583521,-0.002675579714407405,0.033522985137958185,-0.00976417180476365,-0.027532727720460913,0.027637218156423258,0.007596738099758662,0.02296678879074595,-0.02249415700701363,-0.018253146191648556,0.023584045854893425,-0.0023360365177797077,0.013881966423320057,-0.015483651306985048,0.03284101235018441,-0.0018374056624432314,-0.003511994108882323,0.016923806664527787,0.016864998081907067,-0.017716865408636658,0.015568240750500128,-0.007275891503850132,-0.01542146853464986,0.006661335706925805,-0.013629900658856501,-0.011257137945336133,0.014884334670461232,-0.002491282258607855,0.013269108535792079,0.028043375679802886,0.01656801316442653,0.01286711510833464,0.014261685721411272,-0.03414364377671236,0.012985387209186613,-0.003024565905889453,-0.019083459610927993,-0.02558972113092765,-0.014383673874623325,-0.031970486415935945,0.025294220864120788,0.005114263086605395,-0.0247237114792167,-0.01176755201309406,-0.013663701100169059,0.033145556510705304,0.004636636985200604,0.032364771844358285,-0.01897771709565707,-0.02699894421099228,-0.03331430830954491,-0.028862021485807264,0.016789576545930295,0.009675553747262236,-0.019005412841061033,0.019341703383440143,-0.010250101958404836,-0.0036894374518551664,0.013312541755022101,-0.020520302787665003,-0.025421888380186053,0.030652798794464687,0.018754907009050192,-0.028894469473648737,0.034952192848004625,0.026001920693577634,0.009201430855723142,0.004306509060532289,0.00658399720754509,-0.002724089757552421,0.030437530185623184,0.0328050663574506,0.01757949197769226,0.008679442652369543,-0.012168475718212009,0.009435571036315581,0.032809806921148724,-0.027824674969915558,-0.01456132413237602,0.018595939353065857,0.028770781087198032,-0.0010314751732136051,-0.011645562223495609,0.0012579586520197255,0.02942898640067026,0.00351463171111312,-0.019236126441633635,0.010772508219638757,0.0339556058037497,0.02950571993600406,0.022617799877301004,0.0013327664544305856,0.012845016583299042,-0.012797646172925397,0.018305365844664807,0.027455659212721403,-0.0329685712736302,0.00037024627907612047,-0.025214844476850802,-0.026275282450985434,0.02458432782350517,-0.021066416075650383,0.010646819560480253,-0.00901770081297014,-0.005276295052007794,0.033467503196826155,-0.008230556818535142,0.029386672114051174,0.03348049933731569,0.007008439260911796,0.02369013126100352,0.03356154461917789,0.002240535479887738,0.010145723384335502,0.03472339457862646,-0.035196948110247504,-0.022715031766208104,0.006459113074090862,-0.006079492182366283,0.010498672015706199,0.001934290602967684,0.028273250214033138,-0.02033364131589479,0.02863264252444979,0.02735028078842139,0.0167392445654432,-0.01384212023854791,0.013310538259068198,-0.016753627220224006,-0.003154126063719105,0.03139053356701792,0.021806196284193533,-0.028667917867645405,-0.010071857966639392,-0.020558985994127917,0.03237971095711485,0.023139605252631243,0.00597592789258067,0.013178722405955036,0.011548573873362377,-0.02033906129825122,-0.018595085715833865,-0.03244301717621551,0.02819000129904619,0.01624185508451249,0.01348254259115605,-0.010582508031988618,-0.0032345100603546626,0.03448198617773184,-0.0011224349634719407,-0.01951995948978576,-0.004609831019259556,0.028126656079772532,-0.006868857692946912,0.0010042566840864587,-0.003296252838874957,-0.010722434611769374,-0.015491547661084652,0.020987254760284207,-0.029487855680423232,0.023595238986163003,-0.013190161912560262,-0.009388874063056772,-0.012540335577791117,0.03431152033237624,0.017774422578778815,0.00278869106482932,-0.026698019765239476,-0.011264653132407784,-0.018051747580995377,-0.00657639950014393,0.004094390226669886,-0.0038768170531813056,0.0035773922664937563,-0.033792891511074036,-0.02055615606069172,0.016057370080994067,-0.015843377108086074,-0.008509358109700198,0.015334764701121252,0.024981299405300642,-0.026620928306040816,0.028366597456105997,-0.036499167835456724,0.006141133636356089,0.03154854562335781,0.01640542632312877,-0.029635147110358872,-0.020787334574568148,0.003323714696450717,-0.013051382674067209,0.011482557426570986,0.022601984606897815,0.01445671504349818,-0.01721720036912039,-0.03277851017635206,0.007898795579795719,-0.013159586531225988,0.017321512936368032,0.03322287222840973,-0.023374562093386595,-0.013513845039247732,0.022308794930964184,-0.005888713852760923,0.006862666925908018,0.034226251713839674,0.02730696880907436,0.00523551556569999,0.024636840275912546,-0.02940204921199052,-0.008808273733816192,0.006627398779316908,0.009057719912182856,0.005609966863730669,0.011116714321141932,0.008731829133271984,-0.0035224279356899277,-0.005294544970961417,-0.032615767448385694,0.006089685679147455,0.022748068443027826,0.008021112154777202,-0.033638345674954606,-0.031410687744340096,-0.0016323856596327684,0.021005222800777892,-0.017807905285529852,-0.01395920904082008,0.023580648348077667,0.005130389871818553,0.005927493492930465,0.026587848308754377,0.02158699517057914,0.02542161128091457,-0.030813517319895033,0.01959508878107515,-0.004804346124513342,-0.031055622001365347,0.002417348027077818,0.009550947808475967,0.03897047937105699,-0.02354888192859948,-0.024140059961870318,-0.014725398626215285,-0.02833163271191395,-0.03239505477092261,0.031140579089479106,0.01854042109964347,-0.014404116965438588,-0.030774692106419723,-0.02367394967464112,0.0008239116797557403,-0.018407444449802766,-0.020989602886845846,0.007587296907608959,0.007549549440464685,-0.018636524493836414,-0.015192019747547622,-0.014466383841977943,-0.010458193272943983,0.0017497106262140542,0.005029066295694614,0.020414729084656878,-0.0017409472519030523,-0.012325063702132886,0.002323801891550644,0.03646784525928774,-0.032759225024155916,-0.010034546282817193,0.010852019562033932,0.03081763649687719,-0.0008333571564939814,0.003934061403188229,-0.03383903248841874,-0.002162089201431255,0.006808128367056989,0.006230754026413992,0.013970106403002253,-0.0225089591518317,-0.028821145414664802,0.008366888402765886,0.016328769189067508,-0.00008388093309505449,-0.032657628242286005,0.016621031277626337,0.020482406505362528,-0.0031045233449073523,-0.030998649644572322,-0.0031105277769740646,0.01818667425321297,0.013154026462138443,0.008106661430661693,-0.021068325384228256,-0.013816904191117136,0.009802762722620784,0.024390561346771124,0.02472497021005058,-0.006728252401828084,0.01487761003256194,0.0012153089866564443,-0.018187869511917122,-0.01914248174296909,-0.02371010708728298,-0.02561974446114711,0.026251818924141183,-0.016049934020138566,-0.039300602563858686,-0.013292714400749174,-0.005050820974174106,0.02878035460369359,0.01474034464473252,0.0024518768576861734,0.01940481550359236,0.01767000150645605,-0.02033267300156173,0.02118980579648644,0.024297528535328256,-0.02447203041258696,0.005862389393867921,0.026452918158660358,0.03517349993695586,-0.013000823308592598,-0.020317562482259043,-0.023302548885185285,0.017090271298016217,0.025462336629150092,0.007372793355758296,-0.01928709331490612,-0.024871592557170523,-0.015938495759839487,0.00184601345933612,0.010427686426289027,0.013437898956285114,-0.025836549106442314,-0.009285421568647399,-0.004248423290760724,-0.017763947420515288,0.0035027560707156197,-0.008552827967241106,0.0186861055341788,0.04005608795081484,0.036661314822656076,-0.02896016798615384,-0.027214579654716266,-0.018829183307498394,-0.005568783108308601,0.017401635714722603,0.02955360671468795,0.027592350043623575,0.010210241704954378,0.02253982445222475,-0.013355490413131464,-0.02054510205944708,0.009362516452102797,0.03515308670100018,0.023222550916427668,0.019018082079434142,0.025353431904756214,-0.018259954324851557,-0.022344486797856885,0.0010356117909067555,-0.012418807811134382,-0.02310617117434912,0.03650054630777905,0.004457280295194435,-0.03464532984682611,-0.017044612648833963,-0.003450569483277998,-0.03166854441687375,0.015027058342674345,0.009522737437304366,-0.03088996100877017,-0.02962525388235122,0.029264708142746905,-0.004586431101072387,-0.009866997991700287,0.0318580095227791,-0.01866649847475446,-0.04517315857655064,0.032115429815283224,0.011037674899814876,-0.03007013753990926,0.026426095122680432,0.0036430134897280316,0.01508615172654377,0.021508623868998922,-0.035149762014087135,0.03491716471994947,0.017809650309734824,-0.03099085050068923,0.02802776315310346,0.03355759442081692,0.03397873968395125,-0.0188170526034355,0.02429730346653394,-0.0048516255479535905,0.003312591511243193,-0.03266568774796492,-0.008930852295462012,0.019797104715007386,0.010928044805654789,-0.023555676970446672,0.013116728135537875,-0.012490313101292545,0.003926050852538976,0.0050739344920285225,-0.004425487379000289,-0.022158994102923754,0.025849004928467284,0.021385185967868096,0.030634249764169005,0.01710165675028212,0.013419628798697437,0.008056678785762026,-0.02480308334235386,0.0032951462065293918,0.017190561625390947,-0.014248831414322845,0.03505951181574804,-0.02422082313322747,-0.01500499301201358,0.034261578013723606,0.017841190157268805,0.002537928457828426,0.02945838260292433,-0.0024184578417989016,0.0332115839902267,-0.029402168612498548,0.0189797016653903,0.023411252093047445,-0.008492250205899849,0.0328030007742141,0.024750195091120482,0.0060028696372780065,0.024541770411891383,-0.017201463745265398,-0.029474377032303635,0.004040565281035163,-0.0093406234418629,0.03284368585115489,-0.0011334666457031577,-0.016748387834471763,0.003876405626984947,-0.015329545461736658,-0.012991415270466853,0.008124715795256846,0.026659445764465776,0.019455150668481552,0.0375995136645016,0.016436232638096283,-0.007710474006384349,-0.009466950492322728,-0.007637388844917764,-0.01474297110426342,0.0023179931685989694,-0.007249839365175577,0.013783257191553879,-0.002781448654035572,-0.0274657502721895,-0.03587141433776972,-0.025775425254474304,-0.027269953242307236,-0.028321107034068156,-0.03191918034392232,0.0001294059769411838,-0.031237254222384585,-0.0006638389361366743,-0.013916954577590498,-0.020639257303579586,0.015480701716372273,-0.03315926706738967,0.027928660265041146,-0.030763422967833236,-0.02146398533142267,0.03502318539046465,0.00641318729711359,0.0022861061902935036,0.02138389638845482,0.025637405125624173,0.006861528358994564,-0.014708054143964889,0.019302017819687187,-0.001876801712749396,-0.016043370121693778,-0.020691099795907032,0.03297484099609892,-0.016009099580417283,-0.01954823222933237,-0.030440428508984926,0.023931973025958193,0.012093167489065613,-0.006531767909782105,-0.009332194755405763,0.012117401339958714,0.025775208550093496,-0.007672699393797907,0.018910522274194003,0.01845184375052616,-0.029410100637716152,0.010400917394532416,-0.0030298319978326145,0.0030884506561503185,-0.027552230748097758,0.010499223748806203,0.00296700967508449,-0.026975758082586208,-0.026659833169230752,0.024089395662739262,0.025676319577079228,0.03401762109703864,-0.009462924001853858,0.026114005844435288,-0.02580710693374887,-0.033778763838081184,-0.03076207922742247,0.026008399796578208,0.025639068808103262,-0.024191342008548555,-0.030006816606341625,-0.024871144311776658,0.014171344841499092,-0.002083348405310295,-0.009358916669436276,0.03142747663069651,-0.01756684687059536,-0.028931386809585936,0.03385054049103442,-0.007540233437506122,0.022553469398072973,-0.03746514530082358,-0.02626016447540356,0.03834399540078862,0.026724373933631685,0.012016955275509398,-0.0021122206635088825,-0.030446619447881535,-0.013560117586617066,0.007721733883262708,0.006511727747344091,0.008170290338568266,0.014992389980644878,0.03323093222975739,0.01705650353198702,0.0014103911301749893,-0.011223968283300164,-0.03735207568939569,-0.026759967371293696,0.015329508684233198,-0.02234424984340738,0.006489614471262717,0.02662922266994949,-0.007855701646506024,0.028274430719116447,-0.033754620063122354,-0.017967032421493005,-0.0080914125510491,0.03203357305209292,0.002433001008570749,-0.014318901519943701,-0.023805194743758026,-0.027237731993516652,0.033572202665361976,-0.02821684096712287,-0.015228161212713184,0.028004319925278947,-0.0032150471665389744,-0.0026259947441140555,0.03370794317162419,-0.014553389467850132,-0.028897557407628477,0.0223965599028112,-0.00855074058499645,-0.033422735353537715,-0.026771005549738127,0.013202182362910814,-0.004637065998241665,0.030729722613897763,0.025037960809253666,0.008390385860761965,-0.018281848879061424,-0.014013926792702521,0.007913509761655634,-0.01670295958592726,-0.02084866842854976,0.0225261717392888,-0.006753956942133082,0.00037923519902240545,0.006610102502585642,-0.023302398969745126,-0.0145274117065928,-0.038963183780094036,-0.03223010808983254,0.0012295619180140874,0.004936193923209421,-0.018429989724940476,-0.009832686781552046,0.025127646005184273,0.031015683107627427,0.021583255258817654,0.01998913382059904,-0.019402983386382345,0.004918509377647397,0.023115681616659226,-0.006401317305158166,0.016693800143052214,-0.02003473965623108,-0.0012926165609478404,0.017924449307647118,-0.004749368606810909,0.03537447564125021,0.013307086610431507,0.018076602984321292,0.007729584358673709,-0.010409828584675169,-0.024925724316945237,0.0021319619616187164,0.028267201894841613,0.008685007680094727,-0.002111792207328457,0.013083482324826704,-0.031284758173357914,0.0012439148974740077,-0.03338764520043037,-0.006494375310114999,0.01712322354334489,0.008852152484984268,0.008048017672456597,-0.03008527028248802,0.007933631020966975,-0.02104118939270542,-0.006027707266157938,0.021332478108946645,0.01200382868848417,0.010663652487794183,0.029331293184700784,0.009024210852105755,-0.025552829507751597,0.008254297827908314,0.028759804622813218,0.025559651480211783,0.04319361180868181,0.020259118093580372,-0.006515267428949082,0.006957235360859303,-0.020935783722031545,-0.03595142602372276,-0.032459817970957955,0.01795073689183546,0.015561033564576462,0.01944597472873664,-0.005353046209164435,0.006093260783379908,-0.016403883962095408,-0.027428037392814752,0.006747764117521623,0.03187490089192028,-0.005213531772609081,-0.0005680585857285182,0.014467460611913473,0.029614415666322964,0.0037822691179897738,-0.0039032363972398365,-0.021376587705393343,-0.00967840296084858,-0.014911313731364865,-0.033607172721232835,0.018040570340222394,-0.01003664386949644,-0.022087031385821274,0.0298100156875334,0.026299131138661627,0.027044802795836365,-0.008440467865143774,-0.013583596482395302,-0.01656493764853382,0.005241064012292688,-0.015152095299252004,-0.0053936182423572785,0.008374509108424993,-0.0021512059166683855,-0.03177311089363109,0.020520714095493647,-0.0117813586234878,-0.015008753747000949,-0.027941427125609958,-0.03096843267872294,-0.02880858351462987,0.005922787550704405,0.030412566460089024,0.02146401699432307,-0.027712578173734487,-0.015014713872112421,-0.025096151201970743,0.02668726522512236,0.008816556241351086,-0.015318683610915523,0.031384367702458525,-0.029292912920724692,-0.0031867548612924063,-0.004715577104882988,0.017683620732249074,-0.027636793938889962,0.012143568491856249,-0.014560464672188968,-0.015985228119132635,-0.011935830110188384,-0.029040923462222673,-0.003219912376123569,0.0019761081703039696,0.001784959534733278,-0.016499536466126438,-0.01799235056265511,0.009620167214319351,-0.014279565727327857,-0.008800684286328617,-0.030143832883427854,-0.0333557617048202,0.017107529063798116,-0.023697347806863573,-0.005778225734184157,-0.0013021661967855677,0.0016279748569077033,-0.020551682798025637,0.010625625857304116,-0.01287364838271888,-0.03293547754340373,0.008523335981728246,0.003740850724976147,0.033550761229939045,-0.033659902883884124,0.03113402757208421,0.006651735394683144,0.0006531629479739038,0.0007828150253307914,0.010251952486788582,0.015313957289597576,-0.03232303668390538,-0.013405899449458704,0.02270860548671413,0.03359350454205223,0.040241342623519215,-0.012821500213021399,-0.023979433496941874,0.024742906871813183,-0.015443657762483277,-0.022219181517751277,-0.0027666473071495694,-0.002369424940832874,0.02839685515395728,-0.010426455651244735,0.0003711811222822132,0.004645655626062069,0.01699408146993083,0.019724504811451143,0.0047968482750222925,0.043181157013375805,-0.01729262583436551,0.03178732679398483,-0.025361323292894408,0.02606955850152967,-0.02299490721000704,0.015454331760321757,0.026150371054731815,0.03424794807793089,0.0268377052728697,-0.019243666549955643,-0.022976469417600266,-0.013870182215635383,-0.0063800908827350376,-0.028031407300251814,0.009278892245506536,-0.026478417045916317,0.004315689057391341,-0.01961002708456773,0.015582400541426514,-0.015775274475382194,-0.02240922837627594,-0.01892372198019291,0.022050924409422072,-0.009666425423055952,-0.01365193789704332,0.015632772550700506,-0.023883834633482807,-0.005610666616618876,-0.03721883968479674,0.014436577542829789,-0.01446908390941824,-0.011132841897750064,0.015267926468935069,0.02238661883428309,0.029167735914595438,-0.00985143824212579,-0.003293465740162242,-0.026933907251612103,0.021345435898128155,-0.03141838069064791,0.023976410131250583,0.024853593462450203,-0.015212139485777768,-0.034314959739106206,-0.019561645276971924,-0.003267618261893309,-0.022738011143582145,0.023039143899924626,-0.02460370052912063,-0.03285818272776892,0.023531485854830697,-0.008060375796045405,-0.011240896838932674,-0.00290587712430005,-0.008312532735444553,-0.01909939130177083,-0.019100870134208,-0.010024937467923132,-0.038658780272333236,-0.017046160839280736,0.005477971914151519,-0.02956969895278847,0.011480826963704461,0.0038453145355927167,-0.015907738484129165,-0.0077053609212655895,0.016332108157180864,0.0178493178049992,-0.023258281795474837,-0.011225453052053769,0.009892853197061397,0.010357371254360639,0.017870239231693397,-0.01438876720820641,0.001440402395493222,-0.005273195405592651,0.0129118468010117,-0.008147155977713358,0.017505706409221028,0.013295721393358368,-0.036185211678869865,0.027748146753465763,-0.02828323837976257,-0.023820706109515907,0.040636956846434875,-0.024825639982359704,0.03393127949792139,0.007340936002070522,-0.018966646074726614,-0.01860738194987614,0.025577257978160118,-0.03440341800212914,-0.01458449576034223,0.021830931587379743,-0.033935869180648476,-0.011675932504774481,-0.011171738115873424,-0.02157049612967851,-0.01871697100673864,-0.010216574138012446,0.020269531643263908,0.0032267516634227698,0.019724844279360738,0.025105354889058663,0.024347019683020863,0.03837080664755117,-0.0031278400868370395,-0.01763102457311739,0.021653697189535165,-0.028867268109060425,0.01307617169341305,-0.02762835781760709,0.02136296074108244,-0.03829784294927108,0.020529867497205298,-0.015073246771486562,-0.03948283739452332,-0.017418260605978876,-0.011395758689162167,-0.007977754079244991,0.04186245883358647,-0.027704838788955178,-0.002324113949735743,0.018473560483199213,0.020908660327945472,-0.004932459322195676,-0.003764650408961119,0.0000996863450527992,-0.021598204147846793,-0.03053655179832422,0.026461901569940542,-0.022883232166511978,-0.013687767864475816,0.010322931105359411,-0.023706673709179202,0.011732240930336719,0.0199794388749146,-0.01096601197155334,-0.004949490649756449,-0.027633088048479974,-0.033906819648127556,0.035588799731312765,0.008314716813677339,-0.02226987866426259,-0.01996971267742532,-0.0073673022467323985,-0.012586378780527777,0.03347515727610836,0.019914931766492457,-0.0062720885661839264,-0.017715442986587508,0.027660891979543904,0.00661265657867059,0.004175192875944919,-0.030119450686213092,0.019526719336539787,-0.0008694495250551352,-0.03282970895419927,0.010967504558764048,-0.03134638647049926,-0.021345215605125138,-0.014889539850130418,0.0033551315205802763,0.008043898491454126,0.03406801734272774,-0.002777267285757425,0.024673670538723644,-0.038752440842905606,-0.03438351560465616,0.020942300192855444,0.029317232193667032,0.01336777777593406,0.01231279119024125,-0.02974024947089908,-0.008614566027999395,0.01519341745008975,-0.028305488545594542,0.03411383025576186,0.00910159088788877,-0.022155040382161567,-0.01309981230469972,-0.016664494224073904,0.01519617341061806,-0.0071996049289000524,0.01941223370623398,0.010910958717352565,0.02912926758745996,0.02108380464000692,0.027986782908970716,0.021523994331263663,-0.012002875237076948,0.024668036986855935,-0.012513682616195345,0.0028246423164745215,0.00399823159586122,-0.0013065021603541397,-0.0054134421872642285,-0.021629211003136504,0.025105064938666023,0.01927957086719229,0.03166023806546582,-0.020045523897051276,-0.01020434579789767,-0.02177609569676769,-0.013874108461904148,0.022265933702398138,0.023804806839408683,0.024713628562779165,0.02458740481046477,0.011135409314133668,0.025158346735584484,0.015691152927369077,0.0061918768799945016,-0.03479647143390587,0.036059982784493176,-0.025786026589598044,0.0005207685517859443,0.016544334524860007,0.030913869936500728,0.021092446931170555,0.023831866478501804,0.008151922132110226,0.021132970577780394,-0.017635948468330543,-0.021908334333180957,0.022646559326177637,-0.025722218455065855,-0.002396639634014379,-0.02820310709429822,-0.027976531151077975,0.014253561960266774,-0.035020308716588885,0.009357595954046944,-0.024303060169785236,-0.005238361192721958,-0.025314161531350264,-0.02898659807158625,-0.02080708515271631,0.011688915523203095,-0.0018108312740809734,0.019393807822692462,0.028332376074586867,-0.02357758699366638,-0.02361399998529974,-0.020606491774740398,-0.003226682721585821,0.008389804250485678,-0.020967591795832626,-0.01161150935961552,0.02079610210737118,-0.033432976941471876,-0.007700658491424735,0.0060432962334825095,0.02097248752614551,-0.014570407926088828,0.002865987970157027,-0.030945308417556768,0.023017481532817095,-0.028951892993085128,0.006552731234199863,0.03033178518591947,-0.020973696313304646,0.012325281376730536,-0.034915747592804344,-0.028560962750536514,-0.01823312126905075,-0.0293999776643865,-0.0402663083403689,0.021563987692239366,-0.02389760583039995,0.01303975256123031,0.025083145115155088,0.03250100727417892,0.025793039030343762,0.012349565758853643,0.0228237764983515,-0.01315474470387106,0.02712639073316452,-0.03245258247635264,0.019546387930394572,-0.022680583905491294,0.03935521178833596,-0.02756952973688535,0.03714102144349572,-0.01565969379887647,-0.02427592844040038,-0.026170685272771922,0.027214501152971988,0.01708311340889136,-0.01670571260173325,-0.015174567392343326,-0.02839370996226011,-0.002749934127758788,0.021333971731795024,0.013775534962966126,-0.013009975594492164,-0.014504464979847411,0.03624259038374356,0.019255225820290035,0.032471068712267084,0.027448238268098574,0.02857108858635103,-0.019161424400982514,-0.02176712104778232,0.003209859373461166,-0.004048466845814568,-0.026534764873098853,-0.019249302009203557,0.002598204171561295,-0.010981960957696402,0.012320899612888667,-0.004973881500712402,-0.03945764709642089,0.011444409255407913,0.03392882881594137,-0.021640918082255396,0.00850990735964038,0.015579738647872985,0.008272954145165547,0.007002522170577863,0.014649866255036507,0.01497801153853597,-0.012646024810837262,-0.022413672649723663,-0.008464624461451287,-0.0005263609887682793,-0.02206279275126404,-0.024647820605847633,0.00620978200956942,-0.01907317330678444,-0.018864123112451815,0.033774248179863804,-0.022767616263146495,-0.007684344417929578,0.0092716962450224,-0.022707768709060775,0.01643868596707933,-0.013246373879427857,-0.018500069045735753,-0.006811433176727671,0.030472343803667718,-0.023924299332498247,0.02738623601280808,-0.03633049895551736,-0.013109834805941675,0.014680942487002517,-0.008827094101838392,-0.0011816402353775162,0.021985478463939858,-0.03704417914706201,-0.03248928262116296,-0.0024590103270866483,-0.011309982725520192,0.02365742956531313,-0.017885567970763145,-0.032246336240145355,-0.014914603078356166,0.030393932018926755,-0.01927706526749394,-0.026436704006722385,-0.012109070349404625,-0.0027511863008631856,0.036776005092395425,0.014122372131374308,-0.0269111692055905,0.03364153193069604,0.022778087342678645,-0.0138979821936251,-0.033021841809404026,-0.02531479626740038,-0.016447035079303837,0.00843248811512105,-0.026624641357055185,0.018811212571487733,-0.029802999445122408,0.01810357691877663,-0.02951157192477725,-0.026294618617624162,0.021714667603719085,0.031534817144699065,-0.016903451036559457,0.02145152162562718,0.007065856275445975,-0.019473775139722448,0.013007320341590764,-0.0295891129346107,0.01394183461480768,-0.025345776030488466,-0.02166623535530323,-0.005327210876736219,-0.018326005412611042,-0.005339719263469845,-0.014646991823557338,-0.028631464631092268,0.021175276293760936,-0.01987597451295489,-0.026477638689766724,-0.014690989478379933,0.02727911305866832,0.03483507188276723,0.004519830971730465,0.0016718868756632344,-0.03629716860488632,0.028019916235059224,0.03338792554810178,-0.025508355007359543,0.0089231763718508,0.020493021480432513,0.02368693896592659,0.025933627549405446,0.02148753345498743,0.034458537003809644,-0.030317113149882176,0.030411867433339804,0.031321071098951304,0.019622706837336155,0.025044471805148176,-0.02799987221258129,-0.0021924560662326853,-0.018411589108309943,0.0019694663600492417,-0.01614190853818331,-0.041683004622916346,0.03056316553069691,-0.004739676405951422,0.003516944271844464,-0.01024786375059132,-0.0028589401265755716,0.022546875252999286,0.019943943523524306,-0.02801492713375782,0.020945406466001994,-0.0069492386624964144,-0.010024662280508531,0.009992047993474609,-0.011369443185460505,-0.0029279553107020256,-0.015764012275654323,0.03072294696984155,0.03432340325847058,-0.007450412895869151,-0.015505178703242254,0.03249327063906802,0.005486134729353098,0.010489185749316567,-0.038581191481950904,0.028036395497926064,-0.034401171335522354,0.02368476099313558,-0.008638552494538865,-0.02362959069518541,-0.015263361391417509,0.006726191254969828,0.013980640359727167,-0.015232078890639301,-0.02066293513748875,-0.010055358817469336,-0.023546824310430498,0.017921104436315925,-0.029437009898449558,0.021092823132054603,-0.003333305286046619,-0.0245303599428079,-0.018337661527421632,0.01999996898458569,0.022760126671842757,-0.011405840165465512,0.00394745736178246,0.020724265834588033,0.019822682834262466,0.03077196763532926,-0.02451014601056627,-0.002684525059171476,0.008744577600991007,0.023698999655266492,0.036038251525586235,-0.0023321168238787686,0.010905386389270744,0.02066392074494647,-0.008676506455213465,0.02784809795902101,0.011779908780605301,0.0022012195516306113,0.02049377881793593,0.010560869170452554,0.024806777413277463,-0.008447586376221458,-0.0073794435369605735,-0.030177251954305873,0.01986823973665169,-0.027528599161927885,0.007753279378127073,0.028074950339250948,0.022906678920268993,-0.007152980076171441,0.031232323278519946,0.03714699316614405,0.007077994850551217,0.01014824998647218,0.0014960643760019601,-0.026662503974508183,0.02267533047968731,-0.0018657412039563034,0.02054829195816737,0.03306135830260372,0.03540790244419043,0.004948874815165546,0.020341236751108296,0.008358362416896848,-0.0008597524795340791,0.014948688695063689,0.029884531158424554,-0.008837368433155489,0.03486978024598971,0.0224803011675207,0.03749252193602759,-0.015375635437801733,0.03103240326694101,0.013971182337665032,0.02318601121189749,-0.018185324364654823,-0.007745750329504008,0.026613021098368973,0.006837002044919732,0.00662854867565791,-0.001361914506688737,-0.02828732631686534,0.027563528355352127,0.017270085153072396,-0.03366071050508057,-0.03266658407848601,-0.00874313657768759,0.02625891153659899,-0.007014379743311714,0.014182507040883793,0.0014059750840898207,-0.009709826228933576,-0.030761812380635276,-0.024326410941965554,0.026971595413043448,-0.021004734051709894,0.011660180973424738,0.014275822794903317,-0.023999830310866443,-0.03656347204604373,0.02204470761654323,-0.016700168030399715,0.011435034412746757,0.011820553662886825,0.009294416497377096,0.023333389982719204,-0.005392954166030276,0.0066189269028660205,0.0019260922723556638,0.007452835179778595,-0.012236724222909261,-0.0019508267290954122,0.016018339299453593,-0.025826355040604217,0.016696941221657702,0.00015388262123321658,0.021983629479136308,-0.008385228618904774,0.008958632900464615,-0.030656707489780284,0.02468021530575244,0.01740296462096362,-0.025148044421501894,0.0104851361194989,0.008753866802772067,-0.015508772576193604,-0.031192398867595988,-0.018073893328579154,0.026420994303453616,-0.024221748834864904,0.0025728032217474045,0.018701940610419125,0.032799837629755094,-0.018362204741553218,-0.030270090941287735,-0.013610825751271712,-0.029128308837372757,0.0365239067257029,0.023804681032317036,-0.010664090745703403,0.008566579593336239,0.002774612415036616,0.033751556675877564,-0.0035849395137567703,-0.031005712601947802,-0.011424180776117303,0.024552721814357224,0.030181021153143004,0.032613398396138055,0.020090984454035628,-0.02173149650872289,0.020004845770566517,-0.018906991139423762,-0.027756406342712953,0.01755562117695188,-0.006257370268407636,0.02519060579586916,0.032084587890304106,0.019753845605053492,-0.03422538930150486,-0.030999861586422258,-0.01994919511258539,0.01870385505883841,0.034586132145628105,-0.014996830083811185,0.0033981942959877345,0.0022229128623758383,-0.0026321227769359676,-0.027973229350584695,0.026132523617942913,0.02660678543750622,-0.03594050290574454,0.009045226396967927,-0.024055775397497585,-0.006621657276289101,0.018820994476337855,0.027242013029449497,0.023093248676472992,