{"performance":0.9753,"shape":[784,100,100,10],"biases":[{"v":1,"dim":[1,100],"data":[0.06782528651335888,0.8080672015279335,0.8106459079376258,0.9029897908232439,0.1970853349403286,0.4943811907364079,0.7827255157924747,0.2849623070957294,0.9537825537000474,0.6508833791474675,0.6424726630276559,0.6887157144324384,0.4544949169772247,1.2524920859799602,0.37730220514240603,0.2029598117306243,0.005111567713863511,0.8542431897617497,0.48957983140476097,0.9144242367745831,0.4466929935128482,0.3048206185304336,0.6916666772443527,0.7584881449264073,0.9675899900937114,0.2886890998909652,0.3296977363705095,0.3533492419530331,0.32649712109096957,0.32576195814427716,1.1437774435417598,0.3986095500954128,-0.03076117686739448,0.46340715130719584,-0.1658735260673184,0.7433478429122842,-0.1795580456145985,0.09159141141353877,0.2580803800512651,1.1403107893397053,0.9150290751020886,0.5537252719010195,-0.43363100704382906,0.8792723423877353,0.5102181435526122,-0.33423955246801423,0.47797631775818233,0.44291405399095923,0.17752292049600585,0.5375680621054646,0.6406434686323006,-0.2317573356738062,0.3781723696128312,0.793632653239391,0.19878366241981385,0.6472059434999663,1.0916574200285825,0.9531376695889493,-0.5114771944911816,0.4558731594518741,0.36216916656740095,0.7622314822151662,0.16880358881519733,0.8400081361790657,0.33259133965731297,1.2334221455758827,0.27375715522857624,0.27736130172667556,0.19132063581067438,0.953964972345899,0.8573919160594549,0.3323233836336254,0.7253498790531142,0.24394557512170895,0.4905609088169106,0.1642051761112487,0.5088400709219075,0.23158151931651577,0.5360370416645084,0.06116281415874541,0.2721157715069966,0.3543883690639272,0.0981418175146157,0.38807396409676986,0.9770557392038832,0.38993333661887414,1.0095747633315617,0.7131035888011802,0.6446657024709838,1.1579738650787201,0.4595036496316182,0.3301369831388892,0.90510036648396,0.410080772470851,0.5011579289739161,-0.23518856254904857,0.5857928837674654,0.5054277009670852,0.3606197836115394,0.1402664804626829]},{"v":1,"dim":[1,100],"data":[0.23145919411707208,0.11236405829943195,0.6006777283582307,0.16605469556192842,0.7702984487179475,0.3950663129848267,0.2588853000331885,0.8232511741458717,0.07897452388127181,0.2438661838184576,0.9636114564379952,0.5970612263707193,0.11132706504349986,0.0003868656024878797,0.19356697579308887,-0.036087189599645325,0.28868356582304816,0.311693379838122,0.5038991902565183,0.5229068438835277,0.8543303849246578,0.47232189186502566,0.2830370895944652,0.0790615086930931,0.3890475124960297,0.4253016536252256,0.34371569746482267,0.4194188763850534,0.4440537518298801,0.614980288108366,0.2867014308554617,0.8695235604215636,0.3759554647153372,0.1354006834014653,1.002000027222045,0.24344145729236466,0.2075276051446396,0.7332960126162303,0.21446661977059894,0.17985326654967906,0.7820743484117234,0.17825510513392326,0.7969257552092627,0.8106579151471303,0.13301314306182468,0.3300302541940618,-0.0019383432759215737,0.8433940252723757,0.3285522712065427,0.08573552534450622,0.24449625888256996,0.11194727666104835,0.9215089326419532,0.8803715530882209,0.34609269013045557,0.16526983220645663,0.8951638563425933,0.726552008454193,0.12968144520698088,0.07186850436322044,0.7470349371490661,0.5197246847783263,0.4595058153091428,0.7502961213899556,0.47375281658550417,0.7793030636050143,0.7707747296251587,0.7270769765992277,0.22998029463098932,0.9003787726126734,0.642634351615083,0.19443593492018194,0.5994985863715249,0.344195028851791,0.503591413009332,0.1265247992205631,0.11636642704274323,0.8668270658042901,0.2933248721934043,0.29211077357844856,0.4155110760418004,0.7161548656205687,0.13523758470058006,0.6067563478358916,0.05475825096301461,-0.07239477825935424,0.8677686361572877,0.7420866884097345,0.1302751206448531,0.6644452651023038,0.8042465855235267,0.2536887015635919,0.28705083073909504,0.18967650309353082,0.9039879699968554,0.9427319373716266,0.07977856581226928,0.7835670858138822,0.12843576750994284,0.8448701361338933]},{"v":1,"dim":[1,10],"data":[0.07703719924584909,0.00937565561372194,0.27039826903714753,-0.2634840596277764,0.03884886926049403,0.32802856188183116,0.31949285744692624,-0.014137270153786331,0.35946803776362884,0.7463957727884678]}],"weights":[{"v":1,"dim":[784,100],"data":[0.015211702896340627,0.0016105326344008214,-0.008252608191239328,0.014222902052014916,0.029401557273147454,0.011088444688943669,-0.004983580835348698,-0.02217131943969822,-0.017071280022363258,-0.027802259353599937,-0.028766398626534087,0.02192502869700113,-0.026281272542128496,0.034406986169034856,0.026596559911248763,0.011074743627350864,0.011558928567424673,-0.03278214960197025,-0.028142179486511175,-0.02123084415252431,-0.031742080216616855,-0.01742811898189446,0.02028336769751793,0.002812656050200993,-0.007662766584261287,0.034693051191409446,-0.012216079044319143,0.007060744297406343,0.007438015120419465,-0.012713543021279486,0.010041957946185676,-0.0039897679578024675,0.0031438374200264893,0.012060882535193268,0.02639767217737421,-0.02657440247016299,0.011678775285967502,-0.00639584066508276,-0.015713144344884813,0.02844795689883374,0.01725986665705158,-0.0016405809160257162,0.018778551540629587,-0.006483119195320217,-0.004435012645672844,-0.00391998441507567,0.007306802383026945,-0.03049167370473501,0.024079380102533424,-0.007302186700210909,0.017088687409183616,0.0321891620901201,-0.0016733455538730582,-0.01171238244195199,0.03470827022861195,-0.03174964644839325,0.02673960349906114,-0.0005836323165676963,0.0031059761903573166,0.014484237248573171,0.000922139700804618,-0.01243611417777576,0.0023827291351809915,-0.025922183281816023,-0.019577838642027636,0.03349992978319809,0.0003435689033362971,-0.03566860001121302,0.03051926816163894,0.0042038061470824895,-0.022170355951879023,-0.005637784431781152,0.035019740903678556,-0.006608286802342014,-0.005635141794322243,0.005128396165593498,-0.006269984143229972,0.03169194729404905,-0.03545126744207819,-0.004251352024022541,-0.0077468864763778275,-0.012156300129364368,-0.017572000091000555,0.007820292548165075,-0.001988016774458652,-0.02833934997082762,0.02485766971106845,-0.030999129697943256,0.0067346749146563675,-0.02358707268650027,-0.025779776907822925,-0.02846550378432628,-0.017126732662055173,0.00044371794435559,-0.02263542958345044,0.003919284705511852,0.03402939996130838,0.0033346539975518535,-0.025821361401306912,-0.012180870195072776,-0.03188912655436547,0.024825098797555123,0.0018732735070249656,0.003758348885519971,0.012569347643214074,0.01825452678653266,0.0023795982158310997,0.014644357071077682,0.011455157278425436,-0.03485008063039444,-0.03423811334773457,-0.029411124583900192,-0.03284831856246817,0.020810872979387662,-0.019129991718361335,-0.030000613524503734,0.025890596070082164,0.03140310619183351,-0.03167546897961455,-0.013072428663419271,0.0028906408762112354,0.03288607241980579,0.02477237060820749,0.017596415116398326,-0.013990503170663922,-0.0025378444318085516,-0.006828093623028213,-0.014963962921209576,0.03054237664786566,-0.01785219658068612,0.010391949412985504,0.026997135312709364,0.01890434784734583,0.02961595201847135,0.003819527642778944,0.012008546793105687,0.009999365683571309,0.013643534974945797,0.001044807931526774,0.004750671602905335,0.018433087355728045,-0.01140476332428556,0.028608798557877874,-0.0321643363445521,0.017893410539613096,0.016571021406455638,-0.02686008468565277,-0.031006305339657692,-0.02178843743143997,0.01908879306675553,0.025543930283709035,-0.027502494305312913,-0.011566561972867411,0.008344449764640625,-0.0337724576914153,-0.03285762595161843,0.0003564697719159113,-0.03179477290111649,-0.02645513240430787,-0.01768064405383729,-0.00984152422984522,-0.02722372623990394,0.002579848417699107,0.00792632497251787,-0.02657678218104117,0.004261608912013867,0.02798702945979316,0.027900325507367665,0.027226387072993852,-0.0021650607756341783,-0.0329279061359194,-0.03025992994496616,-0.023467831862308195,0.01658994575004407,-0.03551744304481238,-0.02404044315959205,0.010822724430757366,0.031000112352158396,0.02648703649576118,-0.010611963071475395,0.026759013501496197,0.01396036724673317,-0.008646777218788829,-0.017646390170379767,-0.02267827107552337,0.015449801159746354,-0.009465407864545066,0.017266029585883427,-0.03164397385046442,0.02497613317820646,-0.01346306737327577,0.02856757162458104,0.026448301492528623,0.01690974602002207,-0.01157452154426724,-0.009206260156206325,0.0005933750637723278,0.015778441884062966,-0.015478683486646144,-0.031416864274412384,-0.002526864134837145,-0.026648438033525408,0.03516940945635966,0.011493910429293423,-0.012877911878434536,-0.002856148438289817,-0.027604495238166167,-0.005253593727469377,-0.03536913073500472,0.02543933952643976,-0.0312681564373084,-0.0221129223564776,0.02471999609066657,-0.03024751863493231,-0.008737494876911125,0.03450501245825288,0.02571865643457928,-0.030403153048399943,0.026806392319562986,0.03065009868664592,-0.01980130861436472,-0.016238620329301758,-0.02666287041237725,0.026413840893233856,0.020013209817109537,0.007023348574232813,-0.01267888071900536,-0.025810252636960844,-0.01849288021454362,-0.033321715343848424,0.01432721047704149,0.00704262216152228,0.012242349247646047,-0.005039796536079888,0.03204841262461082,0.029374384103339937,-0.026843870261096532,0.026555931802433035,0.0331990877799013,0.03334452750974373,-0.021247687331491436,-0.01986683197152496,-0.01694432369831998,0.02227844233001766,0.00778721303862008,0.016569865473292436,0.015650919790259454,0.008333399846209101,0.011547352992608085,-0.016975890894821526,0.0004746407659909843,-0.018677488286332426,0.011701608833767092,0.02335294166455256,-0.01031399607481693,-0.005836421304523411,-0.0112970027218176,-0.0345382879202441,0.0336887981506445,-0.022183704370048338,0.021232325251783757,-0.024273344962942298,0.021153616406493048,-0.027996021482623857,-0.009834293102550209,-0.0269919512248284,0.004949290376849512,0.018291042578289604,0.03281773276718482,0.009215456240845745,-0.02267656003362701,0.027319798637084156,0.01570282913424422,0.017078965332065432,0.020425124650178855,0.03440151126659545,0.02638385297311252,-0.022169100550366787,0.030763050774700748,-0.01302781174448572,-0.0007860324994294968,0.01045741011578346,0.006230231245520135,0.007417677359233536,-0.01154565611168401,-0.02794521728185857,0.007034488157889221,-0.024395663084639252,-0.014240511743201494,-0.01457048205615858,0.014971924785059204,-0.01004741136863474,-0.03229741010101406,-0.009353223778113049,0.012044671843481916,-0.009463170345904765,-0.019087468551761244,-0.020840757016990744,-0.005612914025084743,-0.02221312176521533,0.02399931965808011,-0.005910515232322222,0.0012913504357790417,0.005859095050274217,0.01822033765616038,0.031922478706951446,0.03237810409062862,0.01185230042692558,0.012973495526832655,0.030631414690068623,0.03306393781831682,0.010584380396886216,-0.024922537090609705,-0.011154366941524845,-0.01951525280798394,0.025901533751376857,-0.029742394526384924,0.027799840757729025,0.013631250763002534,-0.0057299500660157945,0.009215543089464371,0.025320370855050185,-0.009008724033215952,0.0300177800774504,0.020618175289898795,0.03398630731131591,0.02214412807936507,-0.03184161587903576,-0.025475625253129262,-0.007434664538657612,0.033325452727417396,-0.014735799602653936,-0.013291649988806003,0.0038986058003643506,-0.01263496575159611,0.002447941193388696,-0.014281904743873253,-0.03501901039262672,0.014665922024700212,-0.020368230246746576,0.007130976245850622,0.01810848602149695,0.0008795600124625394,0.003290224443644206,0.0008184581280657882,-0.013477215505430698,-0.03280626291057312,-0.031665408296979156,0.028013434224809064,0.02568046379020993,-0.016002793655458425,0.007281060292679706,-0.007229390663223492,-0.0018139205788786225,0.006648500124799464,0.007469847912675388,-0.008675166669210546,-0.006088787161678853,0.0135510128268908,-0.03226979526500762,0.009249929190514164,-0.007271604971264778,0.009078597474396988,-0.010251550387006885,-0.02002714173533179,0.018050661491747895,-0.014962905995804313,0.010500672912133552,0.004859920419796472,0.033517277700337106,-0.023203569608443542,0.02701175679390211,-0.03223660995087956,0.0035843373151960636,0.03134270584340636,0.00961433152131244,0.03131272792539297,-0.01180458558712497,0.0242869365850678,0.02372725586492884,0.03089704124705875,-0.013515160843540604,0.01931360471651876,-0.031166534018076085,-0.027851932766197143,-0.034420181288587655,0.006846567992110822,0.02735253463421329,-0.01852162957145268,0.013037789499708937,-0.029062959582357335,-0.017162325467550175,0.014213751336021143,0.005869903480598272,0.006977699480176125,-0.027463172967355468,0.016529821384746124,0.004126937507824481,0.03378083848549006,0.01252905523782593,0.030090737480730073,0.02863528594435795,-0.018205491429233476,0.012396688361866104,0.031675194306079124,-0.009683187467413288,0.03206403406741942,0.0016765479641664624,-0.015623038254876069,0.03130511669932158,0.03207078544241705,0.026296942226943613,0.016950410725597442,0.025193514689525083,0.029015242476191305,-0.015825450638282793,0.01465414969907032,0.011506177117936065,-0.011259895764043563,0.009286741984577018,0.03503976354383269,0.003835820040566054,0.015483107436532154,-0.02452514515185078,0.0054309282826877775,-0.01183783631690389,-0.01861521913909625,0.03441847747039299,-0.01022377264151069,-0.034246077956755445,-0.022910836216022617,0.001874118429762199,-0.016160468894355563,0.0031604284882850026,0.020608693678892422,0.034106681232906444,0.007774774145642427,0.0011034625715634488,0.021302778185335436,0.004602332303062097,0.0014504704906726923,0.023290020801349308,-0.025164655848634712,0.019788550568678752,0.02970870020888154,-0.013318196655677603,-0.012953310299035237,0.016132007099921047,-0.006814313961251189,0.01809161073761847,0.029974476844050343,-0.02897225380862527,-0.02861988904180555,0.009441119034518164,-0.0054959438889632395,-0.016379026342512266,-0.002127915033940844,-0.020346019678282628,0.03492750169581038,0.002400243016627876,0.007288783303001013,-0.035215674722562436,-0.023063019493303392,0.007074798951480332,0.018592349765991792,-0.015996822614945012,-0.03503936024152601,-0.006925288956269204,0.0021634924562026966,0.005740554574021416,0.026358893285413916,-0.024130197817409136,0.027061394169965045,-0.01555864178701906,-0.006583522398051059,0.016450520688348083,-0.02103720939381156,0.0025917601582963815,-0.015388541102318971,0.0117693282979155,0.03439913883445567,-0.009902868182036943,0.016296297374872974,0.026353783709565537,-0.029191361781793775,0.021969809269411847,0.03166969321958969,-0.008125380804737285,-0.014492667886071064,-0.0027205483349304824,-0.020911284117866913,0.00632118898933276,-0.0025227077253518887,-0.005964321606641017,-0.01215529488000522,0.015946135847176093,-0.0012663074821459425,-0.027155012826657776,0.03072480515726249,-0.021475714999119665,0.007967728731851871,0.013156984814304794,-0.020923188043192008,-0.0031351148368297735,-0.021601929609539088,-0.004929042667588028,0.009372906443960494,-0.02543003988280057,-0.03302601037381055,-0.02136179134600897,0.02765674443901743,-0.016336984078332475,-0.01966206618900325,-0.03293983398569733,0.007276766001810278,0.024812681483570423,-0.003031634946847453,0.0014121504047747491,0.01407158012302407,-0.012444354187574265,-0.004781454069156785,0.018030812953994654,-0.010960464291475378,-0.02586682180271522,0.02171728905617655,-0.010555277866913824,-0.010722501079868052,0.0006120668310323069,-0.01525416316724388,0.01179954318843828,0.02114922360371796,0.019598191082623867,0.00046647364353450543,0.024963464919788687,-0.031924073752291844,0.007060906571869974,0.008901067402155842,0.02220694024246629,0.0255672068716708,0.031192773909964555,0.00460201916870933,-0.034437365349282795,-0.0336734883714433,-0.022607323226859925,0.03273048144309432,-0.021761115324709195,-0.022981371445717897,0.032102785413596874,-0.0014966110849720868,0.010703612092545632,-0.03144372284605241,-0.001761435533823498,-0.029080741182610215,-0.02128591217550305,-0.0002859918539196288,0.03200937987380735,0.0008977189287577986,0.0027609272716900488,0.030743334172762635,0.011139714073339628,0.001948860919219371,0.02663646244669488,0.02222682438907052,0.01833522657114972,0.020974376253872155,0.030312746463122403,-0.014760049730275462,0.02692752453195979,0.023921877457933345,0.002768632148440156,-0.02599047474896443,-0.007577099462186304,0.020780604191164943,0.02620232095029187,-0.003879793714261378,0.034918432277492056,-0.03224052428328044,0.024059338431246205,0.012544369081925293,0.00906395259487637,0.029847564649990586,-0.03331221284847271,0.033597907394410945,0.01340186694677735,0.01537408577795743,-0.007077161687241245,0.011212853282517088,-0.006320634770784896,0.013899352165958674,0.011378837575965832,0.009353910440072992,-0.007081971544277921,-0.00253022296012316,-0.004111333642495017,0.02810709584899866,0.02855782322412639,0.0012706465103650283,0.008674692986449593,-0.03161452331481992,0.01703274091036945,0.028731417559963363,0.01979929194403729,-0.008024549971800132,0.015690350880819097,0.015853689250188513,0.013421990133944676,-0.03373423755161009,-0.020028169507742204,0.0181961324052361,-0.013991748280108452,0.007223305403174472,-0.001019772701405998,0.03529560689202926,-0.028004641367105943,-0.00967291903544663,-0.008940581038089559,0.0005767620509886662,0.01805153833282509,0.03260256139431805,0.019238341960954468,0.012271927850890228,0.0064984047216838856,-0.018436414551658325,0.02615507115367302,-0.026905373714965708,-0.008827284896077044,-0.02716974034568769,-0.008714828879910978,0.030153260688195183,-0.016709265755653426,-0.008710444479945637,-0.03088625082605272,-0.012278133866201435,0.002428781859158624,0.030921585024985307,-0.022931778395771776,-0.016564343715532646,0.020953795568854648,-0.024512802850661992,-0.0016093131220680582,-0.006261546408743782,0.011406018134661291,-0.031539527762987504,-0.008703730081155246,-0.009528939404049657,-0.02412193418358412,-0.016708305414824265,0.009099457853705905,-0.024527990637823138,0.03439405767263416,0.010355726743821868,0.009865022042730444,0.0027229665798448183,0.01153854533470558,0.012463559570368423,-0.010129027562024225,-0.023945068852976092,0.02790890313201756,-0.03515384062617477,-0.0050608482951816705,-0.0023633952687836593,0.017135716873774687,-0.03182019367121103,0.03283942550715492,-0.02893551057638864,0.02961019613502691,-0.018373661264718302,-0.02221494994710214,0.028692287390766597,0.004130810909819517,0.0002757484779051106,0.012128730077023224,0.02669397769184248,0.02592278803034225,-0.004421249645266835,-0.0236287899363532,-0.015797255403899153,-7.727723098205352e-6,0.03110100283196164,-0.03181051417658582,0.023800461307853675,-0.03557616664664936,-0.01927403523527216,-0.005427941170871579,-0.003158044485164338,0.027682636116426115,-0.030488867574615868,0.028826532586333997,-0.017222198366828968,-0.007104991197646231,0.03036525215830227,-0.024484053937273945,0.00946186311923601,-0.00989487850125792,0.004810459445599498,0.012725001240038912,-0.02493640251860561,-0.009326192292541294,0.014252345947417104,-0.029193808007478027,-0.016958345899378738,-0.029463234639710532,0.017586769062067117,-0.0155292811408847,-0.03322223476805803,-0.01823131802828445,0.017024117430062366,-0.03043957980489591,-0.010904920961798546,-0.018620671414478696,0.00512415253047354,0.028090444626586247,0.032421707022379564,0.019050120266899437,-0.03276978075327565,-0.017274633286759045,0.01883849498001068,-0.017059160918041476,-0.010103405354838366,-0.025823216942582657,-0.013730792160775995,-0.01960881826068526,0.008344212304816523,0.013623090780324212,-0.0013449964538889345,0.03540697249715795,-0.031684403178925985,0.008400829549471807,-0.004631603026199565,-0.01722961572986852,0.01889911819534689,0.008729175719972705,0.005702765229186925,0.017354554149310558,-0.02613459922142758,0.010524972937249235,-0.009692130972190252,-0.032610304425042806,-0.010636140264306593,0.005222390420109066,0.021079423870490825,-0.024573447406753407,-0.018771539164432683,-0.005577067468465598,0.0277095940850121,0.005621506516503776,-0.015212312892138948,0.032376598394720124,0.01412273972394143,-0.0032312515568118094,0.007591023766000293,-0.026462245384847365,0.013057067434342824,-0.030392716709538803,-0.003736171616057389,-0.002923225546122059,0.02648407039911839,0.007946967634824352,-0.02139196230204408,-0.02370400588346796,-0.021888882148215556,-0.0018783575521992763,0.02551743139781007,-0.0211116237882296,0.024544380618720375,-0.006242716162597115,0.032221504509834506,0.01888893637082091,-0.02796047897821317,-0.018870216015124064,0.030586563470149417,-0.009460252219956135,0.009646827529103348,0.017975222969916542,0.028653208699632865,0.03236822136031704,-0.011832196539331,-0.03512886517678857,-0.029566248491355012,-0.031194177095794907,0.017110031745000982,0.027293851151236257,0.0015380057805235922,0.01632893275419843,-0.02838184526147015,-0.01715320800227869,-0.018731593452979065,-0.02421828917991759,-0.02437078204048333,0.006226695886252652,-0.005729949958392058,-0.007277975239833472,-0.01284316417530183,-0.025013086047010163,-0.004209438588053845,-0.025339523246431767,0.01333255725761151,0.025857485383544265,-0.023965261772974325,-0.009311040337557426,0.03222892541732253,0.01884258224015272,-0.027796542155684292,-0.02013272172845399,-0.005411712632840664,-0.006415856380438303,0.0037181473954557777,-0.002020454514044964,-0.02550644950070527,-0.03168945226484246,0.01735792334383831,-0.012476140322617426,0.01673304261000059,-0.02771503733392216,-0.023611016715051645,-0.034974884276572006,0.007719883947416149,0.001573795916873913,-0.007010301767717535,-0.016323396061648263,-0.010325471756009823,-0.00020827190147480051,-0.03228352861039854,-0.03569816933224626,0.025781620177239936,-0.018100403302461304,0.003777903131467309,0.021422045382589724,0.017333475295635573,0.03101041884437139,-0.01756199048476335,-0.03060810450728844,-0.009927442931724428,-0.007586157054139089,0.029750696101226867,-0.031506018481426534,-0.0180038828046216,-0.026863886509442172,0.03440956635369716,-0.032815808566531816,-0.008687749526695519,-0.014336398088797308,-0.010743866736265754,0.0040984531845751,-0.024069142113195156,0.01330217654832079,-0.011700576809784627,-0.030738214155426467,0.022898897830461423,0.005337086884845833,0.027056249138946248,0.024527502246706127,0.032424681951329415,-0.01084337609006084,0.013191805621204158,-0.0012739945425192106,-0.022427001825989144,0.009613454255060772,-0.0046103825661488115,-0.0014232622549641416,0.01083275019759855,0.02263170830205652,-0.00918524588176,0.01127638031717245,-0.028091724753349263,0.0278374625494434,0.030202610601910415,-0.03082204052128582,0.02076177886073441,0.01774535828804321,-0.013099853779919464,0.004496318428404332,0.020631027772054326,0.007094471096315481,0.025124788889884946,0.02133061449567021,-0.004086160720547287,0.004826393462656155,0.009352895566376626,0.01480896959101282,0.012136245585834211,-0.009639211013081992,-0.006299596897888185,-0.033398680465277324,-0.030937112051436105,0.0031877332157931315,0.003935741070160495,0.0205607359763922,-0.03570367802977568,0.010338039025188437,0.02730252326957072,0.02319137559666605,0.0031727580609682976,-0.010527441243875757,-0.020480302959326343,-0.020941626137165485,-0.02851425509408916,-0.017954924145861764,0.007189762054011485,0.012774582497501212,0.007336959858938043,-0.019927047128331103,-0.01569133885569055,-0.02364539565679692,0.03090295452627367,-0.008303558493467644,-0.003696727538718712,0.014902542870538745,0.03516882264896329,-0.011625374250728262,-0.02051415505795016,-0.026180448566516606,0.024674275251011735,-0.02036186780625837,-0.02721012497248996,0.018612623774202315,-0.0113669740852907,0.005653046915561136,0.03376560442377913,0.01954514495866006,-0.0323234367775243,-0.02077972147424883,0.00018500852740305912,-0.014328453205178282,0.022793178327482795,0.002401233840203111,-0.03020144285224272,-0.016143471489437525,-0.016629736059300102,0.03021801193245303,0.024492729430335203,0.028940148079101335,-0.02923546158513815,-0.028937103134985508,0.017923430690379744,0.01972639619438553,-0.00047311878437659993,-0.024216977899222565,-0.026717682951765003,0.013186266650382264,0.0004137198871271286,0.02418932170838317,0.03017669074141359,-0.0015573230581909306,-0.027014528723803895,-0.008327550501782893,0.029248140450824148,0.008027100052234629,0.01785912220449965,0.031985357528176994,-0.012515944428345076,0.03191086379727004,-0.030371416576027644,0.011845286542829445,-0.027955387420753413,-0.029028438230000293,-0.033102437844098366,-0.00004754249565522978,-0.016593053143604406,0.02089867740335416,0.004271963460033855,0.023405290961335257,0.02260196491941001,0.00310190525261584,0.032750366869088804,-0.03242357703980089,0.034631725664866955,0.029117707886290117,0.019975943054659093,-0.019538394699773125,0.0235852660586464,-0.029512654030579344,-0.03541188912160081,-0.020378508278929237,-0.03489302176905911,0.02827599714242993,-0.02025393612023675,0.008840054414798883,-0.010278532387301302,0.02306217209576078,0.02437831017177773,0.000524972553140754,0.016049421708429122,-0.0322647165489445,-0.006427508988691297,0.01003326454187635,-0.011166709700362263,-0.02409456262561484,-0.03479725727175888,0.03134872853906051,-0.02556712173586804,-0.008744327181501515,0.015292927422892705,0.019116171239064342,0.024421583230554177,0.011288862144092604,0.00972042397356633,0.02869600239251703,-0.03555484887655383,-0.016933678239441266,-0.0063338429765753546,-0.007868461433504597,0.03567879722574298,-0.021911649640409384,-0.006339715679850113,0.022776846300089297,0.007007057964760435,-0.021778305271851713,0.013931209884874236,0.026594713500051284,0.014212051370159462,0.01881100492775272,-0.0072012348770900125,0.00146652277084975,-0.03524985365742872,0.02305972759890376,-0.01609837464240457,-0.02669439142415075,0.029264286450007115,-0.03157579317212717,0.02604185929940044,0.001978512209078756,-0.02817357351511407,0.021935297125646076,0.016781397593746812,0.022752400054810572,-0.02839345697726855,0.034952625488708186,0.03041210898006229,-0.026361531610854333,-0.00889673697651502,0.014574592757215891,-0.00856944699852499,0.028480206589480916,-0.012002734919784968,0.029484043170708393,-0.025231976360272697,0.029672059472014317,0.034076698994131654,0.02962973261791335,0.018075588508793344,0.034433679895526356,0.026396036262857407,-0.0034931118055468377,-0.018465158157159225,-0.02379028003815399,-0.01942306806677978,0.024269919294502555,-0.0067430141666300035,-0.005857227559962555,-0.0179558721376236,0.032908127109812405,-0.007042729831507111,-0.023662758727184378,-0.02706212490214071,-0.0081669967634013,0.010020820507363304,0.0009468782831253756,0.02611382621700014,0.02102461832193102,0.01941148229095597,-0.02858167243991004,-0.022354917418404435,0.005915448009651776,0.026476881932257515,0.015767919411559195,-0.024939763094651273,-0.002240726983794502,-0.0038824174191412694,0.015159678178229608,-0.030866952054145212,-0.028119835724794658,0.015796657740176925,-0.02484860212539102,0.0044009102543040995,0.019450056294672412,0.012767579439662224,0.01882663220691546,0.03544234365356651,-0.02546307037610407,-0.02772721562613981,-0.02265068811274205,0.0292001804385264,0.00896721135912637,0.019925079365249294,-0.027104263163851963,0.03262690675168234,-0.020440235312521385,-0.03408555342057562,-0.027482621877651013,-0.0052916428490540485,-0.029484396492246892,0.006659182359229653,0.02574404916981732,-0.00954859064421373,-0.01611845746241604,-0.03571124921479601,-0.0007545165054472364,0.01893715399235859,0.030281474893477184,0.003755792503320844,0.029626712963350815,-0.02939966553887011,0.02129570243078638,0.018119048055072376,0.023024547476275484,0.03324780441659539,-0.033296051440572634,0.02710104547361895,-0.021469980613528353,0.029209597722948843,0.006433874251050117,-0.02577017056999166,0.030911544169477417,0.014592124613683262,0.024147535051311113,-0.02932803625233047,-0.01829045193609943,-0.0045424184693222715,0.018535193277435767,-0.01474652249345784,-0.030936109194361357,0.009050179397286253,-0.020554703935982337,-0.025197947897007605,0.023260920680698148,0.016116094073841118,-0.010836421522092046,0.0022438760063074117,0.029999870664145303,0.018156824297721523,0.02551813401867358,0.03311997688422556,-0.006890093520377394,0.01862230098372665,-0.03473431057182017,0.026897525345366283,-0.02346316445623859,-0.008713069939210553,0.005707756078462953,0.027040853391077896,-0.02582373580225426,-0.0208564196596762,0.004410539940862011,-0.005963248472647113,0.02155274956892412,0.02583365341885678,-0.03334409025305575,0.0024010022614395637,-0.030307803028348995,-0.021033495756026515,0.007287274764253629,-0.02446109267916147,0.02478728436459177,0.03090092751557809,-0.0041903974684845205,0.019632186785979173,0.026870830667602305,0.030113158456785583,-0.00561303532136765,-0.014075324785157446,-0.03190258287499622,0.0013287860745892085,-0.013032341396005412,0.03194826536253276,0.02544645694232977,0.016338610482148193,-0.01741403459461894,0.025238194849648496,-0.03141817795513641,-0.014180180232910773,-0.03043090106207475,0.033121272790122655,0.03208263836711561,-0.012177214598325136,0.015306285829378208,-0.011397371135367288,-0.009691618892719585,-0.03499458115929055,0.03254471460069869,-0.024891542331557485,-0.03009859282787137,0.02528961861786932,-0.016214215933070042,0.025179129652009663,-0.002274703605491743,0.006944000913808569,0.0236763396115183,0.02083528935956004,0.03505611118567975,0.008866045456695303,0.03300691641261587,-0.02544709783299295,-0.005841683685593773,0.0004037360724635647,0.009563763858832793,-0.027933824433339725,-0.022095817420983224,0.02261064815801666,0.03510067361306082,0.015820789354511613,0.004485334444318258,-0.00518235369613503,0.005017871506142052,0.00858881374885796,0.034168366887753536,0.018394229012112993,-0.015110624176947285,0.023301012783245503,0.018545750100246016,-0.02479236357746507,-0.011566840720094741,-0.029071573998536545,-0.006235370561398769,0.002809942985508994,-0.028230902234283307,-0.008901618702235783,0.03340659508741469,0.0320743801272012,0.029360193563325806,-0.01582196872308533,-0.029273838411000556,0.008159337650676219,0.007685209914044279,-0.03299518560023162,0.02292952901407865,-0.03416190343441022,0.008041401425466891,0.033939769172408533,0.02431681331881459,-0.031990629005929944,-0.006965223716610149,-0.01791031466391279,-0.012807203383612157,0.02443261841930939,0.031110887587882163,0.014910794530004141,0.01181351779083732,0.0244875885719819,-0.030424448867781853,0.0007137585543930207,-0.026371468342701952,0.011379264983212433,0.011681546822160743,0.020270856453412863,-0.019621784289424408,0.009215487133176653,0.0077923107598544625,0.005275443398208535,0.031174672497418492,0.009592795406411234,0.021604864641594706,-0.03196444481884136,-0.023663021464659893,0.017463354682869782,0.028805532538524647,-0.0023927994572712076,0.008355134957674617,0.0132599083555501,0.0017647560528082995,0.029446090717347398,-0.013882183050401726,-0.01638277051449132,0.01808064783904344,-0.02199434503024929,0.033204907322209,0.01727050832510947,0.004332904159690485,0.010685312027062485,0.03265929433058401,0.012600059895913151,-0.02266879907126905,0.015297302714013979,0.032102823387336214,0.001479298516010097,0.0038445174934682302,0.012172269093305224,-0.0017085190816589378,-0.022994948534173127,0.03701236398893393,-0.003612458943537171,0.010752745403860094,-0.0015155434953792854,0.031705869141916344,0.028912438996274173,-0.0005064775782488853,0.0055452760924932605,-0.02573085525715031,-0.02045726464035767,0.006513378643123219,0.03260434554992859,-0.028267643883581297,-0.010666367488529713,-0.008381884865780715,0.008505937185039824,-0.03377921493499728,-0.013191607468749427,0.0004950565406246829,-0.028839974790772643,-0.010590360117660532,0.013199873556430729,-0.024939861118635297,0.024163410061165645,-0.014484169304089696,-0.0017364950804069682,-0.015171413750185471,-0.013460689301176061,-0.017725289435572354,-0.009090389384449489,-0.017102560354249893,0.004058761069779638,0.02189312327504012,0.03812196830905975,-0.0014558556856789117,0.008216018091697532,-0.013462051082921749,0.03459266190695022,0.027331196585830397,0.012703817153819963,0.0283454189788216,-0.03114108477052788,0.011659186185815077,0.0022997506721560697,0.01363572889838519,-0.0274014919645707,0.015376012866274633,0.007803021188465172,0.012572383389442382,-0.01879574768410253,0.011269872508883973,-2.4495548425843165e-6,-0.029438896165133285,-0.03059093015536823,0.009755216030566427,-0.02131836556564846,0.004482769962012044,0.027579336153601242,-0.03359177396360704,-0.010130471588952797,-0.018177159586408583,-0.02761159222773943,-0.012676162213677728,-0.02049842712796173,-0.02196076846227904,0.006248598037814077,0.0074937360014686455,-0.02372602423516388,-0.014691425597753133,0.029533731878534537,-0.009625682359954934,-0.003964963824327203,-0.02643798707684357,0.001130671446741293,0.02338187419682347,0.014177088250808495,-0.02815136881966074,-0.0003457144344071835,-0.030742166024036073,0.020385097080605447,0.0279144517403482,-0.025297869964190912,-0.01304371489516092,-0.0023058127154110407,-0.02049852262803857,0.03034440809324895,-0.030631734159952257,0.023897757973282616,-0.019386976593412444,0.0004977364270230806,0.03538896118115159,0.029268475023195115,-0.01448467175298651,0.007407549972608762,-0.015988062958581874,0.03558348016882037,-0.007934543570674005,0.008388896345421082,0.029239033423799864,0.010311696046218212,-0.02077177355041886,0.019764302565413183,0.031310914564962926,0.018358913113557668,0.02916677505574486,-0.02303848906154356,0.014677798217580426,-0.018774557240674714,-0.03028623585698056,-0.006770649934533126,0.022550385997435803,-0.001106489342683785,-0.016162932620666887,-0.0026677171539797847,-0.020616872853135338,0.03453292541946944,-0.003789362737511718,-0.021033805617124837,-0.03048575408193493,0.011940733927552603,-0.0239424836223483,0.0115934220520109,-0.007998228789474862,0.004491997378477684,-0.007115600217043329,0.015932024528708125,-0.01584398220898923,-0.03316457675230149,-0.02135470482709954,0.027963521899258516,-0.03569297716907718,0.02673014231674848,-0.032053702443028444,0.023775272132165667,-0.0030004473940821335,0.02923575022915858,0.014641552408925316,0.0328715655830352,-0.02674403812888295,0.018671467498188044,-0.020203820805248286,0.01891041811024005,-0.015397417416580279,-0.012759650240287513,-0.015034375839613931,-0.00045239221820053905,-0.028901397768649324,0.036134171142661924,0.017634237492650653,-0.0020258980180466457,0.0009234318623878711,0.006265591407580896,-0.005859208059761304,-0.017687472665270716,-0.01841936901240977,0.023130906339523558,-0.013466264036160788,-0.008772930598573453,0.019055714595471875,-0.00602188856646151,0.02671287863656527,-0.03324478347060474,0.018001587024060142,-0.019272164307696828,-0.001729597184960647,0.021120136463326184,-0.02017638434726072,0.029014378193695206,-0.011592245918948035,0.02614820970719573,0.027098513907939256,0.027329962417704873,0.0073770100060347055,-0.03216494839608522,0.018667796576555488,0.00003929603476247721,0.008481649918463618,-0.026911807733179662,0.0234441175585472,-0.031651731206233824,-0.006118898488574505,-0.03215838527638452,0.024971691855918483,-0.028225980518394127,0.01100116614544115,0.0297095306298878,-0.031690467842487385,-0.022948669282681515,-0.034025226135376424,0.007856413311234874,0.0020472380547984967,-0.01684972073404209,0.0252442560414312,-0.03348594811756915,-0.032540377034224945,0.02048058028185945,0.01961710021481009,-0.02609386523676816,-0.02230107780751686,-0.006546250071959671,0.01949372248723468,-0.02008153590384048,0.02198754966498417,0.015705776075040357,0.012851972012339029,0.0014225240590606577,-0.02911308486972315,-0.018441256848092953,0.005185298441185713,-0.02405446458394399,-0.02213340276069247,-0.01558026652019404,-0.03566646565373483,-0.022335051138160734,0.01586200357602547,0.002400363980801204,-0.023877751781771716,0.015261492244006745,0.002862785985057316,0.009212084825744768,0.018743810792774117,-0.0038240456744831446,-0.02563159125557965,-0.01420731265532859,0.014420093937053778,0.007277757787567272,-0.025958702368795033,0.016447852396339887,0.03398981922631039,-0.019287647273653362,-0.005898649931596062,0.018624910248366808,-0.029996745224983915,0.013403911428714575,-0.01932837246289781,-0.009343559481676988,-0.01800690841100876,-0.01918280954084664,-0.029405036864908314,0.0002647009431471615,-0.00972563323714631,0.010407659873812349,-0.007237087878878217,0.01607171577623369,-0.02332235013852245,-0.02370784907935055,-0.006022878602216125,-0.009785272942980339,0.017078908894033094,-0.01795622960971642,-0.02768524405368741,0.013661219017368277,0.019591684661489712,-0.031838535100533215,0.014430048585594733,0.024661163085473642,0.035414325141310696,0.0015253881464130888,-0.006599031731933267,-0.010538509931973531,0.024864089870116644,0.0008718400266589098,-0.01426744352908353,-0.014019526850130193,-0.020146966119714036,-0.01552203349932006,-0.02083374811758555,-0.01780305576269845,-0.01240418866958709,-0.030694061046443857,-0.023694955590925375,0.020152183591091877,0.009699478757706544,-0.011833105026148859,0.008366518978508455,0.010424425690552817,0.024874069219049152,-0.003269395675659681,-0.010601840727184963,0.021627604795867433,-0.022814618692759,-0.0007901360150486757,0.02465837779036243,0.002181728692714504,-0.026341203330170357,-0.004950082422416128,-0.034898271539382124,-0.03224047882259516,0.019157568997725347,-0.028888723392777614,0.010631371258205485,-0.014281856917411065,0.028953372119041268,-0.03439236468324337,0.028312501349950572,0.00595478336006164,-0.0063668788571268845,-0.01466556998562372,0.019954381721169073,-0.017515786232220783,0.006293503115387342,0.018699530095897494,0.025112860818422837,-0.00028315305744214855,-0.003367807025522121,0.030525753180373618,-0.010111022794792486,0.007766531027174363,-0.026853741540643187,-0.03475240294896004,0.027552766760424716,-0.0073972677829820125,0.020104529971338485,0.010866886480575941,0.03507879763293951,0.02519750427123457,-0.029657017682398007,0.01140622464615837,0.0008303952369027406,-0.03209108987214105,0.02996377617347502,0.0001281926266416683,-0.02570188953360413,0.001757601752178574,-0.02489219922744723,0.027519462885437593,-0.02618099882889378,-0.012293755139302325,0.03551814430850056,-0.01031678518997825,0.005451090661303844,-0.006656955810404468,0.006935481530026308,0.006018967887344032,-0.016996753149031752,-0.00883837399082605,-0.014634542756334116,0.02135693315952108,0.014837839783067457,-0.002164597199625646,-0.02322633593608568,-0.02809923523935674,0.011230319808078676,0.005310494150557163,0.02104692108709086,-0.029340845095992787,0.03417970540707896,-0.010201304977482728,0.03163619811889541,0.01362104300334662,0.016704721445019097,0.013644347212806066,0.015628153504491142,-0.020592611967359113,0.0046037755491034685,-0.03165235681951539,-0.008360785268280164,-0.009671922558185084,-0.015248613568946228,0.00012010444950901616,-0.035119706170605114,-0.032017950577597425,0.0018734023278685896,-0.015136518219837872,-0.005313126962872512,-0.01515420792187551,-0.03407843679977707,-0.03422020249039362,0.00592046866521883,0.015724569213609714,0.002920322402891161,0.004404137141511062,-0.02726974224044005,0.03277013839381662,-0.008613619422659431,0.0008251445396733406,0.019678889670124197,-0.015149353920102733,0.02648300756565783,-0.011344742874126582,0.018196459919558663,0.033724296759456984,0.01171890254458198,0.017281062764608467,0.004320058679854778,0.024071930366743103,-0.030614884917989978,0.008448324107952772,-0.03206669887929825,-0.029630151138054957,0.02997042218020944,0.021304337610247304,-0.02186340291323055,0.004195453473279223,0.008283706832961833,-0.020252061056123077,0.014083319120182331,0.01027526133510908,-0.02463453447021538,0.004949260319160861,-0.02119737983551779,-0.017661910944794492,0.0067302355859374385,0.00859055442091456,-0.0027179556671725544,-0.006307400124276108,0.007821776824154462,0.0004567221633650711,0.01948304542910841,0.0107820639941405,0.00919810896531094,0.015324486543386017,-0.032199207602086104,-0.021623632602300696,0.020485038920910408,0.03134306299135067,-0.003258117493962556,-0.0222391453984156,0.030205279966824705,0.03332752507207182,0.004769297805080112,-0.008998846783268757,-0.004734227202378292,-0.01658830948692006,0.021377528702249023,0.02831301902284135,-0.029582082987852427,0.018966119059270176,0.016678050349629846,-0.025414427931963385,0.03352715308374275,-0.004529778179099768,0.006005567683106151,0.024625000101923172,-0.026612290783141535,0.0224516376333265,0.015253003772565887,0.007457096126266168,0.021006144481641446,-0.006814697326798038,0.01521052526440568,0.03522249460146511,0.017387265734147124,-0.03139270816643104,0.02332063009738239,0.03445948079617561,-0.012090060328444778,-0.015842708548501606,0.019368255284959793,0.018803299506598897,0.016876602571547217,0.030301848977458894,0.005149089948599625,-0.006184578663788236,0.030821320643704853,-0.028722208962034684,-0.032455066356549246,-0.032401240673143566,0.01856728301402271,-0.02341120577338041,0.01509872455936908,-0.0190877354556817,-0.007743740866684723,0.006757202968893879,0.02404438983524816,-0.01908036941442816,-0.01977871829634156,-0.0064297553159570996,-0.02955285436161657,0.018622081354300105,0.03491799021927024,0.01750495667652501,0.02040941956977181,0.017905620731188808,0.006759807891203576,0.01179017904597595,0.020643640516254953,0.02509068079504268,-0.0035955307387322347,-0.02215123721460139,0.012032145774690696,-0.008865107348054506,0.016535139757398794,0.00430604062494977,0.00890525580043263,-0.02209915322471753,0.03118806654183548,0.03406084930972458,0.03139906966807102,0.02971732047867505,0.0034922340341646194,-0.023394941034113357,0.009307778119614056,0.007002674052258663,-0.025263087257331902,0.012932495359737409,0.033743731211027334,0.026905345055800556,-0.004978333646253344,-0.0015585196756976588,-0.034743695511940655,0.00741164347767885,-0.004179929554319464,0.01480822717151674,0.012113639770619413,-0.02220880337600804,0.018499941556227917,-0.031657737779002014,-0.012064869155606277,-0.02616153455934167,0.024572221088243335,-0.013410005446243711,0.03521042876739111,-0.03187090918977293,0.00621602719769522,-0.01126007355419128,-0.009082949660406316,0.033608641655326496,-0.012919693385607564,0.012407492830349948,-0.007435020427988857,-0.02975407439938531,0.007156179530842799,-0.027448606915541296,0.0208379313499882,0.003206391082972826,0.010098747131088368,-0.014121700994816768,-0.02433117212986307,-0.003124166515447259,0.0082809137641972,0.005857072546155827,0.003653233255623535,0.008259294820076209,-0.007448852668345211,-0.02178863682163458,0.0064214631300164235,0.03443414197912498,-0.024905384056985613,-0.029720867904710083,0.028051293096066243,-0.026682986801516657,0.022704057827814955,-0.007341612262424056,0.012431329514258578,-0.018203900138145164,0.014339218739621485,-0.005878506166477209,-0.012128377011000082,-0.019196761177714308,0.004166077822738937,0.016191074119614256,0.011883657588849066,-0.015158943356348754,-0.007859164259876476,-0.02929493775206198,-0.01976534430035513,0.011376766110977377,0.019419480923621273,0.03351157746568302,0.010575279628366588,-0.025738956560500653,0.012130724883610744,-0.022451407434102597,0.020733033943480347,-0.023702242937343403,0.004129295533669364,-0.004456896014193891,-0.025057527044880575,-0.0271148260214832,0.03217860563419089,-0.012790318116160855,-0.0226630353396622,-0.008779642754040178,-0.014942130953160089,-0.018504262871683688,0.005969590124627798,0.02773837346921504,0.018178014280047755,0.03165941390926587,0.009390046253174867,-0.009786701632987229,-0.02242347087275636,0.013034570647250096,0.029592353222744366,-0.023704867608048574,-0.029896900301770623,0.005068584011550338,-0.018095280733977433,-0.004566006726628435,-0.01609863162025555,-0.027694682301631662,0.0010981219955620775,-0.0028904698433041137,-0.007637108104380577,0.0005452245532150887,0.005915040056246337,-0.031996824860283525,0.017356618460016536,-0.02995082780542167,-0.0312673691380778,-0.011549066539145812,0.035183330827017856,-0.009278437666274768,-0.013550142996709456,0.018086573203331006,0.014419588791852976,-0.0026109174159750156,0.027732647401941563,-0.03026897316351925,-0.02514425813381866,0.03039052122538935,-0.03380076938411363,-0.01328397852726764,-0.02568722263945533,-0.02807901394783583,0.031137589923500048,-0.02527973424005515,-0.02840667621953379,-0.007398337811271558,0.030542846012268796,0.00010643293423262534,0.027804536930719066,-0.01548069438973316,-0.012603958713004428,0.02495366777256864,0.028052527839518476,0.007407370481276931,0.006319765524506256,-0.014873944209829872,0.00801104027390763,0.003344953182226003,0.01193713452318152,0.011673817776959984,0.02890239157104632,-0.026494725862587897,0.0003659696878451149,0.007796578771048619,-0.03486700198663344,-0.013102139293168532,0.03176176931714293,-0.03269641737452294,-0.022005846003376676,-0.02525759796850586,-0.016572450019767353,0.012146441856587337,-0.004195325769632406,0.02414319396911663,0.02049896494114524,0.0028262178594097437,0.02153842617538139,-0.033407447891483595,0.010668743943650597,0.020446600870645565,0.03358318984824607,-0.002647247816864144,0.011195379181695615,-0.011149288319463442,0.025078688051210704,-0.023772084165840437,-0.03296903164225202,0.035277668939569046,0.0038257459059359497,0.03496232612356902,-0.01175218901056826,-0.005031690241923768,0.009580388534576656,-0.017823054541079686,0.02091640675781243,0.010456244947601764,0.007410411798520644,-0.032342406161303995,-0.016686314675722583,-0.023436231809571943,0.002216207381696797,0.019763733805380816,0.021967410537867264,0.017824485829577838,0.0336827787781554,0.007410097179930811,-0.03314989287333758,0.02386318524305185,0.0034385072676574105,-0.009197289705124838,-0.0193472224399825,-0.032493034034272866,0.0106008334690035,0.006012666408912515,0.023365533674646347,0.026617201554546263,-0.01487089284603655,0.0191547221113399,0.022450541016153243,-0.015444055563998667,0.005361239609187295,-0.0284264908889774,0.01289983050373511,0.029312984858702023,-0.0315992942844239,0.028379226014367293,0.012024961962404372,-0.018863511947912644,-0.009117731884011944,-0.015905480541362108,-0.0007610580334697845,0.021724089131450703,0.0034639437700609357,0.012461953801321745,-0.03260898528928797,-0.01320050647113494,0.029004526843906323,-0.03252982070003561,0.02023219114811211,0.011315303397912743,-0.01226395103873498,-0.0030161884893363175,-0.0016707623580476255,-0.03508631982271773,0.024412228847575705,-0.0342171214305747,-0.030536954746897292,0.022824028488842855,0.01736239808443807,0.011076206631051418,0.0058732490858324216,0.015287113457758536,0.028153716871370135,-0.0267519017994143,-0.004370290253239047,0.00012008967225281968,0.008767166931159767,-0.021116577659713753,0.024858665319106105,-0.02911714915064879,-0.018630325876633633,-0.004885517797456083,-0.002541014035493401,0.0114777988053366,-0.013893882920071144,0.008498573861678071,-0.005183337578046565,-0.028182298932477555,0.019277518509404255,-0.00967049691695676,-0.020099262978239305,0.03411769870581666,0.02625612577414793,0.021651937257961155,0.002887063042002085,-0.03336880540911025,-0.009290767933272468,-0.006621845377848823,-0.02521303451567816,-0.00546238181885737,-0.0181120779388521,-0.00998172175071959,-0.009565958538617397,0.003768068651547919,-0.023804053961589865,-0.029789691262762017,-0.027197824623097215,-0.02280857312845043,0.020561706308976926,-0.02461356721517229,0.0006090480014234734,0.030506657510599906,-0.0020082411210069484,0.027530452301173555,0.011211345627733356,-0.019507207891110535,0.007626177780580723,-0.012530943982533564,-0.01049515833135866,-0.013431600437509685,0.028814881465197117,0.021674699970221943,0.002404030030764899,0.011073390840736566,-0.002985293906438931,0.009848909269842464,-0.02715512720843592,0.02687252912672025,-0.027445159465682725,0.03524389189098878,-0.01517483949161361,-0.012797584335800263,-0.004134850977628855,-0.03209881319347875,-0.0008193916113667446,0.00015627235086856928,-0.00892442361773877,-0.028312060266253943,0.03238840611005289,0.00024907791018324854,0.030149496148753757,0.013673242325200225,0.0015813716877629558,-0.028522873527654383,-0.025060777246532343,-0.0012827016948222872,0.007750879403846459,-0.008557393434554653,0.034388148233962204,0.00499433423051189,0.018685613370502736,-0.0006132559850534,0.03532091212424186,-0.026252782765403895,0.016122160987154896,-0.019141240343141668,-0.017117828039854035,0.0037290110284018407,0.03416230170728338,-0.000965987552864353,0.025128098735839655,-0.006874678632406952,0.010068495923344896,0.02143307011614031,-0.021581644795500732,0.011203600999442112,-0.03490097419293386,-0.015286208018343142,-0.031486148297127446,-0.031966975764581296,-0.027470775891909983,0.02701603090934128,-0.015943741078292058,0.002979221712490307,0.024715079591272532,0.03083045293445745,0.012251577034312358,-0.014887969497542897,-0.006175215359581432,0.010692627263740012,-0.0006129611498125603,-0.016867007753366452,-0.02075252785236703,0.02579187309844924,-0.003396880846550973,-0.03108826363994136,-0.021957264073782796,-0.009867033070704244,-0.030116213960610705,-0.0160036157583155,-0.012263709258213296,-0.034395511325856734,-0.006019706368851487,0.021275327848760357,-0.02458535026656164,-0.009906190556881671,0.03444948939756956,0.0027238567083514506,-0.002554695878968456,-0.023128287926859264,0.0220159331299142,0.009376315614821468,-0.010902886054457007,0.02320925531374223,0.008074852635943687,0.017442575696364156,-0.03538057889963973,-0.032971951431802156,-0.00977081390204848,-0.026538429343177593,-0.02318157256191276,-0.018890263821809777,0.03358113263414675,-0.025823968779759468,-0.029279507243090204,0.02364653557853956,0.0019354250554972504,0.017532231401007535,-0.017290074823597026,-0.01178667906875503,0.023769950068795148,-0.01860408798240449,-0.022852203438842377,-0.015137017492922305,-0.020035308640338468,0.01079133213930266,0.008187117016502689,0.03048776562321688,-0.021854955901411253,0.002679004686543092,-0.016522572981857043,0.03018703890547436,0.02982842253804438,-0.0018231358469912443,0.006891922344740134,0.005068947247208078,-0.0019845632643837874,-0.010198416611627825,0.01928452905272271,0.022787701390751307,-0.01618307691982812,-0.0014482980311657026,-0.0013183161385233386,-0.00826523463029703,0.02078473280665733,0.029589277889196172,-0.035516183470297565,0.02887984216805836,-0.0348096017365069,0.0042064652151503484,0.03400423436060959,0.025685693976467534,-0.010703825992293692,-0.02459405829538102,-0.015694916806144335,-0.0022264218012428352,0.032788738103154066,-0.01578894354743838,-0.022675781244157207,0.016321074377859866,-0.03473813610361255,0.02239344126268218,0.03405429162340724,0.0185673891464935,-0.03254086455005064,0.024243773706234345,0.00724852864829887,0.0254697892869319,0.010812046846353273,-0.002133366887881065,-0.021614453865865087,0.01593211723623584,-0.026240772713125367,-0.02941180316846091,-0.03350880838814643,-0.01615129769817049,-0.018876439269022258,0.027818326679253182,0.02928368768194201,0.018884538646681936,0.020917799993091388,0.030766232437237556,-0.034676666871870127,-0.025786076696505913,-0.004266363439421536,-0.03085959382078399,-0.004892949202423984,0.03307750937088608,0.0019825675438898266,-0.031396728718455384,0.0033480998215649205,-0.035685225464904935,-0.012408416597603169,0.02480126584149865,-0.03123666078345312,0.015267383327570432,0.008672404920515589,0.0068846531362316415,0.01628231439163224,-0.0042187258540251,0.014787399532575268,0.031200459228938965,-0.01747661584624151,-0.021927727746265883,0.03527442694835707,0.01936681329227103,0.013770854513560318,-0.018289446942170984,-0.003944037447314322,-0.02428237219333064,-0.00899918068188835,-0.009099132981733609,0.004409089888901797,-0.034961200437295004,-0.005873345466782403,-0.02934520563793592,0.025063047366396415,0.019608046173590545,0.01815152652548286,0.01906025008796397,-0.006126434420136082,0.022862396578760866,0.01014022231162104,0.004734964181280513,0.01881770509450694,0.00224631039805908,-0.027956588084354875,-0.017211297148851546,-0.022099227238425896,-0.020575308304111948,-0.03569781497271792,0.02210224006767465,0.005937939628866053,0.010194951951493732,0.004937262019156674,0.022741204504356446,-0.0020719003632817673,-0.03448685685880346,0.01619808836641233,-0.005993114344718244,-0.0066009790728693354,0.0044802813353754176,0.021289784101262796,-0.0098082952904937,0.03302749894216965,-0.010736189562646374,0.005848638398866589,-0.03260936061616829,0.004693200919780968,-0.024029869653051823,-0.00853427051759546,-0.033590787676340585,-0.0021472982685613526,-0.005197860441239724,-0.03544884322971318,-0.003364568890515826,-0.021562334272834983,-0.022742054599468493,0.0006021597508596294,-0.004576893786328511,0.02859236994762701,0.0284030231236192,0.025458286885636353,0.01816503327162189,-0.00906100232491572,-0.006519294208596316,0.02102366653801708,-0.01804408462850383,0.010682344558877094,-0.0025065563252681805,-0.02642716518815383,-0.00902787873927922,0.019114178495635348,-0.03285763417232446,-0.032747419186253186,-0.02404569560780519,0.029521497962745447,0.02888354716096561,0.027696375991757796,0.011176045531018903,-0.031923498038604774,0.007043382677982289,0.0300303339289536,-0.027275899078617875,0.010580518894031776,0.006189310228497558,0.020908726934272308,0.006956002707230721,-0.012627121991953292,0.03209441701388496,-0.03216134624410654,-0.000115472704192085,-0.015190794963174704,0.011283466825661344,0.011130210378173154,0.027522420798826025,0.00915609217341503,0.016910174170302064,-0.01605667333951896,-0.009220088039016763,0.012802363938318176,-0.003687466935437457,-0.001957498077807554,0.0051788402080629806,0.011306721083980786,0.02326895350963699,-0.032527923525799154,0.010656401385142344,-0.008437810984966685,-0.03458068824521029,-0.020848641062337418,-0.03326022738353354,0.012667137293277647,0.004545031171710505,-0.03236096543443623,0.034433737949213825,-0.026511753099299713,-0.0032386604221204957,0.012019740865600525,0.00953940563973668,0.006440294769621144,0.03570516644209988,-0.0326319691596928,0.03233284434621542,-0.0337572128536886,0.0012211033064563198,0.015380299763029253,0.012734762120125573,0.01324064877783864,0.02422309011920406,0.03222093903069191,0.02598742009116496,0.010968455742268554,-0.018500808136718425,0.03216994224210892,-0.0025292280243564003,0.0006851918886639913,-0.018383927422818865,-0.008386404315972467,0.02352663291363318,0.007220799516533379,0.0005672993680832586,-0.014587090644338496,0.00703998725215603,0.03418181021811888,-0.011040592517906202,0.032480077783345246,0.009393779123305523,-0.00021490483747992756,-0.03551054623250514,0.028558789403925228,0.0282221111658022,-0.005224107920781856,0.024637108658886735,-0.000717088268069821,0.025654263008911368,-0.028847117831227207,-0.00635407704236211,-0.009150685021814549,-0.0009089897771747818,-0.008030702220796208,0.017676557943408847,-0.034596207761499694,0.01765037960029176,-0.01033966766033453,0.0005824270016290128,0.034315202436216774,0.0255828551895059,-0.030948545125318604,0.02437277324353816,-0.00022243633393585063,-0.008262644324112438,0.005308173836003002,-0.03355564531430697,0.009982386368193784,-0.00478404920973368,-0.005209596431868309,0.0182639113780331,0.018521825332126342,-0.022469739593745684,-0.025805520590118376,-0.01611239558278177,0.005546531154627124,-0.027762364356553243,0.02331451030352441,-0.007686901891504831,-0.025274298513773732,0.006285388927053166,-0.02085320451814259,0.03075243279499383,0.02591441656808984,0.03194665421949941,0.009305214586021944,0.026487354046082694,0.031780897910488964,0.03316283837652306,-0.015887091691964717,-0.008612759791043572,0.017833539521420715,0.002868170073668498,-0.0020102212201411757,0.020790228391571693,0.021352127363272584,-0.006722852444073113,-0.03207824855389285,-0.005588951213277595,-0.008593426880656927,-0.013558365200528666,0.009715404525428642,-0.006770709535561834,0.0002993491332440798,0.01099944665926844,-0.034884216133652605,-0.031144447166701044,0.002176010379715612,0.017169340956470297,0.005326279478029758,0.021865773494577537,0.012424462426209091,-0.00944641422307765,-0.0006146182864143548,-0.03399114840811197,0.015708348136132373,-0.012538076578001878,-0.010554722849533849,0.010766857121812454,0.020973333806013593,0.0034731697357847716,-0.030682422352338912,-0.016255465464163024,-0.03155911214716139,-0.02607235545002498,0.0267027178784846,-0.008980933598455119,0.013836842203361198,-0.02003966507450356,-0.0335134178856339,0.014673547865749035,0.011170298961780248,0.0035459961889600725,-0.03127182934255474,0.019805609256241627,-0.005079640611164393,-0.016026123508177906,0.0308271025606152,0.035457397872021235,0.012388269115731603,0.01088269486709178,0.0035330264378816215,-0.010434671027427851,-0.014958124519170128,0.015004946961082594,-0.020357865591588364,0.02184660224703708,0.01823567412362047,0.004282677931814187,0.005428866969654091,0.019912072957624823,0.030245178028177652,-0.02269062538387821,0.032499526547895355,-0.033505371235050055,-0.033901044012052545,0.019606065367579965,0.028732747752623244,-0.01527668261916296,0.011813891054926869,-0.008124640732139952,-0.010946849659171524,-0.00735691140457503,-0.016315241748626814,0.0225500377868035,0.000020395299533029765,-0.03492255470417106,-0.01227202987805677,-0.011400231268470009,-0.011689411899814777,-0.0007789322295122317,-0.007890281733352551,-0.030254872876318877,0.013792119938281172,-0.020856558140707984,0.0025494743512052623,-0.008292404400613754,-0.012096576871258771,-0.013738970145419869,0.00024928823128925887,0.011708116509735024,0.02820871863053491,-0.028719331918613342,-0.019231165854518385,-0.03412661359513458,-0.020562669147610495,0.03288302795901213,0.011987294477975002,0.03212037676255779,0.002300845390635367,-0.00467403331267922,0.02200968138449058,-0.016287434060942352,0.025421085355487892,0.01802657595985551,0.00014797672573515358,0.02224431687672395,-0.028182482102156615,0.007648830529258764,0.02102856922795948,-0.03165780266489428,0.034315418349775945,-0.0014541176317077256,0.006372594164625052,-0.02927895671653253,0.001356977615001087,0.02722561555046714,0.01631042086547802,-0.02778629746868977,-0.018460725006662404,0.010990695997280336,-0.004238980794426674,0.01643776782785495,0.027798766045325912,0.027500823356160012,0.0025913578704138338,0.017982169222800763,-0.00923613402713841,-0.03299274154836607,-0.017252456822068867,0.03261653843429972,-0.031160268692162263,-0.026877255546627975,-0.024426822019666568,0.03091492470877361,0.006371628190357824,0.028317798376018333,0.029100003795767465,0.00673182180210985,-0.0356936848995687,-0.026701784283633123,0.00935548763101208,0.0021051880531860606,0.011627445577376236,0.01873249757724038,0.005566944137158268,0.0027333393416462126,0.024690220838477273,-0.027443723013017687,-0.013233273453755214,-0.01836516435530493,0.00612769959425611,-0.007947086343903287,-0.00961531969703742,-0.008875915331590552,-0.006100225774605988,0.006360706108987188,-0.03365701289139712,0.0011500732074906097,0.01115589887719272,0.02011045635529459,0.017185072242445726,0.013315313777293876,0.03353047703839468,0.02468009807980201,-0.02655162800690969,-0.005495824810223086,0.0036790494433935543,0.01970539171424341,0.015609580209152978,-0.02825777076748164,-0.010913707636644216,-0.01544164653235122,-0.0332463432398972,0.029237528683538988,0.003063178496062427,0.011095844885346417,-0.0008385312026178635,-0.005868499374288429,0.03341318351709405,0.019312420525077915,0.004609876021400235,-0.022408933404509872,0.024119050823566628,-0.009451228106803449,-0.03492095955655267,-0.008508374639668501,0.02463768022233226,0.03207939982048047,-0.012642896710604036,-0.02831423203917068,-0.013763057973182318,0.01959335715189609,0.0007655684587347805,0.0020087668755016524,-0.03307463230390342,0.02601124172940984,0.012075723910043856,0.015728059532069003,-0.02388075732209492,-0.024347942960944495,0.020337132490445428,0.00962055452350022,-0.018242136025472533,0.0283744736307278,-0.03555500075905944,-0.015460510620919325,0.02882192930924396,0.02910061847238174,-0.02185542398699155,-0.0002956457318657041,-0.0022682694172826284,-0.020377321811790368,-0.02370477923262249,0.028571438642614383,0.010725924982963618,0.015249351366965432,0.025812538406058967,-0.004149954213251407,-0.01791594386983142,-0.016354238591468975,-0.014631772490719626,0.02415550103114182,0.016587693694359307,0.025753522197923227,0.023057823898185142,0.000155481716941068,-0.022387393132324344,-0.00018677432879588007,0.031491711607807255,0.03423468974219235,0.02352323619731405,-0.0284022739696805,-0.03496567203114444,-0.01011465088685532,-0.015998895841071215,-0.019782319543715104,0.016739662632847235,-0.02579865162983725,-0.003796012839839151,-0.01693899181335158,-0.00033154280201097563,0.030300989830896578,0.031697440589187026,-0.03277679275254771,-0.017823310765547946,0.024571455722405378,-0.021644555508224823,-0.024268529082533123,0.02446901139917395,-0.026326048244137645,-0.03333138615349456,0.006687022620482694,0.03280280958399226,0.03055360995572053,-0.001389302571560273,0.03370945881144537,0.02034058851901076,-0.032592183146246435,-0.03552890817206758,-0.03405738238318406,-0.017579358733169355,-0.008598508278095478,-0.0009172075529291362,-0.015859456910534076,0.006947881481094362,0.03558497607407468,0.029922191171552703,0.001776521617322016,0.003194940914496347,0.023347313637259455,0.004067133867824216,-0.02341095146558219,0.02002648253399522,0.023135597797183403,0.021931719293596705,-0.03145071712610897,0.01743416929765154,-0.009780149709087247,0.022761039447994662,0.0266561547359271,0.026192592120850976,-0.025499239823633363,0.0037224664038298313,0.022435086414995316,-0.015371079090974711,0.025980088797010713,0.013325171503696625,-0.019521636653653123,-0.015214127130488784,-0.001800726915655755,-0.0017891191022478823,0.035347174453761246,-0.004483685617841706,-0.01295057112425086,-0.013071102555040973,-0.02919120024543948,0.030330233656101435,-0.02115632181854235,0.01200445359696399,0.014192602079975872,-0.030791056824997592,0.02913364852204227,0.020628773243611565,0.0324887736560915,-0.033503492866071995,-0.03397527826251787,-0.03192374561729366,0.020759908742322856,0.02893639561294717,0.0040191397485840955,-0.0004105017744750056,0.00691698987510931,0.01735251151349875,-0.0027608523025054454,0.012102212391425504,0.03273331548007612,0.0039476815772412355,-0.017357173533016926,-0.026156566132914456,0.022976025769391603,0.03529607395021474,-0.004699266285465291,0.00006762021443916522,0.0014121982420551224,0.01062649883217464,0.008290048806030507,-0.03378801461359626,0.00867288173846005,0.018516599804304534,-0.03323275382688568,-0.023223548624085093,0.01990300875354218,0.03432870824157616,0.01809213985539393,-0.017743283804802976,0.029387966162263787,0.02357218957066712,0.00020081964285948575,0.03286651749299621,0.029892602046374145,-0.035108458341487916,-0.005211780773335853,-0.007972852804726309,-0.0246557969327476,-0.03522844804880872,0.03247451720324247,0.006904659733045153,-0.021684557843725756,0.018182296740504533,-0.003631016550641908,0.014374548063206226,-0.01106867358195364,0.033416987558221464,-0.03552517369558313,-0.03526287973655303,0.03467348003953466,-0.025532887577574374,0.009626928767649775,0.010759105828080644,0.010353980679268897,0.020092343332501365,0.029304467853710603,-0.03176078893165969,-0.028954091897016157,0.01242869693370409,0.014717987812731446,-0.00915737146022225,0.013800028725505072,-0.01922066785805132,0.018561262724942372,0.01397441387203026,0.011957117552544298,0.014554275993875676,0.0015092680115075252,0.023904630680194265,-0.027561818014370312,0.007968545152993597,0.02631847921045611,-0.02134406173028526,0.027133308734749284,0.007552118084579389,-0.03137973959934819,0.019228943898104776,-0.035351562147545944,-0.011608807585629304,-0.02045724472626017,-0.03412726880816776,-0.032958909549309766,0.0024422422444125985,-0.0006061142090281954,0.0023756596451200013,0.033147483254422766,0.03379870979794494,-0.02278646290520566,0.008803753946806978,0.00415979625464756,0.012541767126957808,0.010510679669504142,0.02936052662493681,0.020626111542848276,-0.015752738637636612,0.020614067781785393,0.0029962605176778873,-0.01673982541576808,0.021372209911935697,-0.020701761833745422,0.013019550217543705,0.019734400641590044,0.018602555035271667,0.024100312068000895,-0.02003089005874987,-0.025983116006256912,0.02469609963665277,0.011613434360779155,-0.014937182712792652,-0.023970791944781623,0.017544178197842757,0.004590113202312125,0.0018129796634021172,-0.012636003039497586,-0.029039692686048096,-0.008904161460431395,0.012538615501800255,0.010602132779436764,0.010103529149440474,0.0009467386545923828,-0.011698118966040037,0.020254087193130217,0.01664685222344907,0.020337346359238083,0.03294029959939619,0.0098926421472494,0.014765989888869284,0.02112261711208009,0.010578519079677724,-0.0033874121420723255,0.015281870817562332,-0.013095841245016678,-0.02766598145026068,0.010749504782740088,0.007197425504370317,-0.015883609761547315,0.02395676355184964,-0.001563172185670543,0.0038357733322251647,-0.03242089109299224,-0.007772127223716722,0.027623208933902008,-0.023091261596411852,0.009952151280672838,-0.01057089330198933,-0.02872452527346888,0.014691425059330123,0.02410416015464048,0.022390370436790673,0.0002845187657016801,-0.001271203920106788,-0.03140414049712075,0.009942856882720945,-0.02420061764675526,-0.001746471046900143,-0.032072809669398496,-0.01099784075865359,-0.015335354002376018,-0.02414793773557474,-0.03188414257502175,0.03438520125995462,-0.022311574118319043,0.009857101343472311,0.020609873736605513,-0.00011058691449691156,-0.008455554195452582,-0.01403274764475185,-0.024644557699697298,0.006145687144999919,0.004650221987707148,0.0044431372577402595,-0.03342957304740208,0.007106072696375101,-0.030335857792058097,-0.012332347971493074,-0.03176488064960649,0.014817905536934232,0.023773292770844084,-0.00332254247947799,-0.03482235072162495,-0.03523289308350446,0.035070974132993094,-0.009672632451962496,-0.029714072345784284,0.0044321398784624225,0.016273010016403577,0.027500731877128676,-0.03356031124584478,-0.007198568603137532,-0.02289849853705959,0.03045032447505068,0.010233802146522772,-0.028030084418485424,0.022355611808731073,0.019073911799433484,-0.01616520877918629,0.003779185592535837,0.02979721689970441,-0.01963170425941569,0.0015039392748429012,0.013223425521118312,-0.02779521745445203,0.013785866759367466,-0.023346390166601227,0.00489218123252988,-0.02789644045226604,0.025473266662625456,-0.03441404023554896,0.004831920633579526,0.03374248940142442,0.019611930996871384,-0.024738221104882135,0.004942302723564919,-0.03376107653070992,-0.02802014981960789,-0.011547210537937403,0.018531334874273497,0.022425160294669184,-0.0015088873285512908,0.005972923105243999,0.004174576302610804,0.004239440707340725,0.02972679084387921,0.018291533494170942,-0.006700435601875054,-0.03022689025620211,0.02694920409801438,0.021907890615916165,-0.002959298213321429,-0.022871938958184783,-0.03537981163567657,0.019038946599464257,0.027395875519373405,-0.012726246375543407,0.03150786328299697,0.013108205519088116,0.0222921602280355,-0.026223668409532115,0.022702238303042965,0.026477914452477,-0.010052582999750346,0.018864130368576593,0.012437377479078388,0.00862432147190547,-0.009242715881793404,-0.005854439712056379,0.010700071786094284,0.016802348929005895,0.01578508010254038,0.021924367481990607,0.026813067315127573,-0.012361216479634174,-0.027574514123313576,0.0013815509375146725,0.01051140175814759,-0.008810029819426548,-0.030449996992671875,-0.009183600520292323,-0.0340915392626135,0.005593944427435757,0.014598844211716117,0.028402859257526503,0.011337228096942958,0.029518314584396896,0.034876166925535385,-0.0027101235195639353,-0.029371755060667595,0.020495720055023103,-0.013787968726501596,0.026136249516282697,-0.0017114005177780375,0.003911307025144466,-0.005814264226336685,-0.018345090829515343,-0.018602313358670557,0.009986269436486568,-0.023644061595420617,-0.0313958270297441,0.034957709350694255,-0.011298812468212323,0.018330625970789237,0.032389725240336106,-0.014032870511221164,-0.009118892864589414,-0.02639660717263644,0.02721591524278612,-0.035522210298121776,-0.0013819868618496977,-0.02515667271525436,-0.025763077044740568,-0.019578542624198145,-0.02379896109592196,0.021955394407676576,-0.02717977407382253,-0.0069655358697644325,0.011262648812839782,0.030457507555165325,0.02971314542852445,-0.021273434552035023,0.027561430986403887,-0.020656738217192903,0.03115612745063913,0.022332978492349893,0.007724796237263361,-0.018605350481096555,-0.023813821063172425,-0.013963487858962398,-0.028291370752568965,-0.02296893293965785,0.0325439378881414,-0.012613553485157816,-0.0011550376114159502,-0.027205477213196994,0.017990242573958787,0.015598275444923268,-0.016407188062936173,0.016337511722470457,0.01941675761660132,-0.003144070850791221,0.023027034484309455,-0.020155029682743263,-0.03023588872799725,-0.007309089965502485,0.02659953714160563,-0.022940258616893527,-0.021149174605779093,-0.03339131121520187,0.03550688417352092,0.021612633711758776,-0.0064881021839402475,-0.006462046015806369,-0.008723636462770665,0.004988354304057495,0.0028799507574582828,-0.006732330264555823,-0.032350407092541604,-0.026063790183696586,0.014139202289525685,0.007681078240974339,-0.01876854165407273,0.030858552187900817,-0.01809470088576313,0.035247521637530255,0.011702241850997393,0.02417439524072497,-0.004843958250011143,0.02952361761633196,0.014038678546812115,-0.008211654159534367,-0.010591439631656744,-0.003201478943566309,-0.02968028255267382,0.026606205449867977,0.007355176535333428,-0.006589141097988929,0.024056450902807197,0.010588612696828316,-0.023512412519126467,0.03558388364137659,-0.030297640795455827,-0.0237178612661314,0.001401471381106037,-0.03562636675598905,0.011991323323923305,0.017986101887229405,-0.02172276173963041,-0.030456181043430904,-0.02496671259310737,-0.0014776276584022377,-0.029106784848576393,-0.02787117688323309,0.02503223835013736,0.016404576564052836,0.021216420812244743,-0.01236243092132372,0.003886653439661991,0.0009266968291753788,-0.01807752206381847,0.012405613088714984,0.03232402496369219,0.0239971810610951,-0.029956412468600493,-0.009397277403850228,0.015612862879153228,-0.02702974376667279,0.014124420976440906,0.011056521674032089,0.0003956184095344553,-0.019186249793690435,-0.01849100994681555,-0.02817754357529343,-0.001692432590803379,0.013454631915010729,-0.03185618318545066,-0.011983977102302128,0.033158320085746706,0.0021727192023580505,-0.021180595722843823,-0.0009246263349352996,0.027089799801745973,0.014953328095295005,-0.01589591192170592,-0.002500587424592124,-0.016526587223919087,-0.02883758405117677,0.006029550694824963,-0.00834631717293802,-0.03252951387629445,0.011248050100992913,-0.001778685104382824,-0.0015887666812360868,-0.005118120285703701,0.018033342853226615,0.03030182974605225,-0.011250550343446446,0.024952961287745982,-0.026210126664787087,0.017231854853539827,0.029294896497781053,-0.008229844535011806,0.011240292461115624,0.007645278483561634,0.018291666573522276,0.023919742399438157,0.009703241774967016,-0.02903911565231081,0.003511044087781072,-0.03022292886128941,-0.017437606370461576,-0.008596977403288845,0.012902079562947769,-0.021585305169356302,-0.01755828656237008,-0.006973197042664685,0.002672920002175831,0.000889187628804855,0.007156317999447284,-0.01833405673404842,-0.005699445760144632,0.001885977726290386,-0.02388189003908584,-0.030338991402159374,0.00019805228099615407,0.021666006538376976,-0.029485851467715873,0.025106840904878608,0.021215585789721145,0.014608048145913766,-0.005625305041886266,0.0022620858495125823,0.006418790841835512,-0.02372827761191652,-0.0067663473977213374,0.030341701584717745,0.010308198759709786,0.029895954816306233,0.00995857339920768,0.0010284852486628843,0.016795236893771492,-0.012039544231859552,-0.03484094868391055,0.019889101123140684,0.0036917447629588734,-0.006774897422095132,-0.0129088952815508,0.003131984907546303,0.025191108504228888,-0.030421777615195777,-0.018171349612420774,0.013648150238689354,0.009446059267274997,0.009918915961636486,-0.030555177457459295,-0.012186654758626023,-0.027166342840099878,-0.018941918498018042,0.027535699514082825,0.001294130683132857,0.003798529581481934,-0.020980581736691754,0.028549349785935676,0.028842346496494295,0.028419129200842778,-0.03461918933032397,0.021901302508767515,0.02090144631396839,0.006707373767290483,-0.03328448591627492,-0.006988895456341822,0.03446503647181047,-0.0025993457227732287,0.015618466801714033,-0.0011943399548637373,0.027522689641725242,0.028881930830648044,0.03358024711459958,0.029320354057355825,-0.004480687849507013,0.03408878177101658,-0.027139830769732,-0.0008417765181323493,-0.00875058459796866,0.011264061108057288,0.007990931896420908,0.0282074622081679,-0.007983536562769076,-0.0015869015500922746,-0.00025844535977199274,-0.03390309884875089,-0.02301754180563927,-0.022211053418417448,-0.03067793842530397,0.0040219584905327585,0.01319260550762855,0.03374853257834163,-0.03184193984800315,0.03304176077515401,0.020605852433208855,-0.004578292266691105,0.009731780493098145,-0.0196956542510065,0.009027505506069372,0.02672843698254795,0.024379669123901358,-0.029347120551079946,-0.0247997418259239,-0.006338409724760903,-0.014065710898173107,0.0020049778913421093,-0.019037665677386628,-0.019888610680224458,-0.034893414906099506,-0.019864202931355716,-0.023556481908585093,-0.019728603386984123,0.008259984526891077,-0.01764894738474032,-0.011339682448045587,0.0028549445608044535,0.008750473416942876,0.02194701782894944,-0.03551462085640922,-0.029435702211153512,-0.033308802673791674,-0.00011927218959679241,0.008568260395589231,-0.007530113040912804,-0.035371429783933324,-0.018343708973552943,0.005044716280491324,-0.02723863804306288,-0.01383836471303464,0.009673466841912955,-0.025049409836715688,-0.014395549469840408,-0.03370770317749346,-0.004482517029975842,0.022055979167071003,0.0098758026416066,-0.0342139577952588,-0.022577819661754883,0.013245126618366496,-0.01733980211481088,0.02089160948104884,0.029396793386511827,-0.013764219294512842,0.02329208350528558,-0.035221077640013886,0.010838129978221003,0.01827524842297004,-0.027066756742087254,-0.027153630845034804,0.03323100176851636,-0.01460328902240962,-0.0018256844067365185,-0.013336451808361785,-0.0024139772542404515,0.011685600842321332,-0.020617829087707543,0.025907945605187416,-0.02117156768383347,0.0019338924810210364,-0.011029072404910455,-0.011142680321982398,-0.011212944845225227,0.0036349405097922923,-0.03137899657312564,0.025168184980710516,0.016141793523590044,0.015740490777549472,0.033421257873118414,-0.02463937508551084,-0.009677963546577696,-0.021447366866479255,0.027897497689322797,-0.007207705326087138,-0.02024167621179928,-0.014310424977152916,0.02329685267645816,0.0030868502753580904,0.028681862907867436,-0.016894787981308352,0.019760747778917162,-0.03021432693381751,0.009185071364734253,0.007073721917744111,-0.019453451449448243,0.01637459803279473,-0.014378006935809578,-0.012201796068595198,-0.022521353288050144,0.0309879530530346,0.022288884114816353,0.010145616301336587,-0.0034441185878498707,-0.030316141530882246,-0.03057961154629849,-0.021284363784613385,-0.011707034637540305,-0.032565657496546586,-0.006237350779657454,0.011270027137258143,0.01810556624000554,0.0004886388005906035,0.004811722101058578,-0.0012380836204679581,0.0040368293940828545,-0.006963263819034837,0.028017680937078647,-0.02635921458939506,0.004117040689212739,0.014947648999492863,-0.03567016302576875,-0.03351584235009108,0.01634962172865408,-0.01709243970584175,-0.01786593086071886,0.004845241014402288,-0.029337729494690372,0.0046849446839253,0.02728682864677834,0.004682515735169549,-0.016912955010379947,-0.03161823438124051,-0.021766270673816354,0.0034271526694075404,-0.025695450258499904,0.018700433656181584,-0.015464089535044896,-0.03336396240232949,-0.032111973455091265,-0.010895648692970345,0.007218342385123091,-0.031078431403641107,0.01653073619199545,0.024282101932024305,0.030169774999358058,0.03436152195826965,0.0031121227692258203,0.005433146011893632,0.024891568391474515,-0.01151413742408804,0.02060872596251907,-0.015132007917180968,-0.01503168332780165,-0.040952057256170044,0.009055609652813818,-0.021402710886304355,0.02056965020654716,0.014265901303919018,0.009079821778469853,0.03144792938669687,-0.013946595155080461,-0.01642112445707071,0.030065534592332164,0.006619576986719281,-0.0064603391367226365,-0.030624312953160232,0.014074177495498639,-0.004657940496196739,0.007283846384932542,-0.019332531432647897,0.007063388591313094,0.01247733065833774,0.020284341336635894,-0.010978925505463767,-0.03534876688258684,0.019664374317219676,0.03359735774355191,0.009320075478129406,-0.025607087773042266,0.023688723289351333,0.0011654039022057326,-0.012905600288431107,0.004824547655945518,0.024125098540710172,-0.0053033033463940225,-0.021053274036243772,-0.018080945323333528,0.021936417431173333,0.013904164766650061,-0.040285755473435256,0.029272668068144186,0.027571574385333735,-0.006483204219383059,-0.00730559093709214,0.008646099226259508,0.006613002221549227,0.008221992443424097,-0.029256417552915994,-0.025698488270879633,0.014496293359078496,-0.03114328634674986,0.023147922839628802,-0.027510981941118735,0.021393370974252035,0.03613081708814697,-0.02252281605948423,0.01794140767396903,0.009561798783592434,-0.0032522266876004007,0.01741418830156414,0.02963981577339575,0.03185278431103143,0.020087565645249873,0.03126567163868772,0.017186067284847475,0.02168418910704894,-0.0022830957655513885,0.03844528511639696,0.00589338880590898,0.0005080641490539058,-0.021149519276180962,0.011608150665948528,0.035451902540641546,0.02109769741732252,0.0013053356432507833,0.012884640938733103,0.02392508410857971,0.008040404803259649,0.0016651055234138423,-0.011880967905322165,0.03418299280852224,-0.000454410348455177,-0.02421573560876904,-0.008389340767207652,-0.009523836615711791,0.03318201838687364,-0.027712369001410383,-0.0008229470489393116,0.024344414191386495,0.019049082954115955,-0.01730690608740874,0.01589743168594573,-0.03024753445948501,0.018652262985894577,-0.003765070908822942,-0.027434426249665356,0.02204030688288975,-0.02384671104759953,-0.023946571438286424,-0.007068374268886613,-0.01024559631253126,-0.03624016886620051,-0.01941078984035271,-0.04448402265154467,-0.009216917292560687,-0.023222963362992618,0.013755643422920705,0.004950018742220087,0.012800420743316256,-0.0033782148010481237,-0.02368043653147791,0.0119318261981062,0.027381288680628675,0.0017254224844764526,-0.021085093856175824,-0.029233523271385682,0.008969897584219077,0.006021264104721837,0.00439447916960002,-0.020187943756644545,0.025591798011541735,-0.03164763624519554,-0.03286864781043286,-0.01748062382631159,-0.016328693215984177,0.011414643506350373,0.030730749910811785,-0.026813003707398118,-0.018893775227703732,-0.0013359167166036234,-0.026839858158611393,0.016398694810775185,-0.007124585284676875,-0.016606105247279773,-0.01819144219677681,0.0036963539080121835,-0.001283401989882521,0.022303505833075315,0.015231800556652832,0.017837547083652757,-0.01120159056114171,0.02539194305876147,0.026138692385248578,0.01596800062773428,0.00954897277093719,0.030694323135365742,-0.00342146612365544,-0.0010543811259767324,-0.02459315730932045,-0.015254792206966582,-0.003098467338872485,-0.01263982205522587,-0.030296506601146498,0.025227736612012833,-0.018198061491719753,0.03519900237674167,-0.01355172060261896,0.013447238798839441,-0.0024965787210184383,0.03623388894890719,-0.03350082043063677,-0.027392965783535377,-0.028189872864824075,-0.033439349219111736,0.0338341465337884,0.035059258652869046,-0.01523824568773966,-0.024154897283291354,-0.03593914118011798,-0.010680811196036701,-0.002787812732784365,-0.007245932702482063,-0.0020290388921928248,-0.015109559142680754,0.013448904149468912,-0.015666773784639435,-0.013451212741482968,-0.02239396409616773,0.023930274750942095,-0.030889020260950625,0.029636310595436404,-0.008874993733642311,-0.0053860318772238625,-0.041910490092135995,-0.0203619372902457,0.030152733487204243,-0.037511155501519795,0.005748479039546091,-0.036545101572791505,0.0004276399638543374,-0.03296133624752997,0.02513558643520515,-0.00922596176386041,-0.012135770862003578,0.018100398054056343,0.018733366641642206,0.03312750795782095,-0.00689470655741303,-0.01235111915540662,0.010857727343202452,0.0028637983240981605,-0.025928496196592037,-0.02594734717584753,-0.03548021148355028,-0.023971569090624995,-0.03274803753392209,0.014019168735508104,0.026736761396584194,0.039058144334652704,-0.0036513269960496003,-0.02516672040572133,-0.022975194298305555,0.014909538195548598,0.04007291047903965,-0.005145904586237905,0.009619591809806776,-0.0077046902618701785,-0.005229941389937195,-0.004690069248946933,0.012648137822640196,-0.012639028795079058,0.006421970113305344,-0.00003096468917984587,-0.01410886863892144,0.02363334583572563,0.020446534468629467,0.01210890845958661,0.005862947857273881,0.03109045718908737,0.024543123382936287,-0.013440788032135435,0.029960404548650846,-0.032078324780212476,-0.02367686761122428,0.003080599237149612,-0.03500611914654558,0.021819850993565308,0.030507243811704846,0.027194500760856874,-0.010723858453397118,-0.007081617510707793,0.025546461546116738,0.013366509920145535,0.02620302487008189,0.023638540457941615,-0.005950422197269199,-0.01143032704475793,0.0061715947539992206,0.001846075953807304,0.013402642007194912,0.03404645304009894,-0.02422513634794415,-0.031178696197462864,-0.011530423853018008,0.014497432533331566,0.008722327236511897,-0.014487274715366661,-0.024761785346963616,0.025827295878749927,-0.023721393696817458,-0.022193528364289315,0.030431166805298886,0.015753856090020266,-0.00694458130057852,0.02935221967721534,0.01623116684219185,0.03121372701059305,-0.014398278842651971,-0.0167964316346044,0.0006752722426955738,0.0279508669973192,-0.03576383768239084,0.035618925213139155,0.035716828243589814,0.013236327099557164,-0.001834678978891754,-0.0012953548289587372,0.004254997386863145,-0.014508352040115725,-0.03508054556966924,0.04531687164110791,0.010333198646945966,0.03509662695538214,0.009363593359639414,0.01170635683419304,-0.03498776663396929,0.025841837346883712,-0.027395933062298216,0.016292366111757953,-0.021922588536469643,0.03273759371445975,0.014067274909538111,-0.015091826177168597,-0.022900253858211636,0.0062565685178250586,0.029580076337963578,0.008193217843400751,0.019168612213297135,0.005156489112942924,0.016625061520853784,0.0179083587864226,-0.032281243906765233,-0.0029934338963210016,-0.010836233615746708,-0.016520103871797014,0.007288528992386382,0.033797505680578654,0.011639946727660964,-0.0324423720137205,-0.04254064808318085,0.022214048647609747,0.030696464892803546,0.01664912310184351,-0.03021806123775015,-0.014322825909049321,-0.01450070714481583,0.02216682381867477,0.015364672311753525,-0.026659310505789045,-0.013437609421885082,0.0028303978900155206,-0.033145480602685115,0.0204313519295148,-0.03264266122861739,-0.030469814169001432,-0.026136472567529136,0.009559224207327207,0.017358445123904803,0.0052189593239319165,0.03289457336593675,-0.01839872202865902,0.026759025042932216,0.016427845321231534,0.005637911406346605,0.029135684696784493,-0.028842239152312543,0.024292571201267987,0.026050278770919467,-0.0031632562676155848,-0.011153405338442746,-0.0015364581812861349,0.031882186088433115,0.0012934533352945083,0.02633003065544176,-0.03666731672071397,0.0362135082633337,0.030125039110035057,-0.03216242910138627,-0.03530526864215496,0.0033646251667840965,-0.03058293407804647,-0.022404075108211068,0.011781414766336524,0.004182268170425255,0.005715653498947411,0.002004048913160249,-0.03446775385992492,0.010225839527967252,0.006076834965249664,-0.03567122454493883,0.010337135440909534,-0.013210203275055078,-0.000638710853467524,0.020283998485285053,-0.01143896089713569,-0.0221300630942941,0.003707030188445557,-0.004940841999272062,-0.008823133784670766,-0.008761423200662635,-0.02526708636690505,0.026333784148740387,0.02163152000370796,-0.021390764362227324,-0.025083244625199078,-0.011396476999909276,-0.017632962687999295,0.009582788819933479,0.02428791954937488,0.03156842615581203,-0.028123427962606407,0.01161909837536421,-0.016709572819324767,-0.013470537662538761,-0.007414772965555198,-0.006618438121804065,-0.007502645963482962,-0.01242781774959835,-0.037186135137218225,-0.016750159630694414,0.032610606330151316,0.0207295561377878,-0.013503583651065874,0.0001449745842145943,-0.013416897654610998,0.021193071074717337,0.0007335993553621203,0.02664960714566687,-0.0024610175601026706,-0.033047428756061155,-0.0029855125363899104,-0.02168254538887088,0.03115312422610614,0.01786918588115074,0.017968306937663617,-0.023943717985441374,-0.033130115646840624,-0.004348871671874256,-0.020113753081274163,-0.027828704610985636,0.01812748812664432,-0.010070576855216116,-0.006863895731391804,0.0361240521808155,-0.031512547542001196,-0.005418320194561183,0.031088783223339172,0.0304494426503329,0.002737959207945715,0.010250786073128466,-0.0020089851576256253,-0.022722354189693334,0.008504935187654484,-0.01278875890713357,0.029279099121235733,-0.00386631950842222,0.008727083410212763,-0.02723259087589511,0.021458052341377407,0.0227879248941527,-0.02199590527318481,0.005979892377703539,0.00132782334703157,0.010167029235352825,-0.015119747228794424,0.01623556507803875,-0.02867014326346685,0.0030832364758717873,-0.010588027027529603,-0.008096858374572092,0.010339499356008395,0.02942564561983754,-0.01109465264713893,0.018575131392277865,0.02916839820482809,-0.023225203165026506,-0.02711224622683974,-0.028921462614573255,-0.011828119582352806,-0.0387142014225975,-0.013218301447734249,0.015407097391357925,-0.01660523871738241,0.031535915383977355,0.011667100351763672,0.013920462448390326,0.031033856991876857,0.008562597798925405,-0.025112846800662388,-0.013286032127207638,0.010444549455083392,0.014227905979032908,0.0216436833036378,-0.03786327741679164,0.03370283197907491,0.043695495604960076,0.0040843087715241,0.01928868812502959,-0.04079052999031098,0.003932428692892777,-0.03153350729052474,-0.01931245685840165,0.006772664158950613,-0.022740505379359954,-0.020808111339362403,-0.0036209676616956077,0.02335794833618381,0.0061986891540441215,0.028464984332586346,-0.03208508737801706,0.003295518084796111,-0.00014533877753157353,0.021260291434470918,-0.033680474459987064,0.0034047979501826598,-0.03649865322000935,0.0001812518512434179,0.018370320685438046,-0.03611213056230727,-0.012764868672677782,-0.026200546426347913,-0.02556979288444181,-0.026537678088798578,0.0013963659245760337,-0.009237768006879104,-0.0197916305520186,-0.008977003249932423,0.01084441433270364,-0.022865970560800964,-0.0146075493148543,0.030066143734154418,0.00663932862193856,0.03761260385739522,0.0157499334188965,-0.01797170837787687,0.0037065654455693013,0.019887427628032493,-0.0016138094071071623,-0.0025196500586729064,-0.005071839318122194,-0.01996558654199175,-0.03230792734891,-0.005440155080126524,-0.0020499186528106575,-0.020774461474719765,0.011269343545929886,-0.02753300129103394,0.018092014627390473,0.040584145116986325,-0.038293106521363085,-0.021183252450865116,0.01842729649377672,-0.003672050097458345,0.019960936558582217,-0.029814791008478343,0.013171557572554816,0.001864408075642646,-0.02003399303708355,0.01863807380330971,-0.008136010267161306,0.027634601456102564,-0.012445054837022448,-0.038211109128019914,-0.02096808393202176,-0.01838509116925727,-0.0017604051636094353,-0.02076997718742878,0.020864993116150872,0.014361333787743437,-0.006519566327653803,0.013333827329653597,0.01233729258566945,0.012200825838392049,0.00620902343930223,-0.001583249697235492,0.03151178759972123,0.0056547820293213254,-0.03191996421276531,-0.020434977045586125,0.003820910677870746,0.04562110504146866,0.015542405672913545,0.013225490691334881,-0.023839233849318117,0.003532765431892579,0.02508860213604827,0.013097259595622466,0.014718076825328606,0.016400377908918726,-0.027841129820870836,-0.011611542927383915,-0.009363315705658895,0.0003098186735761386,-0.009429781195007274,-0.0007472385834167932,0.008472897324320224,-0.02087746226689848,-0.0013802048575008935,-0.017976036500573805,-0.020929770744501273,-0.006646440096043347,-0.02371882203346457,-0.010778438638461563,0.032375047793778866,0.013634628279847424,-0.013183841253134952,-0.014071004654534964,-0.026315884804129074,-0.007336153914917618,-0.01683828640709263,-0.003743364485323047,-0.019903076158698952,0.034109199314595495,-0.005817361870837222,0.026668205538856498,0.02067732218332534,-0.03694337523753894,0.009416037615218205,-0.032642547414743685,-0.021221063317980352,0.028522333857678567,0.005673605439194085,-0.02175346736462596,-0.007388674964400616,0.027856929045593882,0.030203545859740225,-0.03488973488526797,-0.003717823148146479,0.002181637272687718,-0.007053573103226707,0.015801918766119888,-0.025181877967104613,-0.0069334277848590396,0.001236351281325134,0.02097056867405042,-0.022242444699956485,-0.02828122186911337,-0.014951082975846991,-0.016772661954718722,0.023662550585452875,0.014426772036088357,-0.005005954502763134,0.0356104277792769,0.016760354775557925,0.01951504006842695,0.0015505049574635536,-0.030860593220461464,-0.015636674705733107,0.028339925906256336,-0.034214261100684595,-0.0012921401399641598,0.023831234469568398,-0.019681570570969996,-0.04144372388730645,0.025596689079438087,0.01639447510152514,0.042764867016884305,-0.012944252620541698,-0.03235801923240237,-0.021764847289600337,-0.013535112835525895,0.03425571472405739,-0.028205584057911872,-0.004475442276469162,-0.019064236367289638,-0.03546571902431925,0.012853277938773985,0.02309175035838136,-0.03147205250150132,-0.018004673849079833,-0.031560983556309825,0.0010165573190044394,0.006799447349750531,0.0016605736648657465,0.01372225762603515,-0.0034828584655727927,-0.01797874903337564,-0.021274160146246,0.00084144394215765,-0.017756188913146464,-0.016995088989785436,-0.016466286958246014,-0.032497478085014735,0.009877639045102062,0.01656565420400153,0.02600124272182215,0.00036801491570195394,0.009582818297774225,-0.012524561992787737,-0.014283177970727494,0.0004651126110379424,-0.018790548210454953,-0.021973101433322376,-0.036845847704776814,0.023558605728975383,0.0485552701872953,0.024982570822944746,0.014505410632043277,-0.04853688079611653,0.04411274893460812,0.012554078379727107,-0.0008201884321743484,0.03050186047749262,0.010391935282505557,0.032740954293355516,0.03747300333726322,0.01853501528334606,0.013296581432095356,0.00813078305483734,0.02067572806566049,-0.0181640037322726,0.018623613843330646,-0.006726752856328403,0.025986012793680586,0.028031414494177887,0.009618630691594849,-0.015117545838503003,-0.004825777992871611,-0.018984648534004257,-0.0081830334364416,0.0020248453519195082,0.013152534590646536,-0.011425646988493863,0.029977343879934688,-0.02222686928524217,-0.021517349192855043,0.023934194619125677,-0.001988951174838174,-0.012582545203894905,0.001695556582627748,-0.027372303744053476,-0.0324498491511768,-0.029980408587161656,0.02088633616217941,0.011318544486563963,-0.003671873722798981,0.031770951291567116,0.0147770429340029,-0.0008725479000379477,-0.012759636743609462,-0.020835510095768967,-0.04284178380350267,0.025957640098081505,0.020307474337201797,-0.024160163285276037,0.0030420608278743265,-0.025761567152882046,-0.013053262390087661,-0.02714230813567524,-0.02911377711666212,-0.018202219181726223,-0.005850564369626855,0.006503167113186115,0.026560976079337405,-0.03250119293298703,-0.03139320192308708,0.009358328445249761,0.01594713743245447,-0.008739455457410917,-0.02071179886522187,-0.010693473929107177,0.0019166231169653303,-0.02411969322073586,0.03812313310740295,-0.02192912299086905,-0.0016838999244816377,-0.015102858332070519,0.0011655920781405338,0.0005661112069808292,-0.003789559867631496,-0.005194404141988823,0.015962611034432108,0.01615304885250526,0.019030830147194804,0.026614768689646226,0.024593008813782725,0.007740431380109362,0.025915820699654354,-0.022862190685156807,0.00744050624098648,0.03329444156197648,-0.015520596269374425,-0.012369204379493265,-0.01759186776408613,0.0034050277047929967,-0.024486537795589423,-0.006612788892056803,0.025795908754139913,0.029527039159392008,0.012137287530883528,-0.0365053808726908,-0.006683839132806995,0.023585829868550137,0.02158437899397268,0.0033064856575762557,0.020891280085890633,0.02123007943625228,-0.0060842762528069555,-0.019401135089299033,0.017603400954564287,0.023624182965093485,0.028168329003576464,0.013999960939549132,-0.00817306152979455,-0.031264951975977895,-0.012436141518474308,0.03367191952746698,0.02405079925704816,0.0037802977772917767,-0.027326811565213834,-0.0035618832625186427,-0.010575708428291149,-0.009074539713093048,0.014750485424467023,0.030430024978666127,-0.02975857147946473,0.0030679158252901136,0.034723916827667206,-0.03578711325846742,0.002256303070275213,0.028472612098895775,0.011862671526828936,-0.02182792662524863,-0.016746872242281313,-0.002433965500531207,0.011803292678330933,0.009976926152523425,-0.035737274508062446,-0.019582673943666678,0.028021628750210855,-0.03016892944176247,0.014866273373827777,0.003079113900441263,0.009651971855410323,-0.004817869239458548,0.005432859794159926,-0.004572435188105186,-0.012221591762557923,-0.023436140565224313,-0.03710150270002623,0.011472764812082802,0.013956374987052001,-0.015545455484265744,0.039644315716229575,0.017799945210164134,-0.02124487807096236,-0.03429623885941844,-0.01776775588951739,-0.00487368656233893,-0.022113938685597904,-0.031814742274573815,-0.006517660554294395,-0.010730301313865489,-0.011596542153421187,-0.007042493719000605,-0.011287094005256602,-0.015517363039089604,-0.026964813571041153,-0.026127612945162096,-0.05162455806968562,-0.004052207784393015,0.01629347017446566,-0.015879708145144732,-0.014679121147613968,-0.009656012807536843,0.0015357788507160193,0.006187902745609128,0.004971316103643532,0.003936404169608699,0.028490991954789505,-0.001817710811616926,-0.0073882852723592615,-0.022587248589780954,-0.0201585610725632,0.0016631440050200487,-0.02499419206246326,0.010453090603086678,0.02668615691980338,-0.009745120493117838,0.03146047244954815,-0.010185635769308714,0.03392500952255097,-0.005896437137655012,0.031178694532885055,-0.020912114212187763,-0.013411899827760943,-0.03547820082051133,-0.023561058967767633,0.0006322128606246377,0.03116024065525871,0.001781100511040593,0.030761787863801262,0.0229533228434618,-0.011647571880427803,0.0451240137487292,0.014042828159435835,-0.01872064388066148,0.03553591694978936,0.022831262029170043,-0.011429800378422353,0.032569166294308116,0.004871042228103073,-0.025712981779418716,-0.023757716064784256,-0.019240010105777285,-0.015566264007022225,0.019990937613065297,0.02711493176653968,-0.006472408480092671,-0.010489332607587503,0.004975442693317001,-0.014132052531392653,-0.04659673936682363,0.035320334159780684,0.023137396980931983,0.009770454165872003,-0.028817683951926208,0.020807959773823013,0.02754038294754506,-0.03651219339945758,-0.019246771568928945,-0.011921155266834519,0.05242018187121924,0.004917507409465264,-0.006998972754790384,0.03294344023509894,0.014025704098798478,0.001009663456676338,-0.04543656444956322,0.011854505816888855,0.011593549439163475,-0.026316507857310184,0.009632234293555041,-0.016169309630894795,-0.007674393152277554,-0.03932872069641635,0.022175424823423714,-0.007227595677954253,-0.014332975173688553,-0.046889213244015286,-0.02311569994173417,0.008759986960718431,0.04797183003669031,0.016121996244217087,-0.036265115418979574,0.03150777474916329,-0.04495654139980799,0.03213367746012265,0.05340482801149034,0.020958118301102963,0.027587177203057495,-0.011603532512913801,0.01823988940933927,0.017967261232812424,0.03451774557830769,0.06837106124746622,-0.0025092610459833283,0.01395100181744722,-0.019773430074674317,-0.014755706653607306,-0.030642249084820432,-0.005608008877342592,-0.021492851165881482,-0.01038144865468542,-0.004303471408633999,-0.022491356937296612,0.04349598346583442,-0.036766244553274326,0.015263702751032093,0.02074786308723272,0.015279932904174115,-0.034970703230747906,-0.043956224071221954,0.013085696937559595,-0.026775206063903746,-0.046782289228891195,0.02058154581936176,-0.0322585150746687,0.021384789849843426,0.028533738418467593,-0.0038434306068885872,-0.006009771189049277,-0.00895738597842246,0.015646089443163,-0.01563235279447523,0.026760505084227955,-0.0004932979918634669,-0.0005835622062396989,-0.03871831457338856,-0.022662867499863404,0.021509764739557072,0.033199635558323004,-0.02762264794006751,0.005418739923805565,-0.0001221416820186404,-0.02421024006176086,-0.010264856288235142,0.03992245663849198,-0.012444346079987753,-0.03239554393494832,-0.0017974595799125361,-0.025904985129391586,-0.01871586082407117,-0.016869376382986155,0.0014913864964914902,0.026283325847692534,0.051619371050364765,0.039274513942455826,-0.003303853655519708,-0.011213752327600876,-0.011323540813611577,-0.034619345100034504,-0.021847422983032924,0.03673919362299117,0.00505087647425652,0.0025520939827630967,-0.023707620140802424,-0.03593225085385937,-0.04253508935001437,-0.0031214318063497557,0.03194356488255202,-0.032854859857758545,0.02887858389475764,-0.052973722674171095,-0.03884994098017687,0.04670353933345188,0.011684001253308091,-0.05061405505919137,-0.04321220618298919,-0.004276311643709232,-0.002232396160423362,-0.015804432297426278,0.03543010926478159,0.020366610273037093,-0.03211270106159627,-0.0030553586229168476,0.029357268208420186,0.013094730841361223,-0.024622042526447854,0.021924280602053377,0.012292647939422233,-0.0012491066258457357,-0.03174326639094174,0.015364341857135215,0.0014426778646762961,0.014067300326933724,-0.04232842678237845,-0.012325048781400796,-0.010925708746735641,-0.016367914148707908,-0.009574846965498358,-0.02299138829696595,-0.03515757320578067,-0.020824381456331028,0.016857318206232465,0.04025586389019183,0.004978551444449131,0.029518551034708157,0.029680813888890597,0.02139103995678995,-0.046934168317885036,0.022266940012616785,-0.019686385858752008,0.004167714499663195,0.022076069102793486,-0.03813161483328247,0.0016492407787763168,-0.010296008629028151,-0.02057628126611624,0.012354130537739956,-0.005402026858911375,-0.002355860645365876,-0.010626484095879287,-0.016547405612927894,-0.008448342988706047,0.02336645986944847,-0.019512012100079835,0.004818751162858764,0.004513520001140959,0.012820039850885678,0.03424004545390088,0.021783505227918016,0.009995048097618388,0.00775432075787214,-0.023926104529025105,-0.01561579021805579,-0.02088774017377365,0.017316623239482944,-0.013991321676299844,0.026688214966999902,-0.015269376585300518,-0.020113655618293855,0.0010941200163867896,0.014006234909236272,0.03696565823649906,0.022048527850912394,0.02381819560883359,0.007583426363447828,-0.015610356351983557,0.012839004825664602,0.019252766591842028,0.03159926246899304,-0.018770542187499448,0.018313299202737936,-0.023699783222489588,0.036005416954666275,-0.013535861717692978,0.02629789327775536,0.011333192013395534,0.00822455446179569,-0.018442133696496287,-0.04190929068537753,0.009069572928740537,-0.023639287835010146,0.005575363807887854,0.0034164756742355376,0.020429279581774824,-0.01588117086005177,0.009299896951141464,-0.009029288920835602,0.0027859849170074327,-0.019623132308712713,0.02981676811785294,-0.031173347225238852,-0.023472705268987707,0.023710119258498783,0.0012577357927793203,-0.031158925729145075,-0.0052643666549515656,-0.006308870048236412,0.01715618594431441,0.0009200364737924713,-0.01882965626627878,0.0033034624841487377,-0.03405951946648541,-0.003373008652480815,0.02456770513100016,0.01046366384500449,0.034730038416314696,-0.027887328568813135,-0.010246451302549201,